{"version": "0.5.1", "metadata": {"date": {"year": 2023, "month": 4, "day": 28, "hour": 5, "minute": 29, "second": 52}, "loudness": -12.515954971313477, "gain": 0.7936524413626762, "name": null, "modeled_by": null, "gear_type": null, "gear_make": null, "gear_model": null, "tone_type": null}, "architecture": "WaveNet", "config": {"layers": [{"input_size": 1, "condition_size": 1, "head_size": 8, "channels": 16, "kernel_size": 3, "dilations": [1, 2, 4, 8, 16, 32, 64, 128, 256, 512], "activation": "Tanh", "gated": false, "head_bias": false}, {"input_size": 16, "condition_size": 1, "head_size": 1, "channels": 8, "kernel_size": 3, "dilations": [1, 2, 4, 8, 16, 32, 64, 128, 256, 512], "activation": "Tanh", "gated": false, "head_bias": true}], "head": null, "head_scale": 0.02}, "weights": [-0.03129279613494873, 0.7147320508956909, -0.9237280488014221, -0.7465568780899048, -0.4092184007167816, 0.2586807608604431, -0.0007096958579495549, 0.8912801742553711, -0.11397968232631683, 0.3119812309741974, -0.29719698429107666, -0.18902963399887085, -1.0291587114334106, -0.6799101233482361, -0.48897406458854675, -0.03857559710741043, 0.1824900209903717, 0.1770811527967453, -0.23295678198337555, -0.19314946234226227, -0.03371927887201309, 0.2325759381055832, 0.0882616639137268, 0.19110527634620667, -0.13443095982074738, 0.14084623754024506, 0.21592977643013, -0.2471880465745926, 0.028016142547130585, 0.04143305495381355, -0.16928035020828247, 0.015325973741710186, -0.16460435092449188, 0.05829915776848793, -0.01723702996969223, -0.11824965476989746, -0.16718512773513794, 0.0015493740793317556, -0.021992642432451248, 0.1836557388305664, 0.12523189187049866, -0.007861454971134663, -0.1079288050532341, -0.247958704829216, -0.1720999926328659, 0.06193328648805618, 0.20040923357009888, 0.15591412782669067, -0.1922561377286911, 0.10376094281673431, 0.1751672625541687, 0.01287357322871685, 0.18242588639259338, 0.10637842863798141, -0.015396489761769772, 0.0384228341281414, 0.10939808934926987, -0.22851069271564484, 0.030117398127913475, 0.013785104267299175, -0.0414728969335556, -0.022711796686053276, -0.20685523748397827, -0.058991171419620514, -0.11225394159555435, -0.031451888382434845, -0.021927356719970703, 0.1849890500307083, 0.053706005215644836, 0.06733867526054382, -0.24462567269802094, -0.015395309776067734, 0.1385214924812317, -0.019176078960299492, 0.1649283468723297, 0.19792532920837402, -0.1178145706653595, -0.08650405704975128, 0.08568072319030762, 0.034853022545576096, -0.1743764877319336, 0.0592319592833519, -0.11639571189880371, -0.22685331106185913, -0.07858722656965256, 0.10955996066331863, -0.0630805715918541, -0.14159420132637024, -0.09027689695358276, -0.05997660011053085, 0.09866394102573395, 0.20054525136947632, 0.05324401706457138, -0.02395552769303322, -0.26792487502098083, -0.04880905523896217, 0.14471249282360077, -0.10661701112985611, -0.07973016798496246, -0.01804439164698124, -0.0008212806424126029, 0.1365254670381546, 0.010069010779261589, -0.17175333201885223, -0.09632183611392975, 0.07287894934415817, -0.25931107997894287, -0.0812009796500206, 0.056504666805267334, -0.05843743681907654, -0.04635429009795189, 0.09801291674375534, 0.03257295861840248, -0.09099626541137695, 0.2658005356788635, -0.165642648935318, 0.22519296407699585, -0.11135058850049973, 0.05175084248185158, -0.22543001174926758, 0.16946278512477875, 0.04341660812497139, -0.3298551142215729, 0.18062549829483032, -0.08851310610771179, -0.3361268937587738, 0.08740484714508057, -0.11267893761396408, 0.1866002231836319, -0.24454788863658905, 0.07621825486421585, -0.021204888820648193, -0.03648127615451813, -0.03895725682377815, 0.36388954520225525, -0.1279141753911972, 0.08308620750904083, -0.2174767553806305, 0.18652626872062683, 0.04664004594087601, 0.37978753447532654, -0.04541639983654022, 0.17772579193115234, -0.25374409556388855, -0.002752998610958457, -0.012400292791426182, -0.14289139211177826, 0.1354670375585556, -0.03995248302817345, -0.372335284948349, -0.0239288117736578, -0.08717018365859985, -0.2860695421695709, 0.1954965889453888, 0.12133754789829254, -0.3974463939666748, 0.20691049098968506, 0.0038831401616334915, -0.09108131378889084, -0.13371458649635315, -0.04240592569112778, 0.2459469884634018, -0.23182347416877747, -0.1522717922925949, -0.31025850772857666, 0.0937487781047821, -0.03813929110765457, 0.33519941568374634, -0.22106106579303741, 0.020017635077238083, 0.4096069037914276, -0.14855718612670898, 0.14864009618759155, 0.3276834487915039, -0.23001323640346527, 0.07854834198951721, -0.2727704346179962, 0.039343833923339844, 0.06663405150175095, -0.004446093458682299, -0.0004947020206600428, -0.06010400503873825, -0.1796139031648636, 0.13151323795318604, 0.053586747497320175, 0.28231021761894226, -0.15647178888320923, -0.04733109474182129, -0.3822992444038391, 0.19220006465911865, 0.13143466413021088, 0.360746294260025, -0.2080988585948944, 0.015125664882361889, 0.16555768251419067, -0.18979386985301971, -0.05277717486023903, 0.3337537944316864, -0.17511560022830963, 0.02469589374959469, 0.2852739989757538, -0.0007119183428585529, -0.08409557491540909, 0.18550994992256165, -0.17310932278633118, 0.014147006906569004, -0.048442598432302475, 0.17537733912467957, -0.06349848210811615, -0.04892830178141594, 0.1492212563753128, 0.07196994125843048, 0.06873124092817307, -0.2192872166633606, -0.09064479172229767, -0.028708338737487793, 0.07522053271532059, -0.16998383402824402, 0.0711025595664978, 0.06871656328439713, -0.11099621653556824, 0.09136392921209335, 0.2348557859659195, 0.09072699397802353, -0.08405325561761856, -0.10928929597139359, 0.018945226445794106, 0.09065978229045868, 0.185521200299263, 0.07106364518404007, 0.04828045144677162, -0.06871265918016434, -0.09094487875699997, 0.07370784133672714, 0.2474171668291092, -0.0033275876194238663, 0.10170400887727737, -0.2944807708263397, -0.14729684591293335, 0.0041654701344668865, 0.23641736805438995, 0.01897810958325863, -0.09596668928861618, 0.18684199452400208, -0.01959032192826271, -0.18599341809749603, 0.29118749499320984, -0.21211397647857666, -0.042250752449035645, 0.1633055955171585, -0.17916952073574066, -0.03608730435371399, 0.29680779576301575, -0.05265889689326286, -0.057034313678741455, -0.05672149732708931, -0.02682853676378727, 0.025090016424655914, -0.014948613941669464, -0.13419969379901886, -0.010395919904112816, 0.09518980979919434, 0.09975175559520721, 0.04137708991765976, 0.03644559159874916, -0.02227064222097397, -0.1128954365849495, 0.0293087400496006, 0.15989993512630463, -0.025613190606236458, -0.07432703673839569, -0.09732764214277267, -0.0829794630408287, 0.02456662245094776, 0.08537409454584122, -0.07718147337436676, 0.22932209074497223, -0.11664218455553055, 0.055247724056243896, 0.05543738231062889, 0.07065124809741974, -0.12150179594755173, -0.07641172409057617, 0.08307459950447083, 0.08455038070678711, 0.11152157932519913, -0.020497038960456848, -0.017207873985171318, -0.029728900641202927, 0.040004897862672806, -0.14451205730438232, 0.06132962554693222, 0.06897727400064468, -0.07637882232666016, -0.04772130772471428, -0.06369864195585251, 0.02935139648616314, -0.11828987300395966, 0.09582766890525818, -0.11816953867673874, -0.08134634792804718, 0.08601976186037064, -0.05263856425881386, -0.028021767735481262, 0.0695953518152237, -0.25183460116386414, 0.2306673228740692, 0.09038129448890686, 0.23907451331615448, -0.1849055290222168, -0.15491065382957458, -0.20381927490234375, 0.21195507049560547, -0.08635959774255753, -0.1269349306821823, 0.25684696435928345, -0.0974477007985115, -0.17142778635025024, 0.23000729084014893, 0.03297119587659836, 0.17180003225803375, -0.1553260087966919, -0.09797995537519455, -0.038593851029872894, 0.17977316677570343, 0.16566407680511475, 0.2676895260810852, -0.14269065856933594, 0.07588115334510803, -0.20038636028766632, 0.07991348952054977, -0.10152343660593033, 0.3083847165107727, -0.09345640987157822, -0.12478651106357574, -0.1098032295703888, 0.2834116816520691, 0.1335577368736267, -0.039326418191194534, 0.294919490814209, -0.06924016028642654, -0.23462878167629242, 0.2784839868545532, 0.04713818058371544, -0.2660687565803528, 0.2944665551185608, 0.0404510423541069, -0.10198713093996048, 0.07358203828334808, 0.11213453114032745, -0.07917528599500656, 0.03154778108000755, 0.024943143129348755, -0.22096854448318481, 0.0335935540497303, 0.07982538640499115, 0.25183922052383423, 0.07541484385728836, -0.1243789941072464, -0.25978216528892517, -0.10058236867189407, -0.1644783765077591, -0.4097954034805298, 0.10858584195375443, 0.06866089254617691, -0.15348540246486664, 0.11784258484840393, -0.12211156636476517, 0.16898351907730103, -0.03278689458966255, -0.020216912031173706, -0.039011400192976, -0.18118324875831604, -0.0463087297976017, 0.15403805673122406, -0.07866360992193222, 0.14028911292552948, -0.1313270777463913, 0.12408937513828278, 0.11893101781606674, 0.4028293788433075, -0.05409393832087517, 0.05318010598421097, -0.1446216106414795, 0.05856797471642494, 0.14710374176502228, -0.20245936512947083, 0.10221751034259796, -0.07553011924028397, -0.22638732194900513, 0.010769130662083626, -0.05568868666887283, -0.3721015751361847, -0.08256570249795914, -0.13009217381477356, -0.2027207314968109, 0.09419240802526474, -0.06246977299451828, -0.19985012710094452, -0.023545656353235245, 0.2376479059457779, -0.10934044420719147, -0.09878386557102203, 0.05484186112880707, 0.2159646451473236, -0.0027154269628226757, 0.20247946679592133, -0.04331819340586662, -0.1641833633184433, 0.1498679220676422, -0.23535794019699097, -0.12882086634635925, 0.2040567249059677, -0.14241406321525574, -0.19989898800849915, -0.12016913294792175, 0.09515617042779922, 0.05781521648168564, 0.09773040562868118, 0.04992079734802246, -0.035269878804683685, -0.15471792221069336, 0.16037192940711975, 0.1772381216287613, 0.176951602101326, -0.23893293738365173, -0.0773889347910881, -0.17959561944007874, 0.08334774523973465, 0.13997088372707367, -0.03311307355761528, -0.08874677121639252, 0.030721798539161682, 0.093962661921978, -0.23380593955516815, -0.13118012249469757, 0.09755121171474457, -0.2648250162601471, -0.037499599158763885, -0.06349478662014008, -0.29089125990867615, -0.2454097419977188, 0.04945305734872818, -0.053721003234386444, -0.23966272175312042, 0.18853111565113068, -0.10550571978092194, -0.06210211291909218, 0.08654418587684631, -0.23992057144641876, 0.2409934401512146, 0.06096430867910385, 0.2714789807796478, -0.00806481298059225, -0.08654720336198807, -0.0032970020547509193, 0.08680034428834915, 0.076924629509449, -0.24229545891284943, 0.03863025829195976, -0.12103790044784546, -0.17717695236206055, 0.11360813677310944, -0.1286502182483673, 0.15549206733703613, -0.01500838715583086, 0.13224323093891144, -0.09177897870540619, -0.0067847734317183495, -0.051718201488256454, 0.189238041639328, 0.06134627014398575, 0.12200665473937988, -0.11056116223335266, 0.15941472351551056, -0.16025768220424652, -0.012009180150926113, -0.03494326397776604, -0.06486686319112778, -0.04091186821460724, -0.005943052936345339, -0.04231530427932739, -0.23202316462993622, 0.17667824029922485, -0.007876487448811531, -0.016245538368821144, 0.1687747687101364, 0.08887386322021484, -0.1192585751414299, 0.03867372125387192, -0.017675623297691345, -0.11005651950836182, 0.14846765995025635, 0.04766107350587845, 0.21938177943229675, 0.04341094568371773, -0.343669056892395, -0.08779505640268326, 0.199955016374588, 0.41528722643852234, -0.07949783653020859, 0.06978119909763336, -0.2035411149263382, 0.03321289271116257, 0.15462654829025269, -0.353305459022522, -0.007012736983597279, 0.09332426637411118, -0.31315839290618896, 0.0034844796173274517, -0.005558216478675604, 0.3409689664840698, -0.008973478339612484, -0.10771019756793976, -0.04968685656785965, 0.116719551384449, 0.012040779925882816, 0.2871398627758026, 0.13636371493339539, -0.050086844712495804, -0.18786093592643738, -0.037073276937007904, 0.12664330005645752, 0.1552143543958664, -0.054956018924713135, -0.1351107507944107, -0.12241030484437943, -0.07136977463960648, 0.05540790036320686, -0.3148716390132904, 0.10892689973115921, 0.2022157609462738, -0.38577279448509216, -0.17145174741744995, -0.07629688829183578, -0.27489173412323, -0.08589300513267517, -0.05568341910839081, -0.33122044801712036, -0.02586417645215988, -0.046674828976392746, 0.10967762768268585, 0.09933397173881531, -0.016155382618308067, -0.03770354390144348, 0.3175276517868042, -0.20280781388282776, 0.028374018147587776, -0.25408944487571716, 0.246672123670578, -0.15167900919914246, 0.05282457545399666, 0.03315255790948868, -0.10614026337862015, 0.22135688364505768, -0.11915842443704605, -0.05933024734258652, 0.15790192782878876, -0.019919050857424736, 0.03261592239141464, -0.30976951122283936, 0.038107406347990036, -0.16493205726146698, 0.11222582310438156, -0.23537996411323547, 0.15001508593559265, -0.22328096628189087, 0.08388497680425644, 0.0637400671839714, 0.2263362854719162, -0.01644878461956978, 0.11121436208486557, -0.2189207226037979, 0.0339505635201931, -0.034588832408189774, 0.29311829805374146, -0.17217491567134857, -0.16353951394557953, 0.24019813537597656, 0.017350072041153908, -0.05441821739077568, 0.07422862201929092, -0.23790192604064941, 0.01949826255440712, 0.17849980294704437, -0.18448880314826965, 0.008473275229334831, 0.25326377153396606, 0.010205429047346115, 0.01543404720723629, 0.053071241825819016, 0.05590422451496124, -0.2615227997303009, 0.10222329944372177, 0.19125676155090332, 0.236609548330307, -0.06259861588478088, 0.02825571969151497, -0.03200444579124451, 0.06613031774759293, -0.0190455112606287, -0.22398409247398376, -0.1637844294309616, 0.23933188617229462, -0.22430530190467834, -0.1198464035987854, 0.18500931560993195, 0.08312039077281952, -0.02266594208776951, -0.12788324058055878, -0.1924683153629303, -0.19922946393489838, 0.12054692208766937, 0.10458394885063171, 0.11607193946838379, 0.021670103073120117, -0.05935095250606537, -0.0030778974760323763, 0.25715675950050354, 0.1725529134273529, -0.024283096194267273, 0.00811414048075676, -0.11759171634912491, -0.18890489637851715, 0.07734651118516922, -0.24252106249332428, 0.07652772217988968, 0.10004231333732605, -0.30203041434288025, -0.07512766122817993, 0.19253987073898315, -0.12984566390514374, -0.015228407457470894, 0.12066175043582916, -0.11880883574485779, -0.09907559305429459, 0.043844785541296005, -0.0834018811583519, -0.07212871313095093, 0.009027325548231602, -0.21419620513916016, -0.0035657843109220266, 0.06394582241773605, 0.07956913113594055, -0.11801982671022415, 0.052316341549158096, -0.14225436747074127, 0.14390046894550323, -0.0207124762237072, -0.09660197794437408, 0.10410825908184052, 0.027765857055783272, 0.0473211407661438, -0.08130565285682678, -0.045196227729320526, -0.0007730132783763111, 0.010739016346633434, 0.06190967187285423, -0.1526491641998291, 0.06277753412723541, 0.014829760417342186, 0.027678564190864563, 0.08036311715841293, -0.2020631581544876, -0.07856685668230057, 0.12038429826498032, 0.020416900515556335, 0.1745615303516388, -0.06518986821174622, 0.04064750671386719, -0.20133449137210846, -0.0019540840294212103, 0.051127996295690536, -0.030402876436710358, 0.06489041447639465, 0.1743614673614502, -0.08093094825744629, 0.021374555304646492, 0.18912118673324585, -0.09941650927066803, 0.151974156498909, -0.008217540569603443, -0.08788866549730301, 0.009802909567952156, 0.14513885974884033, 0.04065057262778282, -0.08872110396623611, -0.2111085057258606, -0.04695664718747139, 0.10906096547842026, 0.02658703178167343, 0.05783791467547417, 0.030476337298750877, 0.14633339643478394, -0.13406839966773987, -0.07587394118309021, 0.08995237201452255, -0.2572442293167114, 0.08778698742389679, 0.004964504856616259, -0.20532874763011932, 0.1209867000579834, -0.1290636509656906, 0.1738469898700714, -0.14995448291301727, -0.003920846618711948, -0.03292236104607582, 0.09743501991033554, -0.20238886773586273, 0.24381974339485168, -0.07278715819120407, -0.053555525839328766, -0.24998466670513153, -0.06355955451726913, 0.13196122646331787, 0.11301858723163605, -0.05020532011985779, 0.049394167959690094, -0.04913986474275589, 0.1787651628255844, 0.1041901558637619, -0.24385479092597961, 0.04087313637137413, -0.09273972362279892, -0.23381580412387848, 0.08841448277235031, 0.11953329294919968, -0.26487746834754944, 0.14298589527606964, -0.08911114186048508, -0.16754594445228577, 0.1817782074213028, -0.039016108959913254, -0.058780569583177567, 0.023699557408690453, 0.29751744866371155, 0.14238636195659637, -0.24251554906368256, 0.21071189641952515, -0.2007788121700287, 0.09470074623823166, -0.09045608341693878, 0.20421068370342255, -0.24855926632881165, 0.1620917022228241, 0.21188905835151672, -0.11609884351491928, 0.02235623262822628, 0.08252287656068802, -0.2513366937637329, -0.014394371770322323, -0.08761957287788391, 0.30597737431526184, 0.012916972860693932, 0.06001363322138786, 0.006146186962723732, 0.02859661728143692, 0.021822644397616386, 0.15124955773353577, -0.19726397097110748, 0.12810920178890228, -0.0864148661494255, -0.0027645444497466087, 0.04263878986239433, 0.2588476538658142, -0.20855243504047394, 0.05318109318614006, -0.0806872621178627, -0.00706308800727129, 0.0580894909799099, -0.14684218168258667, -0.008511066436767578, 0.16595937311649323, -0.13784737884998322, 0.18555840849876404, -0.0052474141120910645, -0.06769976019859314, 0.010832893662154675, 0.24286581575870514, -0.3423852324485779, -0.027143189683556557, 0.18818676471710205, 0.022120142355561256, 0.0950423926115036, -0.08025452494621277, -0.03259720653295517, -0.0610339380800724, -0.044353995472192764, 0.03796156123280525, 0.09725325554609299, -0.04498729109764099, -0.03544235974550247, 0.10616318881511688, 0.043664850294589996, -0.1403651088476181, -0.05699140205979347, -0.04931996762752533, -0.026777632534503937, -0.001942837261594832, -0.0020860789809376, 0.5507403612136841, -0.502820611000061, 0.6953482627868652, -0.620366096496582, -0.18490161001682281, 0.9236500263214111, 0.8430424928665161, -0.5671849846839905, 0.29612141847610474, 0.046042393893003464, -0.4926113188266754, -0.2455306500196457, 0.17701297998428345, -0.7935552597045898, 0.18364277482032776, 0.34259045124053955, -0.15298372507095337, 0.37608328461647034, -0.04999396204948425, 0.1484598070383072, 0.2747674882411957, -0.19071121513843536, 0.14464928209781647, 0.01068845670670271, -0.1579936444759369, -0.048730313777923584, 0.08309692144393921, -0.04982505738735199, 0.1552688032388687, 0.09078847616910934, 0.30593979358673096, -0.16745471954345703, 0.3856183588504791, -0.28560853004455566, -0.25678014755249023, 0.21646271646022797, -0.49957889318466187, 0.11374159902334213, -0.23103007674217224, -0.12320999801158905, 0.018604768440127373, 0.1058129295706749, -0.4713723361492157, 0.0332987941801548, -0.1526561677455902, -0.24738968908786774, 0.010007651522755623, 0.34293606877326965, 0.02563575655221939, 0.157866433262825, -0.11662925779819489, 0.21418268978595734, 0.029106849804520607, -0.32103827595710754, -0.01135226059705019, -0.3138333559036255, -0.15114212036132812, -0.16534414887428284, 0.09648578613996506, -0.14873038232326508, 0.10269578546285629, 0.4078232944011688, -0.07699916511774063, 0.009759316220879555, 0.2290107160806656, -0.22888265550136566, -0.029977841302752495, -0.22485986351966858, -0.20629045367240906, 0.2716958224773407, 0.01751459762454033, 0.02480550855398178, -0.0820794552564621, 0.22647248208522797, -0.20158345997333527, -0.2610113322734833, 0.09427511692047119, 0.02455437183380127, -0.07072319835424423, 0.126320019364357, 0.21097642183303833, -0.32169002294540405, -0.3098906874656677, 0.3262408971786499, 0.013392572291195393, 0.09473498165607452, -0.03291121870279312, -0.4717998504638672, -0.0048211789689958096, 0.11228621006011963, -0.5045921206474304, 0.30052289366722107, -0.1878003031015396, 0.19417932629585266, -0.38650044798851013, -0.1397033929824829, -0.11424989998340607, -0.11158010363578796, 0.10249896347522736, 0.11872850358486176, 0.16274964809417725, 0.21785612404346466, 0.20692360401153564, 0.051394104957580566, 0.20130616426467896, -0.16897794604301453, -0.2206343561410904, 0.07249095290899277, -0.05733046680688858, -0.14554254710674286, -0.0745554193854332, 0.021176554262638092, 0.01916751079261303, 0.26017218828201294, 0.1441888064146042, 0.17402346432209015, -0.09594320505857468, -0.22123925387859344, 0.05922594666481018, 0.007803190033882856, 0.03447446599602699, -0.307253360748291, -0.10189880430698395, 0.26122379302978516, 0.2563496530056, -0.14952398836612701, 0.22698864340782166, -0.3564997613430023, 0.14446280896663666, 0.1348089724779129, 0.3362424671649933, -0.24904975295066833, -0.10772525519132614, 0.17449401319026947, 0.3081343173980713, 0.14185595512390137, 0.18047504127025604, -0.22567614912986755, 0.3068998157978058, -0.15679456293582916, 0.1673126369714737, -0.15481442213058472, -0.10383402556180954, -0.014774732291698456, -0.16073547303676605, 0.07735451310873032, -0.22490765154361725, -0.22997432947158813, 0.140884667634964, -0.12031076848506927, -0.13488583266735077, 0.01177079789340496, -0.2665265202522278, -0.12643976509571075, 0.18917535245418549, 0.05809173360466957, 0.08774872869253159, -0.08613826334476471, 0.2291860282421112, -0.07669036835432053, -0.26022711396217346, -0.06350667029619217, 0.3437419533729553, -0.32024815678596497, -0.12215308099985123, 0.06482677161693573, 0.2893005609512329, -0.04978299140930176, 0.14478853344917297, 0.22392138838768005, 0.16658583283424377, 0.005227692890912294, 0.27091601490974426, 0.12032802402973175, -0.1261867731809616, 0.1433812826871872, 0.05010725557804108, 0.2663589119911194, -0.21787980198860168, 0.0792858898639679, -0.06799710541963577, -0.20481470227241516, 0.08480269461870193, -0.014627759344875813, 0.023344814777374268, -0.025984590873122215, -0.15448376536369324, -0.19597437977790833, -0.04562251642346382, 0.13839270174503326, 0.20412133634090424, 0.25789675116539, 0.30814775824546814, -0.16387270390987396, -0.014597605913877487, 0.15412704646587372, -0.30374109745025635, -0.02388508804142475, -0.1931583136320114, -0.23871803283691406, -0.011700253002345562, -0.2929985523223877, -0.26907843351364136, -0.1005624532699585, -0.23596982657909393, 0.05414267256855965, -0.2684760093688965, -0.12018416076898575, -0.10882613807916641, 0.004684133920818567, 0.13244974613189697, -0.05282206833362579, 0.07917962968349457, -0.1671823263168335, 0.03743864223361015, 0.263232558965683, 0.23659031093120575, 0.13926002383232117, -0.18908879160881042, -0.19567540287971497, 0.15352164208889008, -0.16140758991241455, -0.11431438475847244, 0.46323347091674805, 0.09324105829000473, -0.15995320677757263, -0.18164099752902985, 0.1545175462961197, -0.23276440799236298, 0.17379306256771088, 0.11521993577480316, 0.01781294122338295, -0.06212282180786133, -0.10721729695796967, -0.07308751344680786, -0.0019547664560377598, -0.22791504859924316, -0.06636295467615128, -0.20896312594413757, 0.1718517243862152, -0.34392300248146057, 0.27900612354278564, -0.005881774704903364, -0.2277345210313797, 0.24236874282360077, -0.07915188372135162, 0.24691155552864075, 0.24314920604228973, -0.29088184237480164, 0.21849578619003296, 0.16999533772468567, -0.08015260100364685, 0.290347158908844, 0.2685073912143707, -0.014986362308263779, 0.040361497551202774, 0.2562636733055115, -0.049827251583337784, 0.1792975515127182, -0.06771701574325562, -0.11381352692842484, 0.11758812516927719, 0.05172964930534363, 0.19830775260925293, -0.08613231778144836, -0.3222462832927704, -0.05777878314256668, -0.033631619065999985, -0.04429496452212334, 0.22581109404563904, -0.08548709750175476, -0.1620495468378067, 0.08246354758739471, -0.09920492768287659, 0.23188120126724243, -0.12154427170753479, -0.11733165383338928, -0.03268292546272278, 0.0254772137850523, -0.017112834379076958, 0.021480057388544083, -0.12612321972846985, -0.02834661677479744, -0.017907941713929176, -0.0569927915930748, 0.007188181858509779, 0.09111038595438004, 0.06284273415803909, 0.20281066000461578, 0.18638594448566437, 0.3637014925479889, -0.10317953675985336, -0.1517837941646576, 0.01286408118903637, -0.15315982699394226, 0.11668816208839417, 0.24871867895126343, -0.22736254334449768, 0.006835958920419216, 0.017287014052271843, -0.2283632755279541, -0.10558393597602844, 0.08252548426389694, 0.1920241266489029, -0.1369907259941101, -0.14000380039215088, -0.15848903357982635, -0.14610537886619568, 0.16145841777324677, 0.15456415712833405, -0.1079958975315094, -0.3123589754104614, -0.09751851111650467, 0.15153586864471436, 0.21053262054920197, -0.00877288542687893, -0.03370735049247742, -0.2781197428703308, -0.22565984725952148, 0.052571333944797516, 0.22896239161491394, -0.3347246050834656, -0.13557009398937225, 0.13496015965938568, -0.1988195925951004, 0.24952585995197296, 0.3341699242591858, -0.1943797767162323, 0.10957570374011993, 0.0614844374358654, 0.2248258739709854, 0.40042227506637573, 0.0795554369688034, 0.2698272168636322, -0.09886197000741959, -0.2658047080039978, 0.013266535475850105, -0.030805742368102074, 0.11542733758687973, -0.019917931407690048, 0.17930077016353607, 0.28693220019340515, -0.159850612282753, -0.1731160581111908, 0.1687077432870865, -0.15539701282978058, 0.00927047897130251, 0.0030056957621127367, 0.058213748037815094, -0.13985347747802734, 0.07355532795190811, -0.08469820022583008, -0.03270072862505913, -0.10384435206651688, 0.03932316228747368, -0.07316775619983673, -0.03433791175484657, 0.23852382600307465, 0.0894550010561943, -0.06822802871465683, -0.1923036277294159, -0.08449902385473251, 0.02588033862411976, 0.23531974852085114, 0.1622096747159958, -0.1626412570476532, 0.005323033779859543, -0.05283597484230995, 0.09769699722528458, -0.15511563420295715, -0.13925006985664368, 0.25829508900642395, -0.28514671325683594, -0.2918068468570709, 0.044020459055900574, -0.18649882078170776, -0.09335263818502426, 0.06090841814875603, -0.046689245849847794, -0.21638065576553345, -0.2653157711029053, 0.18183660507202148, 0.15468530356884003, -0.22614364326000214, -0.03474114090204239, -0.2754065692424774, 0.08986946940422058, 0.18914876878261566, 0.19637352228164673, -0.15481451153755188, 0.11160899698734283, -0.19161880016326904, -0.02105119451880455, 0.1896638721227646, -0.17435674369335175, -0.20831462740898132, 0.23528410494327545, -0.1154833510518074, -0.035516709089279175, -0.09163815528154373, 0.32968050241470337, 0.2129896581172943, -0.15335610508918762, -0.19101345539093018, -0.06331232935190201, -0.19879116117954254, 0.20369523763656616, 0.19153161346912384, -0.08037136495113373, -0.2639618217945099, -0.01392978522926569, -0.18566752970218658, 0.16771194338798523, -0.034840408712625504, -0.04769445210695267, -0.34393444657325745, 0.012254706583917141, 0.2681278884410858, -0.27375510334968567, -0.015662923455238342, 0.3097077012062073, -0.2307201623916626, -0.15363475680351257, 0.07415590435266495, -0.1176435723900795, -0.02546975389122963, -0.04322966933250427, -0.2726345658302307, 0.27453628182411194, -0.10523787140846252, 0.22426991164684296, 0.10427437722682953, -0.15016140043735504, -0.22189025580883026, 0.1333024799823761, 0.08202988654375076, 0.1886642873287201, -0.024108631536364555, 0.14548642933368683, -0.2493654042482376, -0.2786980867385864, 0.23120543360710144, 0.09252017736434937, -0.12984372675418854, 0.07068321108818054, -0.13289915025234222, -0.07383851706981659, -0.18212972581386566, 0.1415027529001236, 0.045886557549238205, -0.006206795573234558, 0.07039553672075272, -0.12412601709365845, -0.31469565629959106, 0.08286158740520477, 0.12257244437932968, 0.17291906476020813, -0.22974668443202972, 0.04634309932589531, 0.017243532463908195, -0.08377965539693832, 0.16170644760131836, 0.2436579018831253, -0.15446580946445465, -0.06836482882499695, 0.2855514883995056, 0.12430193275213242, 0.06723059713840485, 0.2600034177303314, -0.1754418909549713, -0.18982283771038055, 0.1886841505765915, -0.2246859222650528, -0.2795636057853699, -0.09911195188760757, -0.22135353088378906, 0.6330466270446777, -0.13655641674995422, 0.15161609649658203, 0.13821664452552795, -0.15301193296909332, -0.09015454351902008, 0.09137282520532608, 0.1621476262807846, 0.13595902919769287, -0.12248031049966812, 0.061410073190927505, -0.0560607872903347, -0.09391672909259796, -0.0010401280596852303, -0.04280754178762436, 0.0627674013376236, 0.1272837370634079, -0.02627033367753029, -0.14357472956180573, -0.1985953152179718, 0.1705394685268402, -0.013596992939710617, -0.08122503757476807, -0.003971859347075224, -0.09158344566822052, -0.1220625787973404, 0.2665494978427887, 0.15307341516017914, 0.09273596107959747, 0.10022673010826111, -0.030446304008364677, -0.20810553431510925, -0.06093963235616684, 0.09179123491048813, 0.23766149580478668, -0.13659720122814178, -0.01591251604259014, 0.06632430851459503, -0.08279705792665482, 0.05646522343158722, 0.10601852089166641, -0.3493073880672455, 0.22433914244174957, 0.11363346874713898, -0.06891384720802307, -0.042637601494789124, -0.037762537598609924, -0.35108017921447754, 0.1605028510093689, 0.036992333829402924, 0.0025683739222586155, -0.04670817404985428, -0.23127682507038116, -0.12325853109359741, -0.10741906613111496, -0.08230499923229218, 0.1106196939945221, 0.09168600291013718, -0.17379054427146912, 0.037133388221263885, 0.032312702387571335, 0.012541870586574078, 0.2167900949716568, 0.07090355455875397, -0.16076995432376862, 0.08364763110876083, 0.07395470142364502, 0.23206298053264618, -0.06792934238910675, 0.04383073374629021, -0.02205546386539936, -0.42996013164520264, -0.26437562704086304, 0.18515364825725555, -0.2462325543165207, 0.146956667304039, 0.007128848694264889, 0.03788049519062042, -0.11477809399366379, 0.20523245632648468, -0.09219371527433395, -0.03497572988271713, -0.01572895050048828, 0.09018878638744354, -0.02478429116308689, 0.07576031982898712, 0.07925339043140411, 0.05134104564785957, 0.054646044969558716, 0.24842055141925812, -0.05920608714222908, -0.08088845014572144, -0.0861368253827095, 0.08286432176828384, -0.20956048369407654, 0.16776344180107117, -0.2101629674434662, 0.003342738375067711, 0.02278350293636322, 0.08957686275243759, 0.1074511930346489, -0.019828753545880318, -0.002961422549560666, 0.1192621961236, 0.17956021428108215, 0.2291373610496521, 0.013384247198700905, -0.36271360516548157, 0.1581808626651764, 0.21979084610939026, -0.08175581693649292, 0.0130043039098382, 0.02662503719329834, -0.04885943979024887, -0.0009495535050518811, 0.1209002360701561, 0.317952036857605, 0.032334648072719574, 0.1055469885468483, -0.12134966999292374, 0.41438695788383484, -0.06968268007040024, 0.43455997109413147, -0.06950641423463821, -0.0687083750963211, -0.2747920751571655, -0.04770241305232048, 0.03356534615159035, 0.2501521408557892, -0.028695983812212944, 0.10226921737194061, -0.2826242744922638, 0.1346941590309143, 0.04269683361053467, -0.19191616773605347, 0.13785889744758606, 0.04268305003643036, 0.0587342232465744, 0.02797825261950493, -0.04021862521767616, -0.11621692031621933, -0.13313183188438416, -0.047782573848962784, -0.11336670070886612, -0.15679806470870972, 0.06323795020580292, 0.09548713266849518, -0.19699327647686005, -0.43200087547302246, 0.33906733989715576, 0.012455923482775688, 0.3574458956718445, -0.5365393757820129, -0.0037176315672695637, -0.21376605331897736, -0.09815565496683121, 0.01920144446194172, -0.1552584320306778, -0.31270819902420044, -0.16256341338157654, 0.029277998954057693, -0.48341819643974304, -0.3306880593299866, 0.3993438184261322, 0.037978921085596085, 0.11279398202896118, -0.02104070410132408, -0.28541404008865356, -0.1416146606206894, 0.16360020637512207, 0.1819479763507843, 0.09168770164251328, -0.4026004672050476, -0.04070737957954407, -0.08873917162418365, 0.025846783071756363, 0.19885970652103424, -0.0146931242197752, -0.06678234040737152, -0.2218923568725586, -0.105758436024189, -0.016214638948440552, -0.37126633524894714, 0.03447800874710083, -0.5920332074165344, 0.31104207038879395, 0.004573015961796045, -0.07436665892601013, -0.13846471905708313, -0.09844211488962173, -0.345958411693573, 0.355699747800827, -0.06151913106441498, 0.22524379193782806, 0.06841457635164261, 0.13730084896087646, 0.3717612326145172, 0.03397059813141823, 0.014961911365389824, -0.1870037019252777, -0.2561919689178467, -0.13424699008464813, 0.31377625465393066, -0.0474916473031044, 0.12044797092676163, 0.0628357082605362, -0.10471086949110031, -0.16583415865898132, 0.17974437773227692, 0.06457339227199554, 0.046798400580883026, -0.12970319390296936, 0.24649792909622192, 0.0917993038892746, 0.06070569157600403, -0.10551722347736359, -0.1166505366563797, -0.2925558388233185, -0.017736826092004776, 0.10225899517536163, 0.11828829348087311, -0.28048479557037354, 0.04706103354692459, -0.2085895985364914, 0.09459073096513748, -0.14473164081573486, 0.05445655807852745, -0.24153950810432434, -0.20194189250469208, 0.06831786036491394, -0.1091131791472435, 0.029655057936906815, -0.029768161475658417, -0.009158234111964703, -0.02969595231115818, 0.14022494852542877, -0.08259525895118713, -0.1472361832857132, 0.16438844799995422, -0.19313588738441467, 0.18550874292850494, -0.24654479324817657, 0.08250740170478821, -0.0030858763493597507, -0.17488326132297516, 0.24185916781425476, -0.029545119032263756, 0.10253088176250458, -0.1506848782300949, 0.15018273890018463, -0.19781436026096344, 0.09308432042598724, -0.02408505231142044, -0.1046539917588234, 0.012772413901984692, -0.1886005401611328, 0.12477924674749374, -0.11655595153570175, -0.04224312677979469, 0.09865572303533554, -0.1511049121618271, 0.12138035148382187, -0.08230402320623398, -0.14307256042957306, 0.16783590614795685, -0.1135004460811615, -0.08002199977636337, 0.17595578730106354, -0.2620464265346527, 0.23622170090675354, -0.0731201320886612, -0.2135019749403, -0.15703894197940826, -0.014202743768692017, -0.22040879726409912, 0.049118850380182266, 0.011732054874300957, 0.10277952253818512, -0.02606184221804142, -0.03662500157952309, -0.18960005044937134, 0.1367451548576355, -0.3473738431930542, 0.004169740714132786, 0.05770057439804077, 0.03868505731225014, -0.44812214374542236, -0.0035746528301388025, 0.0013978925999253988, 0.11215566098690033, 0.09840940684080124, 0.07001906633377075, -0.35722553730010986, 0.16591903567314148, -0.5030825138092041, -0.15965789556503296, 0.060820259153842926, 0.01408298034220934, -0.1577906757593155, 0.18481464684009552, 0.006533751264214516, -0.10514776408672333, 0.09703253954648972, 0.06432166695594788, -0.11266667395830154, 0.041033536195755005, -0.1228279322385788, 0.1049962267279625, -0.17243920266628265, 0.021030515432357788, -0.05358811840415001, 0.2605677545070648, 0.3126160204410553, 0.07045392692089081, -0.1463157832622528, 0.14546418190002441, -0.18638218939304352, 0.14192336797714233, -0.043642785400152206, 0.08039143681526184, -0.22928419709205627, -0.03945036232471466, 0.048520658165216446, 0.15876241028308868, -0.06930360943078995, 0.007110861595720053, 0.20749880373477936, -0.08094165474176407, 0.1803886592388153, 0.13169953227043152, 0.0400911383330822, -0.016608048230409622, 0.012218681164085865, 0.07674051076173782, -0.16825281083583832, 0.29779741168022156, -0.5732806921005249, 0.1354207694530487, -0.21599993109703064, 0.04498904198408127, 0.1124817356467247, -0.05835811048746109, -0.22560611367225647, 0.06354399770498276, 0.05673636496067047, -0.013982387259602547, 0.05260773003101349, 0.020551053807139397, -0.05224042758345604, 0.10833830386400223, -0.13959720730781555, -0.022827807813882828, 0.18513409793376923, 0.038858216255903244, -0.14455097913742065, -0.12204936146736145, 0.09127847850322723, 0.1731398105621338, -0.20036837458610535, 0.1942359358072281, 0.03459954261779785, -0.009320603683590889, 0.25633230805397034, 0.17888103425502777, 0.11962179094552994, -0.12780477106571198, -0.2095406949520111, -0.30650120973587036, 0.11210917681455612, 0.0731121301651001, 0.064176544547081, -0.07977069169282913, -0.20600493252277374, 0.05903428792953491, -0.0002529030607547611, -0.030560022220015526, 0.0031844591721892357, -0.5240793824195862, -0.03620924800634384, 0.224685400724411, 0.0011652911780402064, -0.14435212314128876, -0.060631103813648224, -0.21001842617988586, -0.2620388865470886, -0.14689594507217407, -0.04417051374912262, 0.1595975160598755, -0.06596066057682037, 0.06294175982475281, 0.09389597922563553, -0.005150432698428631, 0.10640475153923035, -0.2399436980485916, 0.07539647072553635, 0.21593020856380463, -0.03864099457859993, -0.09988848119974136, 0.029887881129980087, -0.21816839277744293, 0.06710690259933472, 0.003545130370184779, -0.16087481379508972, -0.006278985645622015, -0.19421003758907318, 0.13776327669620514, -0.015422816388309002, -0.015428715385496616, 0.17385651171207428, -0.08836770057678223, -0.2656613886356354, 0.08053041994571686, -0.06189329922199249, 0.09592464566230774, 0.16741769015789032, -0.029548553749918938, -0.12921354174613953, -0.16914835572242737, 0.1028006374835968, 0.24328570067882538, 0.00762596121057868, 0.023961011320352554, 0.007922702468931675, -0.10315737873315811, 0.22093744575977325, -0.05818336084485054, -0.19650153815746307, 0.017832869663834572, 0.11730226129293442, -0.08052448183298111, -0.01617995649576187, -0.1418571174144745, 0.11912982165813446, -0.0843128189444542, 0.117658831179142, 0.0787300243973732, 0.12812106311321259, -0.0280830729752779, 0.0593210831284523, 0.10352706909179688, 0.1846843808889389, 0.06626778095960617, 0.18294678628444672, -0.30338039994239807, -0.05260460451245308, 0.05685599893331528, -0.10379577428102493, 0.0855427086353302, 0.06951402872800827, 0.015631116926670074, 0.07534316182136536, -0.22628849744796753, 0.06975739449262619, 0.00546704838052392, -0.15446746349334717, 0.10916566848754883, -0.23297007381916046, -0.04075070470571518, 0.2170993983745575, 0.057922106236219406, 0.1475788801908493, -0.014508933760225773, 0.0548209547996521, 0.030764924362301826, -0.03417108952999115, 0.2552248239517212, 0.11899534612894058, -0.0664089024066925, -0.09598737210035324, 0.12624241411685944, -0.04147573560476303, -0.10363461077213287, 0.06117284670472145, -0.2736682593822479, 0.16349954903125763, 0.10352988541126251, 0.008965344168245792, -0.2162829041481018, 0.02491144835948944, -0.30602097511291504, -0.05508490279316902, -0.07748620212078094, -0.10168183594942093, 0.09925666451454163, 0.07655909657478333, 0.21813271939754486, -0.008087648078799248, 0.0980057567358017, 0.12836964428424835, -0.046954888850450516, -0.003470539813861251, -0.0404701866209507, -0.04161880910396576, -0.06434789299964905, -0.236678808927536, 0.0023974995128810406, 0.09844931960105896, 0.10399297624826431, 0.0451151467859745, 0.04981252923607826, -0.0644274353981018, 0.014447884634137154, 0.016388049349188805, 0.3243609666824341, -0.28241047263145447, -0.06750418245792389, 0.15597406029701233, -0.049683887511491776, 0.15579116344451904, 0.13770179450511932, -0.04646190255880356, -0.11298295855522156, -0.0013167825527489185, 0.2146081030368805, 0.04625134915113449, -0.0542764812707901, 0.030999798327684402, 0.20068411529064178, -0.05066165328025818, -0.06068842113018036, -0.17628997564315796, -0.5228347778320312, 0.1759793907403946, -0.10491444915533066, -0.16208796203136444, -0.16848282516002655, -0.042554114013910294, 0.05602525174617767, 0.13948103785514832, -0.02335408516228199, -0.12120608985424042, 0.04530307278037071, -0.10203545540571213, 0.06833606958389282, -0.14943364262580872, 0.08794397860765457, 0.06074235215783119, -0.030473429709672928, 0.056477125734090805, 0.09841445833444595, 0.003845927305519581, 0.03724120184779167, 0.10047751665115356, -0.14294302463531494, -0.012955264188349247, 0.060064785182476044, 0.0018053629901260138, -0.054878443479537964, -0.12509697675704956, 0.11161242425441742, -0.07616425305604935, -0.29772064089775085, -0.5754073262214661, -0.02861841581761837, -0.23251403868198395, -0.029470857232809067, -0.08449417352676392, -0.09314888715744019, -0.12851394712924957, -0.1542205810546875, 0.09899894893169403, 0.22824455797672272, 0.015131654217839241, 0.07748709619045258, -0.23092512786388397, 0.019918885082006454, 0.05181311443448067, -0.1340464949607849, -0.10650888085365295, -0.020509351044893265, 0.08999040722846985, 0.09535690397024155, 0.14793150126934052, -0.18279190361499786, -0.05796295031905174, -0.034607894718647, 0.16745464503765106, -0.08840817958116531, 0.2038506269454956, 0.29530268907546997, 0.145063579082489, -0.0025519777555018663, 0.09122459590435028, 0.04630640894174576, -0.008446318097412586, 0.07443845272064209, 0.06332869827747345, 0.3964308202266693, 0.04100514575839043, 0.09794829040765762, -0.010554766282439232, 0.14251349866390228, 0.23833250999450684, 0.02008366771042347, 0.002890788484364748, -0.023807920515537262, -0.6615582704544067, 0.20749804377555847, 0.5315297842025757, -0.4098377525806427, 0.26714566349983215, -0.8636936545372009, -0.20135283470153809, -0.3025237023830414, 0.9189179539680481, -0.8042744994163513, -0.5273431539535522, -0.6862225532531738, 0.24933941662311554, -0.6445469260215759, 0.4571987986564636, -0.6063278317451477, -0.3279304802417755, -0.3092070519924164, 0.20097634196281433, 0.30979758501052856, 0.26562756299972534, -0.1301039308309555, -0.23434454202651978, -0.06909728050231934, 0.09173480421304703, 0.13921426236629486, 0.09751083701848984, 0.15028944611549377, 0.27805212140083313, -0.0859246477484703, -0.03506181761622429, 0.04592491313815117, 0.016729677096009254, -0.28152766823768616, -0.09505532681941986, 0.030745821073651314, -0.2478143870830536, 0.08182760328054428, -0.15616309642791748, -0.3520166873931885, 0.3532533347606659, -0.018430892378091812, 0.03447213023900986, 0.14942516386508942, 0.14101123809814453, -0.004313142038881779, 0.19435016810894012, 0.30498671531677246, -0.11271953582763672, -0.17252416908740997, -0.23470135033130646, 0.20285043120384216, -0.09646967053413391, 0.37294963002204895, -0.16699859499931335, -0.22317808866500854, 0.2588104009628296, 0.028043508529663086, -0.13041475415229797, -0.350242555141449, 0.010404211468994617, -0.11256611347198486, -0.2293294072151184, 0.05292369797825813, 0.24109157919883728, 0.09702667593955994, -0.4757058322429657, -0.3180467486381531, -0.2094353288412094, -0.19449475407600403, -0.08623187988996506, -0.09069906920194626, -0.09017371386289597, 0.043602097779512405, -0.2653186023235321, 0.17976000905036926, 0.24873749911785126, -0.19014006853103638, 0.21287801861763, -0.014937389642000198, 0.4067634642124176, 0.046435073018074036, -0.09548934549093246, -0.2048577517271042, 0.0641908198595047, 0.026072945445775986, -0.056202482432127, 0.4114694893360138, -0.0646136999130249, -0.1227383241057396, -0.0972500890493393, 0.1376395970582962, -0.19165170192718506, -0.13145479559898376, -0.2868310809135437, -0.17214001715183258, -0.11382579058408737, -0.20034626126289368, -0.24433478713035583, -0.14051204919815063, -0.00648120092228055, -0.0031430970411747694, -0.02894507721066475, 0.03136283531785011, -0.20711380243301392, 0.2334672063589096, 0.350984662771225, -0.10190699249505997, -0.18134094774723053, -0.17233878374099731, -0.05190349742770195, 0.1919606626033783, 0.02168845385313034, -0.214032843708992, 0.1489805430173874, 0.008652894757688046, 0.07186433672904968, 0.20687489211559296, -0.2869839072227478, -0.2601754069328308, 0.4110977351665497, -0.024387497454881668, -0.05629023164510727, 0.1068124994635582, 0.19860605895519257, 0.032539770007133484, -0.005669087171554565, 0.3026182949542999, 0.07929622381925583, 0.09223195910453796, 0.07167847454547882, 0.1186244934797287, 0.1291075050830841, -0.02498784288764, -0.13780617713928223, 0.10314784198999405, -0.09184884279966354, 0.17163453996181488, 0.04110918939113617, -0.07289192825555801, -0.1758694052696228, 0.13531039655208588, -0.025609876960515976, 0.004698588512837887, 0.07249197363853455, 0.15111114084720612, -0.33598366379737854, -0.311139851808548, -0.2659190595149994, -0.2561827600002289, 0.17492708563804626, 0.056097183376550674, -0.040020521730184555, -0.02226797491312027, 0.0680551528930664, -0.051851607859134674, -0.08017801493406296, -0.08623367547988892, -0.051788393408060074, 0.15000836551189423, 0.032916102558374405, -0.07621285319328308, -0.02650774084031582, 0.09034345299005508, 0.06213757023215294, -0.09036730229854584, 0.03283923864364624, -0.02309311553835869, -0.02199263870716095, 0.01789545640349388, 0.251045823097229, 0.19779731333255768, 0.16888459026813507, -0.06098343804478645, 0.21351738274097443, -0.022237952798604965, -0.25108808279037476, -0.18781548738479614, -0.10381913930177689, 0.09290896356105804, 0.025317583233118057, -0.07761458307504654, -0.030128521844744682, 0.12830780446529388, 0.2016177922487259, 0.2728264331817627, -0.014485908672213554, 0.09746568650007248, 0.17602097988128662, -0.03588361665606499, -0.05747397989034653, 0.07855460047721863, 0.17620809376239777, 0.17366182804107666, -0.6325210928916931, -0.21088092029094696, -0.29882821440696716, 0.08187440037727356, -0.1443636268377304, 0.025512604042887688, -0.2563033998012543, 0.29803380370140076, 0.1943998634815216, -0.38169434666633606, 0.1297326534986496, -0.3531411290168762, -0.06389495730400085, 0.016694046556949615, -0.3075350522994995, -0.152772456407547, -0.41805487871170044, 0.10013122856616974, -0.16537123918533325, 0.20504231750965118, -0.2875424325466156, 0.08597702533006668, -0.1495753824710846, -0.15792423486709595, 0.13485045731067657, -0.32187187671661377, 0.31247782707214355, -0.29294857382774353, -0.13973599672317505, 0.01899106428027153, 0.09839963912963867, -0.0908794030547142, -0.2891121804714203, 0.3332483172416687, -0.3587799668312073, 0.128205344080925, -0.08120831847190857, -0.003988102078437805, 0.3708290159702301, 0.22967395186424255, 0.35594937205314636, -0.11512341350317001, 0.3913365304470062, 0.09912219643592834, 0.05121093615889549, 0.055238958448171616, 0.07171405106782913, 0.3642273247241974, 0.1340419501066208, -0.1112334132194519, -0.08506069332361221, -0.03338608145713806, 0.17802374064922333, -0.09501411020755768, -0.13732723891735077, 0.003828531363978982, -0.134796142578125, 0.03727494552731514, -0.15356232225894928, 0.121489979326725, -0.022132491692900658, -0.027327297255396843, 0.26812613010406494, -0.13466498255729675, -0.17815636098384857, -0.053209833800792694, -0.18413400650024414, 0.21467526257038116, -0.16834639012813568, 0.01040602009743452, -0.09901279956102371, -0.2511107325553894, 0.21494711935520172, 0.14262139797210693, -0.2800796627998352, 0.2076760083436966, -0.2842387855052948, -0.1950853019952774, -0.10115785151720047, 0.0029215984977781773, 0.03323051333427429, -0.01535683311522007, -0.18501479923725128, 0.0531502366065979, 0.09449351578950882, 0.11798488348722458, 0.0620194636285305, 0.08302535861730576, 0.009653700515627861, -0.1839224100112915, -0.015227031894028187, -0.3111496567726135, -0.03669586032629013, 0.06433253735303879, 0.14802317321300507, -0.19175638258457184, 0.03711951896548271, -0.12817534804344177, -0.10574913024902344, -0.07514488697052002, -0.1564193069934845, 0.009932635352015495, -0.009439314715564251, -0.08781789243221283, -0.01137261837720871, -0.1280648559331894, 0.1476515382528305, 0.29787784814834595, 0.01620415970683098, 0.23926348984241486, 0.2622433602809906, -0.17758920788764954, -0.2711710035800934, -0.14870019257068634, -0.011111895553767681, 0.125483900308609, 0.0089542455971241, -0.09620866179466248, -0.4684663712978363, 0.2908594608306885, -0.128110870718956, 0.22862136363983154, -0.1462930291891098, -0.008459760807454586, -0.08009929209947586, -0.16131232678890228, -0.005421921145170927, -0.1454414576292038, 0.29302000999450684, 0.01376654114574194, -0.1988827884197235, 0.16217422485351562, 0.149209663271904, -0.18447761237621307, 0.17643767595291138, -0.021872004494071007, 0.24004948139190674, -0.004947941284626722, -0.11032027751207352, 0.07000073790550232, 0.13298635184764862, -0.28504130244255066, -0.19112762808799744, -0.1553509384393692, 0.05316690728068352, -0.11280329525470734, 0.06108088418841362, -0.024747196584939957, 0.1988193839788437, 0.1198345497250557, 0.22545388340950012, 0.006650244351476431, 0.044607292860746384, 0.038861263543367386, 0.2933966815471649, -0.0786585658788681, -0.17073996365070343, -0.314414381980896, -0.025686178356409073, 0.06149725988507271, 0.2042270004749298, 0.04275341331958771, 0.45471835136413574, -0.13640783727169037, -0.10791722685098648, -0.05875874683260918, 0.23449945449829102, 0.37446674704551697, -0.0030250262934714556, -0.0036633391864597797, 0.1347724050283432, -0.01646590419113636, 0.21810102462768555, 0.1056818962097168, 0.37431633472442627, -0.10973170399665833, -0.0957542210817337, -0.007131452672183514, 0.12441609054803848, 0.3193420171737671, 0.3256540298461914, 0.026176152750849724, 0.025022633373737335, 0.056094877421855927, -0.028463182970881462, 0.08333759009838104, -0.4012550413608551, 0.21229282021522522, -0.016140371561050415, -0.03536394611001015, 0.27463963627815247, -0.039596088230609894, -0.025569431483745575, 0.24258075654506683, -0.10120665282011032, -0.20743492245674133, 0.26545196771621704, -0.1561017632484436, 0.04321369156241417, -0.02983039617538452, -0.05806718021631241, 0.01993129774928093, -0.09229058027267456, -0.36973443627357483, 0.005000663455575705, -0.010116122663021088, 0.5809365510940552, 0.04504258185625076, 0.14096280932426453, -0.011927779763936996, -0.09664852172136307, -0.20317205786705017, 0.26581618189811707, 0.05231266841292381, 0.15867963433265686, -0.3009013533592224, -0.012445286847651005, -0.07343707978725433, 0.41437429189682007, -0.047167640179395676, 0.04056892544031143, -0.022816836833953857, -0.08136111497879028, 0.009414048865437508, -0.2826232612133026, 0.022783497348427773, 0.24267186224460602, 0.0766654685139656, 0.08584969490766525, 0.09951460361480713, -0.15553626418113708, -0.06289617717266083, 0.04461067542433739, 0.0005058620008639991, 0.053334422409534454, -0.3262116312980652, 0.0893625020980835, 0.2648155987262726, -0.0273953415453434, -0.18570567667484283, 0.14203043282032013, -0.09777108579874039, -0.004835877567529678, 0.0012622132198885083, 0.11738046258687973, -0.03108992613852024, -0.034176114946603775, 0.11803044378757477, -0.036130715161561966, -0.07882026582956314, 0.08355720341205597, -0.1368754357099533, -0.0727422684431076, -0.027452819049358368, 0.21313729882240295, -0.04545827582478523, 0.16588270664215088, -0.08283176273107529, -0.07878265529870987, -0.07938745617866516, 0.1722818911075592, -0.010259857401251793, 0.15849074721336365, -0.013304234482347965, 0.12007364630699158, -0.13888825476169586, 0.1805020272731781, -0.24239103496074677, 0.17191654443740845, -0.06314602494239807, 0.09388313442468643, 0.12094330042600632, -0.2931390106678009, 0.007201605010777712, 0.1044403463602066, -0.10806192457675934, 0.07028437405824661, 0.17124250531196594, -0.18483202159404755, 0.10053674131631851, 0.06087247282266617, 0.05820030719041824, 0.13558053970336914, -0.13938447833061218, 0.15896815061569214, 0.1812872588634491, -0.1665089726448059, -0.07155326753854752, -0.050639066845178604, -0.19912779331207275, 0.2566075026988983, 0.1371600478887558, -0.05682132765650749, 0.22446595132350922, -0.04625663906335831, -0.05670052766799927, 0.3183860182762146, -0.08301721513271332, 0.07691401243209839, -0.06834178417921066, 0.13384361565113068, 0.08676361292600632, 0.24796897172927856, 0.1884012520313263, -0.2603487968444824, 0.059471145272254944, 0.1500893086194992, 0.06212877854704857, -0.22503595054149628, 0.06760656833648682, 0.10222221910953522, -0.08606038987636566, 0.12999607622623444, 0.13249310851097107, -0.06662698090076447, 0.007605312392115593, -0.24594303965568542, 0.09386645257472992, 0.00651891902089119, -0.02245398983359337, 0.320031076669693, -0.1217939481139183, -0.1723238080739975, 0.3218930959701538, -0.0027149892412126064, -0.17406219244003296, 0.061966583132743835, 0.1602814793586731, 0.1554190069437027, -0.3419320285320282, 0.009195376187562943, 0.28586235642433167, -0.05294182151556015, -0.13240523636341095, 0.0941992700099945, -0.052040841430425644, -0.020534256473183632, -0.10126414149999619, 0.21388117969036102, 0.10206802189350128, -0.16929331421852112, 0.02015078254044056, -0.03501291945576668, -0.11666173487901688, 0.04008399322628975, 0.22184833884239197, 0.30872419476509094, 0.39918896555900574, 0.28932857513427734, 0.048587772995233536, -0.07438819855451584, 0.3192029893398285, -0.26626142859458923, 0.14519929885864258, 0.019683945924043655, 0.014126792550086975, -0.34935715794563293, 0.023827046155929565, -0.11304476112127304, 0.04689042642712593, -0.18764972686767578, 0.0508650504052639, -0.3113000988960266, 0.06702713668346405, 0.014080575667321682, 0.1646157205104828, 0.11400195956230164, -0.06144323572516441, 0.4538772404193878, 0.0675920695066452, -0.0608181469142437, -0.10677893459796906, -0.24436818063259125, -0.11193830519914627, 0.23889203369617462, 0.1952478289604187, 0.3366526663303375, -0.25395193696022034, 0.0308358334004879, 0.2037380188703537, 0.1073751375079155, -0.2474561482667923, 0.026982052251696587, -0.17584972083568573, 0.025318942964076996, -0.0328909270465374, -0.25093576312065125, -0.0630822405219078, 0.153412327170372, -0.1811894327402115, -0.17388267815113068, -0.06358324736356735, -0.04208455979824066, -0.04460085928440094, 0.13620902597904205, -0.061585746705532074, -0.14320248365402222, 0.10545140504837036, -0.2694055140018463, 0.20684917271137238, 0.036414679139852524, -0.04792994633316994, -0.04827727749943733, 0.10757556557655334, 0.1714661866426468, -0.009000788442790508, -0.18083445727825165, 0.06900134682655334, 0.04413198307156563, -0.04963318258523941, 0.16385683417320251, 0.028207316994667053, -0.012614024803042412, -0.051334962248802185, -0.08242075890302658, -0.0898122489452362, -0.3156321942806244, -0.14616826176643372, 0.12583613395690918, -0.33864280581474304, 0.23611189424991608, 0.023555239662528038, -0.2472720593214035, -0.04243592917919159, -0.12582983076572418, 0.2428746223449707, -0.07102075219154358, 0.018247710540890694, -0.09468886256217957, -0.07005120813846588, 0.18377123773097992, -0.0023594070225954056, -0.14742513000965118, -0.19733141362667084, 0.2158818542957306, -0.04130290448665619, -0.16731294989585876, 0.20484478771686554, -0.15821503102779388, -0.2800382077693939, 0.2060357630252838, 0.0024683852680027485, -0.06629244983196259, 0.14867091178894043, 0.036565229296684265, -0.15807004272937775, 0.39638471603393555, 0.06303335726261139, -0.15639403462409973, 0.1089264303445816, -0.0033880819100886583, -0.010535157285630703, -0.0654461607336998, 0.021009908989071846, -0.24513645470142365, 0.2875836193561554, -0.17135100066661835, 0.03104216419160366, -0.08256129175424576, -0.053889594972133636, 0.15048052370548248, -0.04485546797513962, -0.03486386686563492, -0.10522833466529846, 0.3452026844024658, -0.2129204273223877, -0.020748320966959, 0.3507363796234131, 0.0814540907740593, -0.1369355022907257, 0.1413573920726776, 0.015679122880101204, 0.2442237138748169, -0.30234333872795105, 0.01452880073338747, -0.43897387385368347, 0.23919329047203064, -0.17631490528583527, -0.31763458251953125, -0.022207802161574364, -0.025743864476680756, -0.0291970856487751, 0.06348252296447754, -0.0025824732147157192, -0.1721714437007904, 0.19966472685337067, -0.16013669967651367, -0.018755221739411354, 0.26764172315597534, 0.05046308413147926, -0.0765632912516594, -0.18251323699951172, 0.06973952054977417, -0.05886309966444969, -0.07087348401546478, -0.02049870789051056, -0.05788489058613777, 0.05011008679866791, -0.06849965453147888, 0.1535734236240387, -0.17702427506446838, 0.06515579670667648, 0.11424104124307632, 0.005212356802076101, 0.03269503638148308, 0.12009894847869873, -0.06604243814945221, 0.1187673956155777, -0.18082186579704285, 0.11973898857831955, -0.24297277629375458, 0.04350155591964722, 0.32000264525413513, -0.13081398606300354, -0.30993080139160156, 0.4226592779159546, -0.062306445091962814, -0.08892779052257538, 0.15893961489200592, 0.09031476825475693, 0.3049294054508209, -0.12275610119104385, -0.031734399497509, 0.20934419333934784, 0.020052585750818253, -0.09391145408153534, -0.2939297556877136, -0.10992202907800674, -0.16013817489147186, 0.00034156162291765213, 0.22172504663467407, 0.16077542304992676, -0.0734732374548912, 0.1324872374534607, 0.1011117696762085, -0.14853954315185547, 0.020069267600774765, -0.12420172989368439, 0.016856420785188675, 0.2396526336669922, 0.07089517265558243, 0.16104304790496826, -0.09759234637022018, 0.08459387719631195, -0.19449351727962494, 0.10087509453296661, -0.07657440751791, 0.16180869936943054, -0.27013736963272095, -0.03958830237388611, -0.14690719544887543, -0.007530630100518465, 0.02841258980333805, 0.1970883011817932, -0.3122449219226837, 0.08401121199131012, -0.11901979893445969, 0.09094061702489853, -0.050233036279678345, -0.1441604346036911, 0.3750304877758026, -0.17521001398563385, -0.12428154051303864, -0.03188841789960861, -0.14734768867492676, -0.16115428507328033, -0.01904069446027279, 0.06252054870128632, -0.04291020333766937, -0.05784015730023384, -0.22312012314796448, 0.273772656917572, -0.08100475370883942, -0.21609213948249817, 0.2793164551258087, -0.062467869371175766, 0.18768557906150818, 0.11438431590795517, -0.09310940653085709, 0.07311570644378662, 0.11533541232347488, -0.1648840308189392, 0.09785323590040207, 0.06103745102882385, -0.10930643230676651, 0.06431268155574799, -0.035283610224723816, -0.028797565028071404, -0.09181809425354004, -0.08210882544517517, 0.03724705055356026, -0.10514520853757858, 0.1720879077911377, -0.05059194937348366, -0.19261550903320312, -0.03164378181099892, 0.26035958528518677, -0.04054449498653412, -0.10071360319852829, 0.016454989090561867, -0.04750361666083336, -0.061143916100263596, 0.23952557146549225, 0.12580937147140503, 0.2625027894973755, -0.1910257339477539, 0.14246158301830292, 0.04140077531337738, -0.39753207564353943, 0.10206229239702225, 0.14764928817749023, -0.323999285697937, 0.005133739206939936, 0.20953623950481415, -0.3292791247367859, -0.11149654537439346, -0.18335258960723877, 0.31124064326286316, -0.03094547800719738, -0.21924185752868652, -0.1268712878227234, 0.01924995705485344, -0.13878725469112396, -0.42601847648620605, 0.39692506194114685, 0.10993639379739761, -0.15909267961978912, 0.2500157356262207, 0.05104042962193489, -0.14702491462230682, 0.30261117219924927, -0.11783142387866974, -0.13314831256866455, 0.09590133279561996, -0.1585312783718109, 0.1409924328327179, -0.2934640049934387, -0.18729500472545624, 0.0167336817830801, 0.13371294736862183, 0.01790141500532627, 0.0018133962294086814, 0.28711339831352234, 0.11231445521116257, 0.028471536934375763, -0.25572195649147034, 0.0727514699101448, -0.03988892585039139, -0.09684908390045166, -0.17161545157432556, 0.0020510389003902674, -0.20605343580245972, -0.2760949730873108, -0.3264813721179962, 0.0818038061261177, 0.09582957625389099, -0.3109339475631714, 0.1117328405380249, -0.1616079956293106, -0.3094920516014099, 0.05431505665183067, -0.17153961956501007, -0.30477088689804077, 0.2645057141780853, -0.03873303905129433, 0.16409693658351898, 0.20215530693531036, 0.16160081326961517, 0.07523675262928009, -0.4655638337135315, 0.15088510513305664, -0.11313275992870331, 0.24208170175552368, 0.10072606056928635, 0.03608580306172371, -0.04575684294104576, 0.12969417870044708, -0.2060871571302414, 0.039388734847307205, 0.04730115830898285, 0.02835749462246895, -0.10554730892181396, 0.031229184940457344, -0.01044837012887001, -0.12412592023611069, -0.21849055588245392, 0.135962575674057, 0.08835925906896591, -0.019500846043229103, 0.09761729836463928, -0.04845380410552025, -0.07801581919193268, -0.067886583507061, -0.05736547335982323, 0.14143149554729462, -0.13922452926635742, -0.03919551894068718, -0.20832480490207672, 0.2064313292503357, -0.05373242497444153, 0.22159990668296814, 0.007123320363461971, 0.07828196883201599, 0.020954085513949394, -0.19192083179950714, 0.10677586495876312, 0.17785272002220154, 0.04184897616505623, -0.0771593227982521, 0.17247134447097778, 0.009677589870989323, 0.03911663219332695, 0.11239882558584213, 0.1916741579771042, -0.21525608003139496, 0.024357644841074944, 0.18134914338588715, 0.1492784321308136, 0.25778254866600037, 0.07175512611865997, 0.08274084329605103, 0.23981651663780212, -0.15902265906333923, -0.012579978443682194, 0.18688781559467316, -0.16083388030529022, -0.1412624567747116, -0.05346355587244034, -0.20812581479549408, 0.11194159090518951, -0.1734444946050644, -0.1304459571838379, -0.06914719194173813, 0.06658004969358444, 0.24760295450687408, -0.056517455726861954, 0.11653470993041992, -0.1171511560678482, -0.044624872505664825, -0.08736410737037659, 0.22039695084095, -0.09116994589567184, -0.022781256586313248, -0.2013590782880783, -0.07948970049619675, -0.028746651485562325, 0.2835153639316559, 0.2029620260000229, 0.14973124861717224, -0.07766997069120407, -0.11729147285223007, -0.018731845542788506, -0.2851371467113495, 0.06573755294084549, -0.007291208021342754, -0.12188223004341125, -0.10046116262674332, 0.15113471448421478, -0.03543134778738022, -0.13939502835273743, -0.16335581243038177, 0.08736594766378403, -0.019004138186573982, -0.2783229649066925, -0.09611327201128006, 0.09576275199651718, 0.22903241217136383, 0.03718346357345581, 0.13703322410583496, 0.1781669706106186, -0.34871023893356323, 0.11926838755607605, -0.02123330347239971, -0.17590725421905518, 0.20523177087306976, -0.21280734241008759, -0.39297810196876526, 0.02676377259194851, 0.0322643406689167, 0.18247781693935394, -0.16265448927879333, 0.17048092186450958, -0.42413440346717834, -0.45185941457748413, -0.054373644292354584, -0.2255212962627411, -0.07225508987903595, -0.05612334981560707, 0.0801626592874527, -0.1440390646457672, -0.14649918675422668, 0.02309436723589897, 0.17808890342712402, -0.00723625160753727, -0.06365203112363815, -0.20572249591350555, 0.05161000043153763, -0.22145721316337585, -0.012029211036860943, -0.030227383598685265, -0.10662931203842163, 0.06912972033023834, -0.13025137782096863, -0.5556026697158813, 0.06553225219249725, -0.027471836656332016, -0.40263134241104126, 0.10564734041690826, -0.3225077688694, 0.3254319727420807, -0.02748905122280121, -0.14255645871162415, 0.056847717612981796, -0.10936789214611053, -0.22464057803153992, 0.07074398547410965, 0.04379603639245033, -0.12267016619443893, 0.1429360806941986, 0.21285293996334076, -0.21130433678627014, 0.2265726774930954, 0.08241213113069534, -0.19680124521255493, 0.1633310765028, 0.1619999259710312, 0.1159791499376297, 0.2594635486602783, 0.11773747205734253, 0.29902487993240356, -0.2457771599292755, -0.03662211075425148, -0.07837909460067749, 0.06552276015281677, 0.08955805748701096, 0.1542620062828064, -0.09713172912597656, 0.1380896270275116, -0.10836337506771088, 0.055989038199186325, -0.027116239070892334, 0.006899433210492134, -0.2204514890909195, 0.03767076134681702, -0.23624548316001892, -0.06656160205602646, 0.011673357337713242, -0.14230656623840332, 0.36970245838165283, 0.015519922599196434, -0.28443366289138794, 0.11036218702793121, -0.22213079035282135, -0.16791196167469025, 0.19691364467144012, -0.010954512283205986, 0.24140140414237976, -0.1309991180896759, -0.0070201195776462555, 0.13409700989723206, -0.08744515478610992, 0.05961163714528084, -0.0015524579212069511, 0.24779675900936127, 0.037097856402397156, -0.040204066783189774, 0.07792195677757263, -0.22759631276130676, 0.030140120536088943, -0.11610377579927444, 0.09205828607082367, 0.04730251058936119, 0.044091735035181046, -0.05232167989015579, -0.1037735790014267, 0.02743990533053875, -0.0023961402475833893, -0.03766835480928421, -0.06230342760682106, -0.4078920781612396, 0.6884662508964539, 0.007936682552099228, -0.22921186685562134, 0.030441109091043472, -0.10757604241371155, 0.21778465807437897, 0.8687666058540344, -0.48091554641723633, 0.728753924369812, 0.3307746350765228, -0.24301022291183472, -0.45497646927833557, -0.06858567148447037, -0.530780553817749, 0.15689612925052643, -0.21464453637599945, -0.15098482370376587, -0.30828142166137695, 0.3950360119342804, 0.3003184199333191, 0.0930173471570015, 0.2615757882595062, 0.2940565347671509, 0.37824538350105286, -0.18209441006183624, -0.011217313818633556, -0.3324836194515228, -0.18991799652576447, -0.09073517471551895, 0.051816266030073166, 0.17723985016345978, -0.18284940719604492, 0.03554088622331619, 0.14089830219745636, 0.19823119044303894, 0.23245906829833984, -0.024178877472877502, 0.2502867579460144, -0.4497576355934143, 0.1486358493566513, 0.08981011062860489, -0.05512367933988571, 0.2424226999282837, 0.3339449167251587, 0.27772921323776245, -0.0605771541595459, 0.28910794854164124, -0.27421480417251587, 0.3327535390853882, 0.11283745616674423, -0.12166757136583328, -0.10970984399318695, 0.13247989118099213, 0.04730410501360893, -0.3535778522491455, -0.22186970710754395, 0.1767527312040329, 0.27656158804893494, 0.6617506742477417, -0.023006651550531387, 0.12399895489215851, -0.12319383025169373, 0.04661628603935242, -0.006507109850645065, 0.06712617725133896, -0.012097291648387909, -0.07472692430019379, 0.1736215502023697, -0.2073315978050232, -0.19195961952209473, -0.030752304941415787, 0.02147846110165119, 0.09681709110736847, 0.46877896785736084, 0.20713013410568237, 0.24752187728881836, -0.019755829125642776, -0.08147713541984558, 0.05488884076476097, -0.004833119455724955, 0.31500521302223206, -0.09094702452421188, -0.25443750619888306, -0.1971554011106491, 0.1583588868379593, -0.17538359761238098, -0.004690452944487333, -0.3206273019313812, 0.11752234399318695, -0.19471316039562225, 0.015387165360152721, -0.07278944551944733, 0.18507260084152222, -0.36320772767066956, 0.00958972703665495, -0.21081742644309998, 0.18386663496494293, 0.03079710528254509, -0.34997257590293884, -0.06356095522642136, 0.14553911983966827, -0.10175715386867523, -0.11247555911540985, -0.4849088191986084, 0.11783231049776077, -0.0639757588505745, 0.09457755833864212, 0.16890713572502136, 0.3251439929008484, -0.1101764440536499, 0.14459097385406494, -0.06699838489294052, -0.17482680082321167, -0.11702960729598999, 0.30720528960227966, 0.026694774627685547, 0.07470276206731796, -0.0024008527398109436, -0.20332130789756775, 0.3529079556465149, 0.07519996911287308, -0.10560079663991928, -0.012720262631773949, -0.022805705666542053, 0.07326644659042358, 0.22447971999645233, 0.2342502623796463, 0.2625736892223358, -0.017590180039405823, 0.1407676339149475, -0.06466299295425415, -0.13875247538089752, -0.016435541212558746, -0.18843086063861847, 0.013212420046329498, -0.17808496952056885, 0.26471465826034546, 0.3341771960258484, 0.13687753677368164, 0.25022584199905396, 0.10777537524700165, -0.20382468402385712, -0.28908100724220276, 0.28568869829177856, -0.2603786885738373, -0.06537095457315445, 0.10980398952960968, -0.03977636620402336, -0.21292002499103546, -0.1520756036043167, -0.24484877288341522, 0.22721169888973236, -0.18726742267608643, 0.27456215023994446, -0.17981784045696259, -0.0023079393431544304, 0.04523686692118645, 0.23453067243099213, 0.07918286323547363, 0.022582460194826126, -0.16229209303855896, 0.35538846254348755, 0.04649556800723076, 0.1497984677553177, -0.09223799407482147, -0.2738315761089325, -0.19413231313228607, -0.04995609447360039, 0.03919311612844467, -0.1750798225402832, 0.22966210544109344, -0.03420933336019516, 0.19815531373023987, -0.1266515702009201, 0.2350826859474182, -0.1797490417957306, -0.30672773718833923, -0.30822715163230896, 0.39956656098365784, -0.08197427541017532, 0.05256293714046478, -0.037316396832466125, 0.30719688534736633, 0.330883651971817, -0.5285483598709106, 0.1282087117433548, -0.17674975097179413, -0.38241273164749146, 0.04755401983857155, 0.39514806866645813, 0.07953386008739471, -0.16741645336151123, -0.24683719873428345, 0.05263352021574974, -0.11398500949144363, 0.2632684111595154, 0.3641683757305145, -0.355112761259079, -0.40683773159980774, -0.05229457840323448, -0.1741543412208557, 0.683866024017334, -0.1480911374092102, -0.20466682314872742, 0.07374980300664902, 0.12372846156358719, -0.5365868806838989, -0.42215481400489807, 0.10910177230834961, -0.09174349159002304, -0.02059575915336609, 0.17398010194301605, -0.3154992163181305, -0.26713359355926514, 0.14440791308879852, -0.11870640516281128, 0.05265963077545166, 0.10474047064781189, -0.008383120410144329, 0.22545893490314484, 0.022465556859970093, -0.14226964116096497, -0.30514633655548096, 0.11163144558668137, -0.1391948014497757, -0.1791568249464035, -0.0042591216042637825, -0.17944778501987457, 0.15576332807540894, -0.1793365478515625, 0.027009202167391777, 0.1389329582452774, 0.1481768637895584, -0.27884966135025024, 0.027579616755247116, 0.1723913550376892, -0.28380897641181946, 0.07412485033273697, 0.13749411702156067, 0.4263266623020172, 0.007159682922065258, 0.11807344853878021, -0.2710217833518982, 0.14883467555046082, -0.02374008670449257, 0.1487371027469635, 0.009408565238118172, -0.0947040542960167, 0.2837175130844116, 0.39630553126335144, 0.06737779825925827, 0.18949776887893677, -0.03426901251077652, -0.21788284182548523, 0.09961237013339996, -0.1259000301361084, -0.14105430245399475, -0.3054468333721161, -0.18814073503017426, -0.002955533331260085, -0.09957462549209595, -0.2174621820449829, 0.32020804286003113, 0.23637616634368896, 0.1849960833787918, 0.9004497528076172, -0.4991208612918854, 0.017054876312613487, -0.10174736380577087, 0.03991812467575073, 0.03993281349539757, 0.029964501038193703, 0.06758654117584229, 0.11703507602214813, -0.1419968158006668, 0.19602729380130768, 0.14628452062606812, 0.00921009760349989, -0.17937946319580078, -0.1099393367767334, 0.07917824387550354, 0.04237431287765503, 0.1599322110414505, 0.026621388271450996, -0.10631401836872101, 0.06494028121232986, 0.08778935670852661, -0.0026064857374876738, -0.1427692323923111, -0.165450319647789, -0.041735049337148666, -0.12454330176115036, 0.30480244755744934, 0.11967430263757706, 0.05421161279082298, 0.012650331482291222, 0.1428993046283722, 0.07432986050844193, 0.04845042899250984, -0.0973120704293251, -0.05563252791762352, 0.0730426087975502, -0.007447734009474516, 0.3081029951572418, 0.2512805163860321, 0.06202157959342003, -0.13057608902454376, -0.1929788887500763, -0.09999402612447739, 0.2409564107656479, 0.022807305678725243, -0.10530164837837219, -0.18745432794094086, -0.08480921387672424, -0.025993021205067635, 0.12762080132961273, -0.0380510613322258, 0.05747689679265022, 0.12283982336521149, 0.05824883282184601, 0.08229155093431473, -0.10092766582965851, 0.08542666584253311, 0.15764173865318298, -0.026284968480467796, 0.1449727565050125, -0.00953496340662241, -0.37255552411079407, -0.1917198747396469, -0.35502758622169495, 0.04817131161689758, 0.022573955357074738, -0.06514759361743927, 0.13222356140613556, -0.02505767159163952, 0.28041255474090576, -0.11267882585525513, 0.18083997070789337, 0.0639805793762207, -0.05942075699567795, -0.37696242332458496, -0.46567609906196594, -0.20161399245262146, -0.10041476041078568, 0.18949785828590393, 0.12165188789367676, 0.22328002750873566, 0.060499563813209534, 0.21775974333286285, 0.09610135108232498, -0.35683029890060425, -0.10355201363563538, -0.20251891016960144, 0.153709277510643, -0.059027720242738724, 0.0001307772472500801, -0.3011130392551422, -0.1884918510913849, 0.07865607738494873, 0.32630226016044617, 0.054811060428619385, 0.007888796739280224, 0.013676499016582966, 0.0922183096408844, 0.05448365584015846, 0.49825528264045715, 0.016406968235969543, 0.29939141869544983, 0.2066381424665451, -0.029329955577850342, -0.2186550796031952, 0.21144257485866547, 0.04152113199234009, -0.2783764898777008, 0.2242394983768463, -0.13313111662864685, 0.11749132722616196, -0.1765264868736267, -0.0626949667930603, 0.3892524242401123, 0.1209278553724289, -0.3292166590690613, -0.1185394898056984, -0.10096891969442368, -0.07991635799407959, 0.08269895613193512, -0.023159341886639595, -0.4100346863269806, -0.05765470862388611, 0.07545358687639236, -0.5031411647796631, 0.03649432584643364, 0.2052096277475357, -0.37322404980659485, 0.08310011029243469, 0.011112969368696213, 0.0007648307946510613, -0.22064214944839478, -0.1639646738767624, 0.10341107100248337, 0.16229963302612305, 0.17550228536128998, -0.27596190571784973, -0.03763473778963089, -0.12482279539108276, 0.23692181706428528, 0.08558794856071472, 0.14425483345985413, -0.151732936501503, -0.07905659824609756, -0.17338480055332184, 0.3042296767234802, 0.04495372623205185, 0.09680985659360886, -0.14970049262046814, -0.10651009529829025, -0.01219844538718462, -0.5495467185974121, -0.05287658050656319, 0.0022037478629499674, -0.191466823220253, 0.06518881767988205, 0.07890821993350983, -0.23390927910804749, 0.16430379450321198, -0.14940811693668365, -0.03961670771241188, -0.04022083804011345, 0.07620474696159363, -0.03612584248185158, 0.04981029033660889, 0.1969476044178009, -0.09179729223251343, -0.012186062522232533, -0.007509478833526373, 0.1397489607334137, 0.47247564792633057, -0.01664651371538639, -0.10802089422941208, 0.13731415569782257, 0.04002523049712181, -0.0722884014248848, 0.170298233628273, 0.10494749993085861, 0.041275475174188614, -0.06709811091423035, -0.11158169060945511, 0.16168850660324097, 0.20890827476978302, 0.028544733300805092, 0.04498887062072754, -0.00031128546106629074, -0.02815116010606289, 0.18791463971138, 0.1350896656513214, -0.16549624502658844, -0.2646787762641907, -0.2710140645503998, -0.018510080873966217, 0.08568409085273743, 0.09169967472553253, 0.18774506449699402, -0.0639035776257515, 0.1594008356332779, 0.12082906812429428, 0.06267684698104858, -0.012182718142867088, 0.23470914363861084, -0.22125744819641113, 0.1296367049217224, 0.13402216136455536, -0.21203860640525818, -0.2201404869556427, -0.3306833803653717, -0.11701816320419312, 0.23511648178100586, -0.03483973443508148, 0.2565564811229706, 0.0821143090724945, -0.025169087573885918, 0.03307583928108215, 0.2928166389465332, 0.13389112055301666, -0.044008612632751465, 0.33761778473854065, 0.21365848183631897, 0.12457089126110077, 0.12747663259506226, -0.0293399840593338, 0.06232393905520439, -0.01792466826736927, -0.162850022315979, -0.11382908374071121, -0.22473008930683136, 0.06272423267364502, 0.08716893941164017, 0.10752563178539276, 0.01507339347153902, 0.048738397657871246, 0.03032723255455494, -0.01040093693882227, -0.061262648552656174, 0.046777695417404175, 0.22585232555866241, -0.07603808492422104, -0.16956092417240143, -0.062377747148275375, -0.014877685345709324, -0.08601850271224976, -0.03635792061686516, -0.033782146871089935, -0.15423429012298584, -0.1027742251753807, -0.05472445860505104, -0.05182330310344696, 0.0811019092798233, 0.009817748330533504, 0.057965733110904694, -0.005003037862479687, -0.06490179151296616, 0.1839558184146881, -0.009364125318825245, 0.06269454956054688, -0.45295315980911255, -0.16529786586761475, 0.17848506569862366, -0.06831765174865723, -0.033150963485240936, -0.040312737226486206, -0.09428530186414719, 0.08218991011381149, -0.09136077761650085, -0.15596604347229004, 0.6752487421035767, 0.3044498562812805, -0.2236049622297287, 0.14351078867912292, -0.2643052041530609, 0.08972154557704926, -0.013901541009545326, -0.02602505125105381, -0.07552594691514969, -0.24632756412029266, -0.012277445755898952, -0.07557713240385056, 0.13920509815216064, 0.03347749263048172, 0.06687911599874496, -0.23689192533493042, -0.1756601780653, -0.17953206598758698, 0.2714693546295166, -0.08943606913089752, 0.09054932743310928, -0.1638866513967514, -0.044385626912117004, -0.0919889435172081, 0.1209481731057167, -0.0612691231071949, 0.05683455988764763, 0.38822248578071594, 0.13365289568901062, -0.023558687418699265, 0.18629339337348938, -0.20701465010643005, -0.1726568043231964, 0.13882102072238922, -0.006396159529685974, 0.06925484538078308, 0.14823570847511292, -0.039678242057561874, 0.17067505419254303, 0.1962248980998993, -0.2081720530986786, 0.06316220760345459, -0.216509610414505, -0.1844521462917328, -0.16619393229484558, -0.28349313139915466, -0.11410824954509735, 0.22643189132213593, 0.3625315725803375, 0.07197009027004242, -0.0887254849076271, 0.05321164429187775, -0.07768640667200089, -0.10212940722703934, 0.2987390458583832, -0.060386110097169876, -0.11673305928707123, -0.04427050054073334, -0.062340471893548965, -0.07516053318977356, -0.15144555270671844, 0.00398606713861227, 0.20881210267543793, 0.05517340451478958, -0.05669208616018295, -0.12242159247398376, 0.20548085868358612, 0.20866675674915314, -0.03358004242181778, -0.011865794658660889, -0.05790291726589203, 0.08191678673028946, -0.2019394040107727, 0.19885137677192688, -0.11376974731683731, -0.10070212185382843, -0.0064664785750210285, 0.1232718676328659, -0.20113879442214966, 0.07109171897172928, -0.017939304932951927, 0.037587426602840424, 0.06300049275159836, 0.07399646937847137, 0.4883357584476471, 0.10180924832820892, -0.12656818330287933, 0.30786222219467163, -0.16788634657859802, 0.012040289118885994, -0.04217452183365822, -0.11542092263698578, 0.18392948806285858, -0.12484925985336304, 0.1514977514743805, 0.1704956442117691, -0.21937254071235657, 0.038394272327423096, -0.06325874477624893, 0.11773891746997833, -0.11431721597909927, -0.2646419107913971, 0.07411055266857147, -0.02988630346953869, -0.10422918200492859, -0.15491175651550293, -0.011898613534867764, 0.12921833992004395, -0.09472911804914474, 0.05166368931531906, -0.060151029378175735, -0.00041297278949059546, 0.04899010807275772, 0.16190268099308014, 0.09580593556165695, -0.13675393164157867, -0.11012019962072372, -0.056266818195581436, 0.09670058637857437, -0.15614080429077148, -0.08713432401418686, -0.18630138039588928, -0.008769686333835125, -0.04538113996386528, 0.05762264132499695, 0.13532091677188873, 0.1401446908712387, -0.02549290843307972, 0.17432771623134613, -0.09281222522258759, -0.14303244650363922, 0.02250085584819317, -0.15388071537017822, -0.07292608171701431, -0.39448797702789307, -0.2875111401081085, 0.09410410374403, -0.0064103081822395325, 0.22997057437896729, 0.03541385009884834, 0.1284572035074234, 0.03938862681388855, 0.005956049542874098, -0.009730327874422073, -0.11522231251001358, -0.10497444868087769, -0.02042568288743496, 0.012502736411988735, -0.12776774168014526, -0.2430994063615799, -0.0930347666144371, 0.03249567002058029, -0.16209672391414642, 0.02359948121011257, 0.07233626395463943, 0.04644978791475296, -0.030157649889588356, -0.16139525175094604, -0.12064945697784424, -0.16918043792247772, -0.029874252155423164, 0.15111355483531952, 0.06469529867172241, -0.19718055427074432, 0.0461406409740448, 0.11643090099096298, 0.009259643964469433, 0.09022298455238342, -0.07630333304405212, -0.16915901005268097, 0.20686188340187073, 0.10515772551298141, -0.2066127061843872, 0.1803523153066635, 0.06755497306585312, -0.14962263405323029, 0.0067393663339316845, 0.16870030760765076, -0.16475677490234375, 0.052060022950172424, -0.04020299017429352, 0.10398554056882858, -0.14324010908603668, -0.1501818746328354, 0.2983071208000183, -0.08346518129110336, -0.026525866240262985, -0.5023484230041504, -0.24374063313007355, -0.32512420415878296, 0.006001372821629047, 0.19595099985599518, -0.0717286691069603, 0.33041030168533325, 0.13127513229846954, -0.2584168314933777, 0.005362739320844412, -0.033668600022792816, 0.34117481112480164, 0.4171130061149597, -0.1374874860048294, 0.16787514090538025, 0.32487890124320984, 0.2354409396648407, 0.049969229847192764, 0.22850944101810455, -0.0016684280708432198, 0.0383593812584877, 0.5176970958709717, 0.08560658246278763, -0.18994423747062683, -0.272396445274353, -0.3687574565410614, -0.34673216938972473, -0.09899207949638367, 0.1879059374332428, 0.31225356459617615, -0.3577043414115906, -0.16617396473884583, -0.32145270705223083, -0.30647531151771545, 0.3283369541168213, -0.004566856659948826, -0.3016837537288666, 0.18847835063934326, 0.32346653938293457, -0.16606363654136658, 0.13241668045520782, -0.16872170567512512, 0.33711370825767517, 0.07239691913127899, -0.34021198749542236, 0.3874218165874481, -0.03042285516858101, -0.18081119656562805, 0.04922224208712578, 0.2265259474515915, -0.11406826972961426, 0.14050030708312988, -0.23681464791297913, -0.6774243116378784, -0.24568699300289154, 0.18567362427711487, -0.08459416776895523, -0.010388338938355446, -0.3348766267299652, -0.2917311191558838, -0.028602387756109238, 0.07930927723646164, 0.0636012926697731, -0.07657690346240997, 0.17758126556873322, 0.12998628616333008, -0.009608946740627289, -0.03812551125884056, 0.2331012487411499, 0.14490437507629395, 0.05985906720161438, 0.007304581813514233, 0.21432355046272278, -0.025099093094468117, 0.21828694641590118, -0.04255906119942665, -0.12014919519424438, 0.038479145616292953, 0.037905193865299225, -0.12167863547801971, -0.18961036205291748, -0.0578874871134758, 0.1975167691707611, -0.08646358549594879, -0.15193186700344086, 0.07221300899982452, 0.05777629464864731, 0.18638105690479279, -0.048637401312589645, 0.13018159568309784, 0.47297152876853943, 0.09819471836090088, 0.08602897822856903, 0.38133475184440613, -0.15089061856269836, -0.08167806267738342, -0.1230301782488823, 0.018320515751838684, 0.0746033787727356, -0.24032454192638397, -0.05283954367041588, -0.5502646565437317, -0.015171745792031288, 0.03369078412652016, -0.13964195549488068, 0.03762293979525566, -0.11077521741390228, -0.08761034160852432, -0.018557455390691757, -0.10484815388917923, -0.06883131712675095, -0.04951583594083786, 0.1256423443555832, -0.06763989478349686, -0.13222812116146088, -0.016651613637804985, 0.00666048051789403, 0.31026095151901245, 0.031946539878845215, -0.10959766060113907, 0.0913882628083229, -0.3298923075199127, 0.12441416829824448, 0.29776203632354736, 0.029848532751202583, -0.16483239829540253, 0.0061015784740448, 0.06280552595853806, -0.3127884566783905, 0.04550250247120857, 0.17731012403964996, 0.0033693125005811453, -0.09165117889642715, 0.3165470063686371, -0.05174621567130089, -0.054478853940963745, 0.004746847786009312, -0.30265021324157715, 0.29671990871429443, 0.14256086945533752, 0.11578608304262161, 0.45381397008895874, 0.10249777138233185, 0.16391073167324066, -0.08283661305904388, -0.19265194237232208, -0.13777288794517517, 0.07737299799919128, 0.02236725576221943, 0.21346022188663483, 0.00446353480219841, -0.12832601368427277, 0.005022791679948568, -0.10753260552883148, 0.05035892874002457, -0.10187774896621704, -0.10073027014732361, 0.13465769588947296, -0.08909687399864197, -0.057703256607055664, -0.23386546969413757, 0.1599006950855255, 0.02462237887084484, 0.16571766138076782, -0.060464877635240555, 0.08840470016002655, -0.18087908625602722, 0.10049319267272949, -0.15171320736408234, -0.1192091703414917, -0.03227381408214569, 0.10324835032224655, 0.1280958354473114, 0.18914008140563965, 0.0873868465423584, -0.020699122920632362, 0.0343240350484848, 0.19620773196220398, -0.12376149743795395, 0.21982866525650024, -0.07213056087493896, 0.006697934120893478, 0.11568459868431091, 0.08475233614444733, 0.13158659636974335, -0.05890475958585739, 0.02955855429172516, 0.668465256690979, 0.041262075304985046, -0.19716277718544006, 0.060734182596206665, -0.24277466535568237, 0.37731170654296875, 0.02741851657629013, 0.060546498745679855, 0.16870403289794922, -0.1853082776069641, -0.20370623469352722, 0.09648675471544266, 0.08513981848955154, -0.12323248386383057, 0.24211302399635315, -0.08949676156044006, -0.1167028620839119, -0.15938584506511688, 0.09874672442674637, 0.3166199028491974, -0.019513942301273346, -0.10830821841955185, -0.02489311248064041, 0.37829315662384033, -0.044426459819078445, 0.23165133595466614, -0.1614888310432434, -0.08902111649513245, -0.2360508143901825, 0.21838656067848206, -0.029638955369591713, 0.060770392417907715, -0.02170667238533497, -0.012604781426489353, -0.4415230453014374, 0.32740306854248047, -0.10816609859466553, -0.4701070189476013, 0.08463730663061142, 0.13319000601768494, -0.13900870084762573, 0.03636499121785164, -0.057879749685525894, -0.20141291618347168, 0.19501209259033203, -0.08996937423944473, 0.041906535625457764, -0.03501851484179497, -0.010752548463642597, -0.15253067016601562, 0.2557678818702698, -0.07538796961307526, 0.0843789353966713, 0.30560821294784546, -0.09796382486820221, 0.055463310331106186, 0.14622871577739716, -0.12149126082658768, 0.36450880765914917, 0.12123177945613861, -0.18475040793418884, 0.1247638612985611, 0.314466655254364, -0.014803594909608364, -0.09833548218011856, -0.2484169602394104, 0.21315328776836395, -0.15246808528900146, -0.23664166033267975, -0.04030320793390274, -0.07285548746585846, 0.18109378218650818, 0.009060853160917759, 0.024509655311703682, -0.1582094132900238, -0.14018738269805908, 0.11328519135713577, 0.27731552720069885, 0.07027656584978104, 0.026387153193354607, -0.06846808642148972, -0.016874931752681732, 0.03476940467953682, 0.23220820724964142, 0.08172420412302017, 0.02920818328857422, -0.04563454911112785, -0.2333354502916336, -0.0002842628746293485, 0.0984368845820427, -0.18601292371749878, 0.13176698982715607, 0.17418527603149414, -0.24274413287639618, 0.17191016674041748, -0.3652750849723816, -0.14812053740024567, 0.30950266122817993, -0.2241719365119934, -0.08267015963792801, 0.0973861813545227, -0.15784288942813873, -0.21060875058174133, -0.030080175027251244, 0.0399961955845356, -0.14645059406757355, -0.3952861726284027, -0.13845732808113098, 0.13166126608848572, 0.019450969994068146, 0.012806910090148449, 0.06737334281206131, 0.12878912687301636, 0.1682353913784027, -0.22257936000823975, -0.10413233190774918, 0.0682070329785347, 0.03024940937757492, -0.10083203762769699, -0.21318435668945312, -0.1535768359899521, 0.026221808046102524, -0.07336592674255371, 0.23942309617996216, -0.005581115838140249, 0.029552333056926727, -0.12322676181793213, 0.05283565819263458, 0.2546248137950897, -0.02222277782857418, -0.07931387424468994, -0.31390976905822754, 0.271092027425766, -0.18393468856811523, -0.04549909755587578, -0.21668745577335358, 0.047146622091531754, -0.05528831481933594, -0.10175774246454239, 0.07795915007591248, -0.004887109622359276, 0.42457595467567444, 0.09557858854532242, 0.30551445484161377, 0.22882352769374847, -0.2732788920402527, 0.12377119064331055, 0.2803354561328888, -0.06878431886434555, 0.12040530890226364, -0.06231630966067314, 0.1605425477027893, 0.04465138539671898, -0.057817429304122925, -0.10719411820173264, 0.10965439677238464, 0.6476861238479614, 0.01952916383743286, 0.047845564782619476, 0.049385156482458115, 0.13088929653167725, -0.05570242181420326, -0.023900466039776802, 0.5994266867637634, -0.1723347306251526, 0.8296130299568176, -1.1378732919692993, -0.7924990653991699, -0.3071686029434204, 0.35787519812583923, -0.17904014885425568, 0.23504182696342468, 0.39778149127960205, -0.8952528834342957, 0.4619031250476837, -0.007516422308981419, -0.5202877521514893, 0.1782013326883316, -0.3604593575000763, -0.13503512740135193, -0.2587129771709442, 0.2884552478790283, -0.1405050903558731, -0.08055833727121353, 0.04995126649737358, -0.027928004041314125, -0.13088639080524445, -0.17779725790023804, 0.01788891665637493, -0.0921439677476883, -0.043485015630722046, 0.02699366956949234, -0.0369754359126091, 0.16158384084701538, 0.015996016561985016, 0.012976610101759434, -0.21667520701885223, 0.278087854385376, -0.2621883153915405, 0.013662919402122498, -0.25467562675476074, 0.16577847301959991, -0.0905524268746376, -0.18923133611679077, -0.04646249860525131, -0.28682655096054077, 0.11562685668468475, -0.09817040711641312, -0.07527267187833786, 0.13026215136051178, 0.16791929304599762, -0.06760470569133759, 0.2559436857700348, -0.10427197068929672, -0.05879708752036095, -0.07658788561820984, -0.046814315021038055, 0.016221752390265465, 0.02135392650961876, 0.12611664831638336, -0.2409980148077011, -0.17296059429645538, -0.5364541411399841, 0.18974527716636658, -0.11100929230451584, -0.0728040263056755, 0.19534145295619965, -0.3193180561065674, 0.10981225222349167, -0.21136686205863953, 0.4258823096752167, 0.2982880771160126, 0.3175514340400696, 0.08442877233028412, 0.24594084918498993, 0.07710373401641846, -0.3176737129688263, 0.12970687448978424, 0.045758116990327835, 0.10762196034193039, 0.01304230373352766, -0.07920406758785248, -0.07396376878023148, 0.2168448567390442, -0.032678935676813126, 0.07607273012399673, 0.16550852358341217, 0.16705551743507385, -0.033999908715486526, 0.018575409427285194, -0.19061629474163055, 0.2763558030128479, 0.27209922671318054, -0.010855835862457752, 0.22973346710205078, -0.19394168257713318, -0.23213951289653778, -0.3529855012893677, -0.03822970762848854, -0.18522650003433228, 0.3095785677433014, 0.11199983209371567, 0.10126800835132599, -0.01600153185427189, 0.22338294982910156, -0.022860074415802956, 0.0019500335911288857, 0.10821264237165451, 0.19759421050548553, -0.18736453354358673, 0.32308945059776306, -0.026220012456178665, -0.10297437757253647, -0.18739661574363708, 0.11035459488630295, -0.09398914128541946, -0.034830242395401, -0.16371406614780426, 0.035727426409721375, -0.21348907053470612, -0.14535383880138397, 0.14191383123397827, -0.04529143124818802, -0.37425827980041504, -0.024976229295134544, -0.21606971323490143, -0.24707116186618805, 0.32788512110710144, 0.14362305402755737, 0.12287729978561401, -0.15497152507305145, -0.13499753177165985, 0.26367443799972534, -0.4482942521572113, -0.029893236234784126, 0.34669044613838196, 0.040048982948064804, 0.05731663107872009, 0.25280559062957764, -0.14437195658683777, -0.11823510378599167, 0.043823208659887314, 0.17029836773872375, -0.3246317505836487, 0.07409778982400894, 0.30437466502189636, 0.024076994508504868, -0.23441040515899658, 0.042982202023267746, -0.12393483519554138, 0.0012621788773685694, 0.08385994285345078, 0.28474870324134827, -0.24118974804878235, -0.0650259330868721, -0.09833220392465591, -0.14414507150650024, -0.11442035436630249, 0.014919072389602661, 0.1394270658493042, 0.14369258284568787, -0.008000470697879791, -0.0012873116647824645, 0.07818829268217087, 0.28575965762138367, 0.21445973217487335, -0.008961578831076622, -0.18246132135391235, -0.07658903300762177, -0.14023342728614807, -0.17431680858135223, -0.17982915043830872, -0.15684756636619568, -0.15704411268234253, -0.34649303555488586, 0.15336450934410095, 0.13605566322803497, -0.10308212786912918, 0.17591385543346405, -0.14488205313682556, 0.1875307708978653, -0.09936998039484024, -0.24574850499629974, -0.1766572743654251, -0.07721313834190369, -0.03232913464307785, -0.24687792360782623, 0.12183134257793427, -0.05729992315173149, -0.06941122561693192, -0.04446272924542427, -0.1517612189054489, 0.1387842893600464, 0.19462856650352478, -0.13810835778713226, 0.05577712133526802, -0.1453092396259308, -0.1874292492866516, 0.13056495785713196, -0.16783060133457184, -0.27042871713638306, -0.011443816125392914, 0.10852599143981934, 0.07596112787723541, 0.16508153080940247, 0.2053273618221283, 0.16501092910766602, -0.06604444235563278, 0.2767433226108551, -0.2447933554649353, -0.13046030700206757, 0.06288696825504303, 0.25056761503219604, 0.24727162718772888, 0.41398465633392334, -0.16379553079605103, 0.30116215348243713, -0.20056737959384918, 0.11647184193134308, 0.3354381024837494, 0.06353040039539337, -0.021802155300974846, -0.23464396595954895, -0.24371765553951263, 0.2097536027431488, 0.15727119147777557, -0.1221248134970665, -0.1266566812992096, 0.11527321487665176, 0.043495725840330124, 0.2999027669429779, 0.11215849965810776, 0.06140042468905449, -0.08301480114459991, 0.09862284362316132, 0.044084470719099045, 0.2021176815032959, 0.08953700214624405, -0.06280675530433655, -0.18370658159255981, -0.19698570668697357, -0.10572218894958496, 0.041370294988155365, 0.3652304708957672, 0.047640785574913025, 0.04020673409104347, 0.1461317092180252, -0.053538717329502106, -0.17748986184597015, -0.016195859760046005, 0.0695972815155983, -0.19351308047771454, 0.16705749928951263, -0.4694253206253052, -0.06608270853757858, 0.10572238266468048, 0.056262798607349396, -0.0813012644648552, 0.048389215022325516, -0.0007824297063052654, 0.09984933584928513, -0.05368742346763611, -0.0996326208114624, -0.3569868505001068, -0.1736854612827301, 0.06848243623971939, -0.13096584379673004, 0.0023032301105558872, 0.013038954697549343, -0.23543432354927063, -0.10992258787155151, 0.0033943785820156336, -0.08517397195100784, 0.16294308006763458, 0.1554291844367981, -0.2659013271331787, -0.0551394484937191, 0.06240081414580345, 0.002374438801780343, -0.08018770068883896, 0.036310676485300064, 0.09144727885723114, 0.027901118621230125, -0.035294923931360245, 0.11032538115978241, 0.15295518934726715, -0.13847048580646515, 0.1235550194978714, -0.1504162847995758, -0.14702868461608887, 0.12704795598983765, 0.048510756343603134, -0.0027769445441663265, 0.01711813546717167, 0.25348347425460815, 0.3520936965942383, 0.11498630046844482, 0.1492912918329239, 0.28146329522132874, -0.3061583936214447, 0.11330337077379227, 0.1614677459001541, -0.1340508759021759, -0.019710926339030266, 0.03951309248805046, 0.0912574753165245, -0.024339819326996803, -0.15119828283786774, 0.23637649416923523, 0.006241081282496452, 0.053019896149635315, -0.13644659519195557, 0.13261325657367706, -0.3443293869495392, -0.06708689033985138, 0.10443027317523956, 0.03114340640604496, -0.08080076426267624, 0.0208759643137455, -0.14867116510868073, 0.11333277821540833, 0.12183395028114319, 0.019503550603985786, -0.4665980935096741, 0.2667746841907501, 0.05656367167830467, -0.01458715833723545, 0.11682184040546417, 0.02244078926742077, -0.26476943492889404, 0.170967698097229, 0.1680888533592224, -0.27004262804985046, 0.019664695486426353, -0.12244390696287155, 0.357658714056015, -0.20514830946922302, -0.1963193267583847, -0.05189286917448044, -0.08865752071142197, -0.07237359881401062, 0.06948020309209824, 0.2997170090675354, -0.08663173764944077, 0.09747426211833954, -0.1339426189661026, -0.20012621581554413, -0.05599021539092064, -0.18036000430583954, 0.05340622365474701, 0.06571190059185028, 0.09862546622753143, 0.03883187100291252, -0.06054215133190155, 0.11474860459566116, -0.004531228449195623, -0.1591452956199646, 0.07909808307886124, 0.021702710539102554, 0.20870323479175568, -0.08003602176904678, 0.16727294027805328, -0.13056530058383942, -0.10730862617492676, -0.007313650567084551, 0.15118470788002014, 0.12494824081659317, 0.060669127851724625, -0.13897284865379333, 0.13533905148506165, -0.09414707869291306, 0.11644750833511353, -0.18085314333438873, -0.09948127716779709, -0.07047494500875473, -0.08917782455682755, -0.2561291456222534, 0.15988954901695251, -0.08672512322664261, -0.14057965576648712, 0.19619904458522797, 0.2811301350593567, -0.0006098909070715308, -0.14175966382026672, 0.08827108144760132, -0.018510790541768074, -0.12823376059532166, 0.0326353944838047, 0.08785854279994965, 0.19697947800159454, 0.34625712037086487, 0.2143673300743103, 0.03984828293323517, -0.06975541263818741, 0.3616005480289459, 0.2734406590461731, -0.17521540820598602, 0.38937464356422424, 0.09103643894195557, -0.05158143490552902, -0.2317892611026764, -0.1233876496553421, 0.06799285113811493, -0.013617249205708504, 0.26275959610939026, -0.20380108058452606, -0.09950581192970276, -0.34287023544311523, -0.19876675307750702, -0.02959972806274891, -0.28867703676223755, 0.10138045251369476, 0.2281516045331955, -0.01013878546655178, 0.1467171013355255, -0.07418973743915558, 0.13920098543167114, -0.059497199952602386, 0.1642150729894638, 0.050825171172618866, 0.014250773005187511, 1.0761933326721191, -0.04906151071190834, -0.22298996150493622, 0.17030754685401917, 0.09146464616060257, 0.11785957962274551, 0.16486649215221405, 0.10915059596300125, 0.1299179047346115, -0.14357584714889526, 0.11855071038007736, -0.04908047989010811, 0.20424385368824005, 0.10040726512670517, 0.09667936712503433, 0.035782136023044586, 0.13880425691604614, -0.10341804474592209, 0.021900927647948265, -0.5200722217559814, 0.07638655602931976, 0.055303655564785004, 0.016423314809799194, 0.0657566487789154, -0.07169654220342636, 0.051681503653526306, 0.11430401355028152, -0.025452598929405212, 0.001055294880643487, -0.10919630527496338, -0.10528360307216644, 0.2500537037849426, 0.13985392451286316, 0.03167767822742462, 0.06908982247114182, 0.05396732687950134, 0.11453178524971008, -0.12546983361244202, 0.032573387026786804, 0.05842290073633194, 0.08171405643224716, -0.3272920548915863, -0.004628278780728579, 0.06228990852832794, -0.05360386520624161, -0.1066000685095787, 0.06488613039255142, -0.013743877410888672, -0.08820847421884537, -0.009216327220201492, 0.008536001667380333, -0.04525429382920265, -0.1696004569530487, 0.24053169786930084, 0.04074067249894142, -0.2708602547645569, 0.11964308470487595, -0.017641928046941757, 0.013135058805346489, -0.20311634242534637, -0.07323072850704193, 0.03811275213956833, 0.008607865311205387, 0.1041095107793808, 0.20985889434814453, -0.08283712714910507, -0.16116851568222046, 0.33013224601745605, 0.1821690797805786, 0.6572567820549011, 0.24228134751319885, -0.04275380074977875, 0.4743798077106476, -0.0037230118177831173, -0.12519299983978271, -0.1339867115020752, 0.12129572033882141, 0.02266158163547516, -0.03933293744921684, -0.1042412519454956, -0.006101095583289862, -0.25468799471855164, -0.2081136256456375, 0.4507649540901184, 0.2260129153728485, -0.2681294083595276, 0.19429324567317963, 0.3096195161342621, 0.1383095234632492, 0.15816952288150787, 0.1546451449394226, 0.1882525235414505, -0.12191569060087204, -0.12877121567726135, -0.16454251110553741, 0.12401160597801208, -0.48663774132728577, 0.19701577723026276, -0.2745613157749176, 0.17276334762573242, -0.1728343665599823, -0.1572498083114624, 0.15715080499649048, -0.14051316678524017, 0.008418463170528412, -0.1910582035779953, 0.15757228434085846, -0.10673181712627411, 0.054938144981861115, 0.1496301293373108, -0.13920843601226807, -0.03786175325512886, -0.13261738419532776, 0.059470128268003464, -0.1896439641714096, -0.20208707451820374, 0.057683706283569336, 0.08294498175382614, -0.19406037032604218, -0.15399402379989624, 0.021646395325660706, -0.0716412365436554, 0.013404147699475288, -0.01510022021830082, -0.06399039179086685, 0.022117778658866882, -0.07143979519605637, -0.04375028982758522, -0.0010287733748555183, -0.22865329682826996, -0.3376437723636627, -0.15823912620544434, 0.5922169089317322, 0.255985826253891, -0.0811222717165947, -0.08491137623786926, 0.02169952541589737, 0.11402878165245056, 0.10485230386257172, -0.19641506671905518, 0.04665685445070267, 0.12456811964511871, 0.013425965793430805, -0.12551729381084442, -0.04128636047244072, -0.42251160740852356, -0.09756878018379211, -0.11245301365852356, -0.06535767763853073, -0.234143927693367, -0.012995515950024128, 0.08368552476167679, 0.16524052619934082, 0.09678776562213898, -0.2460079938173294, 0.4465186595916748, 0.2982955574989319, -0.18520256876945496, -0.01425207406282425, -0.11243411898612976, -0.13270346820354462, 0.09248451888561249, 0.19348597526550293, -0.2514978349208832, -0.04800419509410858, -0.11997666954994202, 0.18397840857505798, -0.17569108307361603, -0.09044000506401062, 0.1422787755727768, 0.052140120416879654, 0.14361189305782318, -0.1924523115158081, 0.19489523768424988, 0.12455575168132782, 0.05603093281388283, 0.12429694831371307, 0.2926539182662964, 0.15258392691612244, -0.2411322444677353, 0.17518968880176544, 0.07264425605535507, -0.1766880303621292, -0.12262807041406631, 0.209406778216362, 0.09624264389276505, 0.01963822916150093, -0.14835672080516815, 0.04810264706611633, 0.12101465463638306, 0.03741328790783882, -0.038274135440588, 0.005593983456492424, -0.33477017283439636, -0.07431688159704208, 0.03104325197637081, 