{
    "in_shape": [
        null,
        null,
        1
    ],
    "layers": [
        {
            "type": "lstm",
            "activation": "",
            "shape": [
                null,
                null,
                20
            ],
            "weights": [
                [
                    [
                        0.09197975695133209,
                        -0.0076314290054142475,
                        0.2739250361919403,
                        -0.10363976657390594,
                        -0.002121866913512349,
                        -0.008711932227015495,
                        0.25714436173439026,
                        0.08172205090522766,
                        -0.0035497245844453573,
                        -0.023122262209653854,
                        0.29216569662094116,
                        0.08600711822509766,
                        0.46984243392944336,
                        -0.06276658922433853,
                        -0.4448555111885071,
                        0.18388158082962036,
                        0.19544737040996552,
                        0.018360698595643044,
                        0.3390871584415436,
                        -0.030849989503622055,
                        -0.10335922986268997,
                        -0.07334022223949432,
                        0.3864062428474426,
                        -0.16432280838489532,
                        0.07187853753566742,
                        0.16399773955345154,
                        0.07587026804685593,
                        -0.05440323054790497,
                        -0.17745372653007507,
                        0.10405980050563812,
                        0.17988447844982147,
                        0.14905208349227905,
                        -0.11260241270065308,
                        -0.0012160212500020862,
                        -0.28116074204444885,
                        0.033270444720983505,
                        0.03019649162888527,
                        0.0711129680275917,
                        -0.14658069610595703,
                        -0.1381443291902542,
                        -0.128295436501503,
                        -0.1337915062904358,
                        0.0852462500333786,
                        3.220775604248047,
                        -1.2239570617675781,
                        0.10090506821870804,
                        0.6019399166107178,
                        -0.057064466178417206,
                        0.024382829666137695,
                        -0.01274511031806469,
                        0.4960375726222992,
                        0.31597793102264404,
                        0.3639882802963257,
                        0.578534722328186,
                        0.04495871067047119,
                        0.4229886531829834,
                        -0.24353094398975372,
                        0.28285732865333557,
                        0.5033248066902161,
                        0.01093701459467411,
                        -0.036852605640888214,
                        -0.16645066440105438,
                        0.2691817879676819,
                        0.15127338469028473,
                        -0.12978845834732056,
                        -0.14540860056877136,
                        -0.432851105928421,
                        -0.026980141177773476,
                        0.08559229969978333,
                        -0.07190161943435669,
                        0.11485806852579117,
                        0.06594987213611603,
                        -0.0018554979469627142,
                        -0.0532413087785244,
                        -0.05111699923872948,
                        -0.005933255422860384,
                        -0.0078680869191885,
                        0.016945110633969307,
                        0.361998975276947,
                        -0.04666614532470703
                    ]
                ],
                [
                    [
                        -0.28141072392463684,
                        0.048572082072496414,
                        0.01362570933997631,
                        0.14344660937786102,
                        -0.02756442129611969,
                        0.22181791067123413,
                        0.19341859221458435,
                        0.08185746520757675,
                        -0.2352139949798584,
                        -0.08620858192443848,
                        0.5112364292144775,
                        -0.2101164162158966,
                        0.192947655916214,
                        -0.24758988618850708,
                        -0.1821722686290741,
                        0.2823903262615204,
                        0.2163643091917038,
                        -0.11350011825561523,
                        0.30563071370124817,
                        0.03292789310216904,
                        -0.16553598642349243,
                        0.0913521870970726,
                        -0.12003850191831589,
                        -0.0005744448280893266,
                        -0.05075901001691818,
                        0.293769896030426,
                        -0.03803282603621483,
                        -0.30697882175445557,
                        -0.03137078136205673,
                        -0.08547400683164597,
                        -0.13983845710754395,
                        -0.1187385842204094,
                        0.5494802594184875,
                        -0.23820798099040985,
                        -0.14063575863838196,
                        0.09236692637205124,
                        -0.026434576138854027,
                        -0.09406868368387222,
                        -0.033178843557834625,
                        -0.2521161139011383,
                        0.00806895736604929,
                        0.18766933679580688,
                        -0.024976642802357674,
                        0.26119187474250793,
                        0.2926745116710663,
                        0.06745819002389908,
                        -0.055675625801086426,
                        0.09523820877075195,
                        0.6878649592399597,
                        -0.07382524013519287,
                        -0.24441289901733398,
                        0.2830182611942291,
                        -0.3230007588863373,
                        -0.17615708708763123,
                        -0.031796667724847794,
                        -0.12109482288360596,
                        -0.15751568973064423,
                        0.1412256509065628,
                        -0.23252633213996887,
                        -0.09927043318748474,
                        -0.26134544610977173,
                        -0.06443005800247192,
                        -0.10817799717187881,
                        -0.5003392696380615,
                        0.00749183027073741,
                        -0.16501379013061523,
                        -0.17916007339954376,
                        -0.24842938780784607,
                        0.008782840333878994,
                        0.006698675453662872,
                        -0.31511443853378296,
                        -0.14268361032009125,
                        0.3774997591972351,
                        -0.3753162920475006,
                        -0.27090007066726685,
                        0.019296076148748398,
                        0.3085864782333374,
                        -0.09607241302728653,
                        -0.38528716564178467,
                        0.13030023872852325
                    ],
                    [
                        0.45460209250450134,
                        -0.33673906326293945,
                        -0.141688734292984,
                        -0.11626945436000824,
                        -0.33226415514945984,
                        0.19735129177570343,
                        0.5579531788825989,
                        -0.06169545277953148,
                        -0.24702174961566925,
                        0.1270584762096405,
                        0.11179257929325104,
                        -0.08765042573213577,
                        -0.24962952733039856,
                        0.13611972332000732,
                        0.09348715841770172,
                        -0.018338067457079887,
                        0.5151464343070984,
                        -0.2510758936405182,
                        0.0876213014125824,
                        -0.002224300056695938,
                        0.06469962000846863,
                        0.3528651297092438,
                        -0.17321759462356567,
                        -0.3621312081813812,
                        -0.2792174518108368,
                        0.006030756048858166,
                        -0.5924739241600037,
                        0.05399801582098007,
                        -0.45385968685150146,
                        -0.07834314554929733,
                        -0.7362239360809326,
                        0.15843425691127777,
                        0.03020629845559597,
                        -0.02606016956269741,
                        -0.016435543075203896,
                        -0.17264653742313385,
                        0.029451152309775352,
                        -0.16758084297180176,
                        -0.467351496219635,
                        0.21459566056728363,
                        0.11591900140047073,
                        0.10311340540647507,
                        0.0031573204323649406,
                        0.11421336233615875,
                        0.057164136320352554,
                        0.10270144045352936,
                        -0.06550061702728271,
                        0.05481170117855072,
                        1.3836790323257446,
                        0.24300585687160492,
                        -0.1234358474612236,
                        0.00792932789772749,
                        -0.37637820839881897,
                        0.06307113915681839,
                        0.048120349645614624,
                        -0.11614478379487991,
                        0.03888532146811485,
                        -0.25176432728767395,
                        -0.010356624610722065,
                        -0.008820637129247189,
                        0.2534536123275757,
                        -0.23921900987625122,
                        -0.2953576445579529,
                        -0.6501355171203613,
                        -0.388877272605896,
                        -0.057471051812171936,
                        -0.0988234207034111,
                        -0.10115822404623032,
                        0.10724283754825592,
                        -0.03600292280316353,
                        -0.3977759778499603,
                        -0.389663964509964,
                        0.15199165046215057,
                        -0.06911041587591171,
                        -0.027969244867563248,
                        -0.07222512364387512,
                        0.04725071042776108,
                        -0.23012112081050873,
                        -0.5132657885551453,
                        -0.08891398459672928
                    ],
                    [
                        0.26865750551223755,
                        -0.30297380685806274,
                        -0.024342907592654228,
                        -0.2638642191886902,
                        -0.005021404474973679,
                        -0.021850479766726494,
                        -0.02816234715282917,
                        0.03084610588848591,
                        0.02112223580479622,
                        0.1435900777578354,
                        -0.09215553104877472,
                        -0.02755957469344139,
                        -0.014841452240943909,
                        0.09582021087408066,
                        -0.2948319613933563,
                        -0.01843375340104103,
                        0.2991538643836975,
                        -0.09512942284345627,
                        0.15554778277873993,
                        0.08857894688844681,
                        -0.04092998802661896,
                        -0.013118804432451725,
                        0.14579933881759644,
                        0.11608794331550598,
                        0.1599808931350708,
                        0.14176826179027557,
                        0.021375153213739395,
                        -0.070704884827137,
                        0.0884660929441452,
                        0.11052596569061279,
                        0.01805129274725914,
                        0.14606815576553345,
                        -0.1069752648472786,
                        0.2248321771621704,
                        -0.3976072669029236,
                        0.10894334316253662,
                        -0.005271757021546364,
                        0.2038286328315735,
                        -0.16939586400985718,
                        0.0757526084780693,
                        -0.1403789222240448,
                        -0.658195972442627,
                        -0.3089388608932495,
                        -0.3994557559490204,
                        -0.20500001311302185,
                        0.33240655064582825,
                        -0.05270194634795189,
                        0.1467350572347641,
                        -0.6618146300315857,
                        0.17085996270179749,
                        0.25433412194252014,
                        -1.1718297004699707,
                        0.6786299347877502,
                        0.24519865214824677,
                        -0.05234672874212265,
                        0.02399260550737381,
                        -0.2791913151741028,
                        -0.29351454973220825,
                        0.08373923599720001,
                        -0.1619824767112732,
                        0.06955872476100922,
                        -0.14887882769107819,
                        0.16874392330646515,
                        0.12714476883411407,
                        0.08616508543491364,
                        0.010303068906068802,
                        -0.2605725824832916,
                        -0.025013862177729607,
                        -0.1500617265701294,
                        -0.10396602749824524,
                        0.03425843268632889,
                        -0.056009817868471146,
                        -0.2531805634498596,
                        0.30564114451408386,
                        -0.02117009460926056,
                        0.04369373619556427,
                        -0.3316621780395508,
                        -0.07029901444911957,
                        -0.045665763318538666,
                        -0.058074966073036194
                    ],
                    [
                        0.0018694328609853983,
                        -0.332291841506958,
                        0.12673157453536987,
                        -0.1692207157611847,
                        -0.16567368805408478,
                        -0.06583219021558762,
                        -0.20728416740894318,
                        -0.24374432861804962,
                        0.0405224971473217,
                        -0.046270787715911865,
                        -0.04703473299741745,
                        0.11275284737348557,
                        0.33206936717033386,
                        0.07980503886938095,
                        -0.11997956782579422,
                        0.28706851601600647,
                        -0.28686589002609253,
                        0.02185685560107231,
                        -0.22312162816524506,
                        -0.006831797305494547,
                        -0.05017855018377304,
                        -0.06112978607416153,
                        0.15824653208255768,
                        0.06287196278572083,
                        -0.07303787767887115,
                        0.4179055690765381,
                        -0.0512395016849041,
                        0.020178046077489853,
                        0.17609499394893646,
                        0.11747793853282928,
                        0.1357400268316269,
                        0.18340769410133362,
                        0.2617565393447876,
                        0.2173561304807663,
                        0.12392497062683105,
                        0.12760820984840393,
                        0.2065657377243042,
                        0.062228187918663025,
                        0.09659750014543533,
                        -0.07156969606876373,
                        -0.1876600980758667,
                        0.02943008579313755,
                        0.7946264147758484,
                        0.1547638177871704,
                        0.21990059316158295,
                        0.3347946107387543,
                        0.027896840125322342,
                        -0.17563684284687042,
                        0.6182398796081543,
                        0.21967503428459167,
                        0.03158116713166237,
                        -1.973541259765625,
                        0.08655769377946854,
                        -0.17134013772010803,
                        -0.15645058453083038,
                        0.06334830075502396,
                        -0.5570071339607239,
                        1.5778497457504272,
                        0.3505363464355469,
                        0.07250944525003433,
                        0.3538026511669159,
                        -0.2520613670349121,
                        0.17686252295970917,
                        -0.2652243375778198,
                        -0.17596574127674103,
                        0.17393426597118378,
                        -0.13462872803211212,
                        -0.0010542134987190366,
                        0.03397116810083389,
                        -0.07308582216501236,
                        0.3115846812725067,
                        -0.0525951087474823,
                        0.03988463059067726,
                        -0.008163217455148697,
                        -0.0947171300649643,
                        0.2411174774169922,
                        -0.2882233262062073,
                        0.010186983272433281,
                        0.19908861815929413,
                        0.09955573081970215
                    ],
                    [
                        0.1759296953678131,
                        -0.023021100088953972,
                        -0.15368887782096863,
                        -0.06390907615423203,
                        -0.1074366569519043,
                        -0.0157042033970356,
                        0.21368251740932465,
                        0.09089098870754242,
                        -0.2580416202545166,
                        0.002521632006391883,
                        0.1760900616645813,
                        -0.2378132939338684,
                        -0.4148656725883484,
                        0.025496382266283035,
                        0.17059333622455597,
                        -0.09676282852888107,
                        0.2167523205280304,
                        -0.20786152780056,
                        0.3147151470184326,
                        0.15112438797950745,
                        0.06284578144550323,
                        -0.11503808200359344,
                        -0.1152200773358345,
                        -0.5605988502502441,
                        0.04289404675364494,
                        -0.16620148718357086,
                        -0.23748363554477692,
                        -0.249799907207489,
                        -0.5973315238952637,
                        -0.15882042050361633,
                        -0.499896764755249,
                        -0.1556870937347412,
                        -0.025170201435685158,
                        -0.04146038740873337,
                        0.011616846546530724,
                        -0.15022361278533936,
                        -0.1832064837217331,
                        -0.05989089235663414,
                        -0.030576346442103386,
                        -0.2500922977924347,
                        0.014960002154111862,
                        0.1285323053598404,
                        -0.528580904006958,
                        -0.29047510027885437,
                        -0.11032361537218094,
                        -0.25027111172676086,
                        -0.08653771132230759,
                        0.04233241081237793,
                        0.39153340458869934,
                        -0.33056673407554626,
                        0.09161178022623062,
                        -0.06605309993028641,
                        -0.5112982392311096,
                        0.08915679901838303,
                        0.15254420042037964,
                        -0.07570863515138626,
                        0.21250087022781372,
                        -0.4046168625354767,
                        -0.03877192363142967,
                        0.17942164838314056,
                        -0.02009957656264305,
                        -0.23233792185783386,
                        -0.2696463167667389,
                        -0.49666449427604675,
                        -0.22602330148220062,
                        -0.1056065782904625,
                        -0.16774150729179382,
                        -0.052577294409275055,
                        -0.061883144080638885,
                        -0.004413417540490627,
                        -0.2091042846441269,
                        -0.23031209409236908,
                        0.021661026403307915,
                        -0.19298267364501953,
                        -0.1844530552625656,
                        -0.11923571676015854,
                        0.2568887770175934,
                        -0.21193088591098785,
                        0.2367461770772934,
                        -0.0018570112297311425
                    ],
                    [
                        -0.35654574632644653,
                        -0.19931422173976898,
                        0.17545758187770844,
                        0.16673815250396729,
                        0.10467129945755005,
                        0.022776281461119652,
                        -0.6486835479736328,
                        -0.9414888620376587,
                        0.40321284532546997,
                        -0.1329612284898758,
                        -0.7155644297599792,
                        0.4499707818031311,
                        0.02207302674651146,
                        0.16570515930652618,
                        -0.34653371572494507,
                        0.12847141921520233,
                        -0.7393715381622314,
                        0.34195640683174133,
                        -1.1485434770584106,
                        -0.6860217452049255,
                        0.4448617994785309,
                        0.2094828337430954,
                        0.18728819489479065,
                        0.005521827843040228,
                        -0.0027220326010137796,
                        0.2433997541666031,
                        0.9495260119438171,
                        0.9820860028266907,
                        0.1958237737417221,
                        0.15941040217876434,
                        0.8290205001831055,
                        0.11866942793130875,
                        0.022340143099427223,
                        0.29676899313926697,
                        -0.016284139826893806,
                        0.37837526202201843,
                        0.8842262029647827,
                        -0.051852740347385406,
                        1.0359609127044678,
                        0.718741238117218,
                        -0.35478344559669495,
                        -0.06737013906240463,
                        -0.009734044782817364,
                        -0.03399409353733063,
                        -0.13991303741931915,
                        0.2180464267730713,
                        -0.029099121689796448,
                        0.0812809020280838,
                        -0.12761536240577698,
                        0.20120869576931,
                        -0.06337106227874756,
                        0.018943360075354576,
                        -0.01860378496348858,
                        0.2001105397939682,
                        -0.28050336241722107,
                        -0.37894609570503235,
                        -0.0457933209836483,
                        0.11968764662742615,
                        -0.07434601336717606,
                        -0.027226051315665245,
                        0.2358875572681427,
                        0.25720253586769104,
                        0.2713986933231354,
                        0.30681920051574707,
                        0.10071190446615219,
                        0.5147611498832703,
                        0.21165066957473755,
                        0.19943130016326904,
                        0.19388702511787415,
                        -0.04880940914154053,
                        -0.0888255387544632,
                        0.14444881677627563,
                        0.30995216965675354,
                        0.3099067807197571,
                        0.35694167017936707,
                        0.5458642244338989,
                        0.20814387500286102,
                        0.3753926157951355,
                        0.1215471550822258,
                        0.4416877031326294
                    ],
                    [
                        -0.18864388763904572,
                        0.3949199616909027,
                        0.1941031515598297,
                        0.09629863500595093,
                        0.1868143379688263,
                        -0.15495404601097107,
                        -0.1086370199918747,
                        -0.5431009531021118,
                        0.2778295576572418,
                        -0.07219432294368744,
                        -0.18329069018363953,
                        0.38445478677749634,
                        0.5210619568824768,
                        -0.32537490129470825,
                        -0.10717680305242538,
                        0.044699300080537796,
                        -0.4805455803871155,
                        0.3210641145706177,
                        -0.3595726490020752,
                        -0.2338917851448059,
                        0.34500211477279663,
                        0.04987620189785957,
                        -0.03572985529899597,
                        -0.10138225555419922,
                        0.022146075963974,
                        -0.041401151567697525,
                        0.4024669826030731,
                        0.5403765439987183,
                        0.06769240647554398,
                        0.2093306928873062,
                        0.8063135743141174,
                        0.06256872415542603,
                        0.3922707140445709,
                        -0.17315766215324402,
                        0.18074533343315125,
                        0.18749088048934937,
                        0.531366229057312,
                        -0.030132822692394257,
                        0.3150126338005066,
                        0.3384838402271271,
                        0.261052668094635,
                        0.3368552327156067,
                        -0.45485496520996094,
                        -0.2375887781381607,
                        -0.047656767070293427,
                        -0.22825348377227783,
                        0.3227953612804413,
                        0.038756001740694046,
                        -0.06190669164061546,
                        0.15170586109161377,
                        0.5799891948699951,
                        0.12323128432035446,
                        -0.30499595403671265,
                        -0.6699302792549133,
                        0.09014030545949936,
                        -0.013751977123320103,
                        -0.3727168142795563,
                        -0.09004353731870651,
                        0.3583998680114746,
                        -0.070619598031044,
                        0.21164818108081818,
                        0.30555835366249084,
                        0.22579540312290192,
                        0.1727800816297531,
                        0.12055405974388123,
                        -0.20235860347747803,
                        0.5232006311416626,
                        0.09640105068683624,
                        -0.17564265429973602,
                        -0.01067171897739172,
                        0.5077667832374573,
                        0.29413101077079773,
                        0.052545215934515,
                        0.04831643030047417,
                        0.28607457876205444,
                        0.22185714542865753,
                        -0.032126326113939285,
                        0.3479371666908264,
                        0.45407578349113464,
                        0.11785722523927689
                    ],
                    [
                        -0.02353408932685852,
                        -0.10048245638608932,
                        -0.05657680332660675,
                        0.1363621950149536,
                        -0.049643486738204956,
                        -0.014409523457288742,
                        0.03377257287502289,
                        0.08673042058944702,
                        0.038232605904340744,
                        -0.05746717005968094,
                        0.13458287715911865,
                        -0.021218672394752502,
                        -0.009524884633719921,
                        0.02782655693590641,
                        -0.10459844022989273,
                        -0.05136406421661377,
                        0.015166888944804668,
                        0.028397168964147568,
                        0.04060705006122589,
                        0.10443393886089325,
                        0.008981755003333092,
                        -0.23103265464305878,
                        -0.08374232798814774,
                        0.025648534297943115,
                        -0.0943332314491272,
                        -0.029543785378336906,
                        -0.15757352113723755,
                        0.10601134598255157,
                        0.04238040745258331,
                        -0.09659940004348755,
                        -0.18313230574131012,
                        -0.16720329225063324,
                        -0.012964214198291302,
                        0.041066158562898636,
                        -0.12228204309940338,
                        -0.05981740728020668,
                        0.00761360814794898,
                        0.04090379923582077,
                        0.04711790382862091,
                        0.3623671233654022,
                        -0.09889033436775208,
                        0.2523817718029022,
                        0.18587221205234528,
                        0.3289579451084137,
                        -0.16057457029819489,
                        0.08141881972551346,
                        -0.13307125866413116,
                        0.4329015910625458,
                        -0.5782325267791748,
                        0.15537331998348236,
                        -0.12640823423862457,
                        -0.14782533049583435,
                        0.07241856306791306,
                        0.1176891103386879,
                        0.26226332783699036,
                        0.08867097645998001,
                        -0.24743174016475677,
                        -0.25680235028266907,
                        -0.0075452025048434734,
                        -0.605964720249176,
                        0.038902439177036285,
                        0.048932965844869614,
                        -0.026518480852246284,
                        0.01532581727951765,
                        0.012141120620071888,
                        0.01941450871527195,
                        -0.024586882442235947,
                        -0.03475186973810196,
                        -0.1266573667526245,
                        -0.08334743976593018,
                        0.20120930671691895,
                        0.017525119706988335,
                        0.031683824956417084,
                        0.0695512518286705,
                        -0.05802414193749428,
                        -0.011723577044904232,
                        -0.0925513431429863,
                        0.023764176294207573,
                        0.19205769896507263,
                        0.02447274886071682
                    ],
                    [
                        0.08824104815721512,
                        -0.28873327374458313,
                        -0.0008700650651007891,
                        0.0326361358165741,
                        0.06044301390647888,
                        0.21991066634655,
                        0.07449177652597427,
                        0.19421929121017456,
                        0.10001255571842194,
                        0.06434889882802963,
                        0.05871496722102165,
                        0.08080126345157623,
                        0.010400023311376572,
                        0.1597006767988205,
                        -0.4048292636871338,
                        0.20717933773994446,
                        0.23020023107528687,
                        -0.03243127837777138,
                        0.16310866177082062,
                        0.011826436966657639,
                        -0.2532845139503479,
                        0.369332879781723,
                        0.03243054449558258,
                        0.07151549309492111,
                        0.15946553647518158,
                        0.299032986164093,
                        -0.15740808844566345,
                        0.04375365003943443,
                        -0.2797251343727112,
                        -0.0474470816552639,
                        0.021164732053875923,
                        0.1288653016090393,
                        0.2683953046798706,
                        0.009027167223393917,
                        -0.5766364336013794,
                        0.27680662274360657,
                        -0.07427886128425598,
                        0.19268065690994263,
                        -0.3229362964630127,
                        0.09568476676940918,
                        -0.04199659824371338,
                        -0.10269906371831894,
                        0.42659011483192444,
                        0.03964804857969284,
                        0.00770720886066556,
                        0.3186820447444916,
                        -0.02176015079021454,
                        0.436405748128891,
                        1.1954946517944336,
                        -0.09442812204360962,
                        0.03108573891222477,
                        -0.0001925821852637455,
                        0.009762730449438095,
                        0.003771953983232379,
                        0.364900141954422,
                        -0.39030325412750244,
                        -0.01859746314585209,
                        -0.31719842553138733,
                        -0.041850604116916656,
                        -0.05523613095283508,
                        0.08722151070833206,
                        0.2463071048259735,
                        -0.13440990447998047,
                        -0.08083060383796692,
                        0.10897325724363327,
                        -0.04043848067522049,
                        0.15913522243499756,
                        -0.06327903270721436,
                        0.2122430056333542,
                        -0.1979234665632248,
                        0.11312240362167358,
                        -0.025374092161655426,
                        0.2564609944820404,
                        -0.1784103959798813,
                        -0.060194917023181915,
                        -0.06118177995085716,
                        0.005248005501925945,
                        -0.007384102325886488,
                        0.017059968784451485,
                        -0.10526685416698456
                    ],
                    [
                        -0.15389341115951538,
                        -0.07546117901802063,
                        0.054716289043426514,
                        0.08316215127706528,
                        0.004876156337559223,
                        0.1106034517288208,
                        0.37860196828842163,
                        -0.012834552675485611,
                        0.2950062155723572,
                        0.009653247892856598,
                        0.30063194036483765,
                        0.1046743169426918,
                        0.3334001898765564,
                        0.01677023060619831,
                        -0.018277183175086975,
                        0.01004288624972105,
                        -0.17892543971538544,
                        0.14822225272655487,
                        0.052213285118341446,
                        0.11956606060266495,
                        0.0968073159456253,
                        0.046892713755369186,
                        -0.0024715561885386705,
                        0.1334768831729889,
                        -0.04668133705854416,
                        0.1472124457359314,
                        0.007199185900390148,
                        -0.0028440228197723627,
                        0.07575660943984985,
                        0.09367702901363373,
                        0.251228004693985,
                        0.167175754904747,
                        0.3584979474544525,
                        -0.10988462716341019,
                        -0.037940237671136856,
                        0.04772699996829033,
                        0.13404087722301483,
                        -0.11076587438583374,
                        0.03569655492901802,
                        -0.06121019273996353,
                        -0.11264008283615112,
                        -0.3456493616104126,
                        -0.05279166251420975,
                        -0.07929544150829315,
                        -0.05499788001179695,
                        0.014219729229807854,
                        -0.14384698867797852,
                        -0.020002072677016258,
                        -0.2687899172306061,
                        0.30259427428245544,
                        -0.08129250258207321,
                        0.026937026530504227,
                        0.3985152542591095,
                        -0.05799723416566849,
                        -0.09282656759023666,
                        -0.12120932340621948,
                        -0.04504792019724846,
                        0.07203599065542221,
                        0.06618355959653854,
                        -0.03541122376918793,
                        -0.011389307677745819,
                        0.11171863228082657,
                        0.08222344517707825,
                        0.23255421221256256,
                        0.07501164823770523,
                        0.21554848551750183,
                        -0.11296794563531876,
                        -0.07140650600194931,
                        0.17172449827194214,
                        0.03399389982223511,
                        -0.3564387559890747,
                        0.21516866981983185,
                        0.360647588968277,
                        0.006155002862215042,
                        -0.02021465264260769,
                        0.15439817309379578,
                        0.08018673211336136,
                        0.16067680716514587,
                        -0.04265409708023071,
                        0.14531269669532776
                    ],
                    [
                        0.2572251856327057,
                        0.17280128598213196,
                        0.1012539342045784,
                        -0.3499150574207306,
                        -0.12125109881162643,
                        -0.22539561986923218,
                        0.33482345938682556,
                        -0.1289561688899994,
                        0.021409818902611732,
                        -0.07348935306072235,
                        0.10980036109685898,
                        0.16481293737888336,
                        0.15675564110279083,
                        0.04224775731563568,
                        0.04782462492585182,
                        -0.18358607590198517,
                        0.1899176687002182,
                        0.08519510179758072,
                        0.526905357837677,
                        -0.09091172367334366,
                        0.42975014448165894,
                        -0.13258278369903564,
                        0.05003378540277481,
                        -0.5660008192062378,
                        -0.1352539360523224,
                        -0.07840000092983246,
                        0.34981903433799744,
                        0.259643018245697,
                        -0.037610262632369995,
                        0.10786791890859604,
                        0.4040153920650482,
                        0.10640719532966614,
                        -0.007578669581562281,
                        0.27131229639053345,
                        0.19614189863204956,
                        -0.13339298963546753,
                        0.4083142876625061,
                        0.036211736500263214,
                        0.4630662500858307,
                        0.1685805767774582,
                        0.13164874911308289,
                        0.4592522978782654,
                        -0.5350766777992249,
                        -0.40164047479629517,
                        -0.11814314126968384,
                        -0.00351260369643569,
                        0.5423485636711121,
                        0.16857095062732697,
                        0.37240108847618103,
                        -0.2988569736480713,
                        0.03454071655869484,
                        -0.200807586312294,
                        -0.7365627288818359,
                        -0.1360572874546051,
                        0.10173917561769485,
                        0.09464412927627563,
                        -0.3740108907222748,
                        -0.1772090047597885,
                        -0.025248166173696518,
                        0.051274899393320084,
                        0.19039657711982727,
                        0.023704268038272858,
                        0.07690195739269257,
                        -0.12490122765302658,
                        -0.4084872901439667,
                        -0.027927501127123833,
                        0.5969928503036499,
                        0.02581634745001793,
                        0.2055485099554062,
                        -0.055890511721372604,
                        0.8570624589920044,
                        0.12660253047943115,
                        -0.08897805213928223,
                        -0.03173292800784111,
                        0.055520523339509964,
                        0.02008688449859619,
                        0.41659796237945557,
                        0.08641184121370316,
                        0.4509909152984619,
                        0.07294298708438873
                    ],
                    [
                        0.4743298888206482,
                        -0.5252475142478943,
                        0.15097147226333618,
                        0.6453970670700073,
                        0.10218048095703125,
                        0.14460091292858124,
                        0.08969805389642715,
                        0.1587085872888565,
                        0.17089472711086273,
                        -0.13536275923252106,
                        -0.07452644407749176,
                        0.10488544404506683,
                        0.12651602923870087,
                        0.10525108128786087,
                        0.16535617411136627,
                        0.12346334755420685,
                        0.1687244474887848,
                        0.12367036193609238,
                        0.08022414147853851,
                        0.11156522482633591,
                        0.12801970541477203,
                        -0.39202314615249634,
                        0.10475098341703415,
                        0.13376151025295258,
                        -0.10806554555892944,
                        0.05819236487150192,
                        -0.3157142400741577,
                        -0.3977243900299072,
                        -0.3404686450958252,
                        -0.28896671533584595,
                        -0.26278120279312134,
                        0.07425175607204437,
                        0.32794028520584106,
                        -0.25660240650177,
                        0.1201312467455864,
                        0.03045370616018772,
                        0.00833714846521616,
                        0.06617272645235062,
                        0.14218315482139587,
                        -0.3472807705402374,
                        -0.11297087371349335,
                        0.7235482335090637,
                        0.048717349767684937,
                        0.11521677672863007,
                        0.15376819670200348,
                        -0.20085778832435608,
                        -0.17839503288269043,
                        0.0280175618827343,
                        0.8252747654914856,
                        0.29256460070610046,
                        -0.1050075888633728,
                        0.6224868297576904,
                        -0.6298503875732422,
                        -0.18729595839977264,
                        0.14608192443847656,
                        0.005164425354450941,
                        -0.06728354096412659,
                        0.07039645314216614,
                        -0.1678205132484436,
                        0.02883751317858696,
                        0.1726233810186386,
                        0.1798427850008011,
                        -0.006762920878827572,
                        -0.04007690027356148,
                        0.1305038332939148,
                        0.47229617834091187,
                        -0.0809466540813446,
                        -0.05782638117671013,
                        0.015223340131342411,
                        -0.47113683819770813,
                        -0.05112466588616371,
                        -0.26194441318511963,
                        0.5726105570793152,
                        -0.09322155267000198,
                        0.22888733446598053,
                        0.10980174690485,
                        0.12852394580841064,
                        0.14144204556941986,
                        -0.04654589295387268,
                        0.01020082924515009
                    ],
                    [
                        -0.10235358774662018,
                        0.19710324704647064,
                        -0.17576318979263306,
                        -0.34440577030181885,
                        -0.12151841819286346,
                        -0.020883573219180107,
                        0.5510314702987671,
                        0.4416983723640442,
                        -0.07711298763751984,
                        -0.20530377328395844,
                        0.29156479239463806,
                        -0.22812104225158691,
                        0.0031592375598847866,
                        -0.033205557614564896,
                        0.32297462224960327,
                        0.15957267582416534,
                        0.6178451180458069,
                        -0.06055228412151337,
                        0.545427680015564,
                        0.2783838212490082,
                        -0.11307109892368317,
                        -0.30669304728507996,
                        -0.17043450474739075,
                        -0.11953853070735931,
                        -0.0076156239956617355,
                        -0.07791823148727417,
                        -0.44932207465171814,
                        -0.40225815773010254,
                        0.039376985281705856,
                        -0.23025144636631012,
                        -0.4650363624095917,
                        0.22001765668392181,
                        -0.0008789318380877376,
                        0.03070899099111557,
                        0.17521432042121887,
                        0.12535792589187622,
                        -0.2694096267223358,
                        0.019735850393772125,
                        -0.5391401648521423,
                        -0.22976791858673096,
                        -0.0992036908864975,
                        -0.5161411762237549,
                        0.19506587088108063,
                        -0.03494873642921448,
                        0.09161357581615448,
                        0.004056917503476143,
                        -0.010914909653365612,
                        -0.014846662990748882,
                        -1.642810344696045,
                        -0.014145325869321823,
                        0.2483942210674286,
                        -0.4976359009742737,
                        0.18769104778766632,
                        0.10081680864095688,
                        0.016420597210526466,
                        -0.25629711151123047,
                        -0.24416521191596985,
                        -0.4613083302974701,
                        -0.1504283845424652,
                        -0.0022910861298441887,
                        -0.2366029918193817,
                        -0.020629428327083588,
                        -0.032601308077573776,
                        0.22538530826568604,
                        -0.028297947719693184,
                        -0.12296657264232635,
                        0.002037196885794401,
                        -0.1808730810880661,
                        0.3258589804172516,
                        0.035621169954538345,
                        0.13462916016578674,
                        0.21507704257965088,
                        -0.2038741409778595,
                        0.07490842044353485,
                        -0.27941611409187317,
                        0.04910034313797951,
                        -0.05902964249253273,
                        -0.08114072680473328,
                        -0.008335127495229244,
                        0.3041982352733612
                    ],
                    [
                        0.07898213714361191,
                        -0.09204873442649841,
                        -0.06824217736721039,
                        -0.9104008674621582,
                        0.023877130821347237,
                        -0.15050506591796875,
                        -0.02969508431851864,
                        -0.5857575535774231,
                        -0.0018970419187098742,
                        0.11206245422363281,
                        0.172860786318779,
                        -0.06997869163751602,
                        -0.2008189558982849,
                        0.02363865077495575,
                        0.0499107725918293,
                        -0.14702965319156647,
                        0.11581749469041824,
                        -0.13503794372081757,
                        -0.0622720867395401,
                        -0.4804163873195648,
                        -0.13010957837104797,
                        0.21728840470314026,
                        0.20548240840435028,
                        -0.48051387071609497,
                        0.10690092295408249,
                        -0.09504429250955582,
                        0.5208871364593506,
                        0.4108928442001343,
                        0.10486552119255066,
                        0.053783949464559555,
                        0.3643239438533783,
                        0.44783154129981995,
                        -0.018949203193187714,
                        0.23658570647239685,
                        -0.0017102654092013836,
                        0.0008129815687425435,
                        -0.01993430033326149,
                        -0.004771498031914234,
                        0.3960777819156647,
                        0.23847545683383942,
                        -0.29794174432754517,
                        -0.12498947978019714,
                        0.31365156173706055,
                        0.024646863341331482,
                        0.004785833414644003,
                        0.04467585310339928,
                        0.06342887133359909,
                        -0.1833062469959259,
                        -1.0829052925109863,
                        -0.13043823838233948,
                        -0.09296400099992752,
                        0.04338483139872551,
                        0.5010843873023987,
                        0.14185550808906555,
                        -0.12442895770072937,
                        0.4565783739089966,
                        -0.13491478562355042,
                        -0.1046743243932724,
                        0.017926977947354317,
                        0.1113756000995636,
                        0.2698638439178467,
                        -0.04151706397533417,
                        0.0769183412194252,
                        -0.08500704169273376,
                        0.09963022172451019,
                        -0.008726206608116627,
                        0.07456492632627487,
                        -0.10786429792642593,
                        0.05600243806838989,
                        0.11284013837575912,
                        -0.32760417461395264,
                        -0.2670041024684906,
                        -0.01062712911516428,
                        0.32927241921424866,
                        -0.033528655767440796,
                        -0.1159786656498909,
                        -0.018591267988085747,
                        -0.12662093341350555,
                        -0.5075323581695557,
                        0.0015264179091900587
                    ],
                    [
                        0.30701470375061035,
                        -0.08777398616075516,
                        -0.12702767550945282,
                        -0.3520124554634094,
                        -0.21173734962940216,
                        -0.08823218196630478,
                        0.7191207408905029,
                        0.5549668669700623,
                        -0.2502414286136627,
                        0.08182765543460846,
                        0.5799509286880493,
                        -0.27107349038124084,
                        0.052869588136672974,
                        0.013776002451777458,
                        -0.03208183869719505,
                        0.24198277294635773,
                        0.308758407831192,
                        -0.31932637095451355,
                        0.5993605256080627,
                        0.241323783993721,
                        -0.4221533238887787,
                        0.06374938040971756,
                        0.1385723054409027,
                        0.04505816474556923,
                        -0.14340944588184357,
                        -0.36593806743621826,
                        -0.45660051703453064,
                        -0.7379237413406372,
                        -0.0846494510769844,
                        -0.2577742636203766,
                        -0.7461752891540527,
                        -0.1036883220076561,
                        0.015879137441515923,
                        -0.15557263791561127,
                        -0.18809665739536285,
                        -0.04433553293347359,
                        -0.9447015523910522,
                        0.12196117639541626,
                        -0.9075690507888794,
                        -0.7497068047523499,
                        -0.09475843608379364,
                        -0.0893336832523346,
                        -0.5833796858787537,
                        -0.08461029082536697,
                        -0.0025576974730938673,
                        -0.39410075545310974,
                        -0.0022052419371902943,
                        -0.11405493319034576,
                        -0.3647092878818512,
                        0.04125222936272621,
                        -0.03537187725305557,
                        -0.1751103699207306,
                        -0.12057700008153915,
                        0.2332501858472824,
                        0.11015227437019348,
                        0.055296849459409714,
                        0.09318606555461884,
                        0.16961978375911713,
                        0.04974975809454918,
                        0.5597066283226013,
                        0.1149970069527626,
                        -0.08804038166999817,
                        -0.2576080560684204,
                        -0.349334180355072,
                        -0.27325209975242615,
                        -0.2514052093029022,
                        -0.17510923743247986,
                        -0.2371101826429367,
                        0.16735556721687317,
                        -0.07484154403209686,
                        -0.14386236667633057,
                        -0.2417585700750351,
                        0.10188011825084686,
                        -0.32315754890441895,
                        -0.7586644291877747,
                        -0.2534741461277008,
                        -0.12992285192012787,
                        -0.3331485092639923,
                        -0.049703843891620636,
                        0.12024413049221039
                    ],
                    [
                        0.4491579234600067,
                        -0.038821425288915634,
                        -0.12376469373703003,
                        -0.6549996137619019,
                        -0.03459319844841957,
                        0.22479555010795593,
                        0.7749081254005432,
                        0.7310695052146912,
                        -0.42282137274742126,
                        0.023867350071668625,
                        0.6331313848495483,
                        -0.4611128568649292,
                        -0.3024427592754364,
                        -0.09392136335372925,
                        -0.03920404985547066,
                        -0.0762016549706459,
                        0.7397658824920654,
                        -0.4168291389942169,
                        0.7717834115028381,
                        0.5060460567474365,
                        -0.33969172835350037,
                        0.17234200239181519,
                        0.08727671205997467,
                        -0.08163633942604065,
                        0.1544281244277954,
                        0.09122924506664276,
                        -0.6133321523666382,
                        -0.6147823929786682,
                        0.44889235496520996,
                        -0.29927337169647217,
                        -0.6032385230064392,
                        0.12003479897975922,
                        -0.41632285714149475,
                        -0.02938685193657875,
                        -0.08885546028614044,
                        0.08923600614070892,
                        -0.9462637901306152,
                        0.08581694215536118,
                        -0.8062453269958496,
                        -0.3913622200489044,
                        0.09819599986076355,
                        0.09461665153503418,
                        0.49809277057647705,
                        -0.08730452507734299,
                        -0.27591559290885925,
                        0.0330289751291275,
                        -0.08805639296770096,
                        -0.03520694375038147,
                        0.14135725796222687,
                        -0.1035592332482338,
                        0.12299231439828873,
                        -0.05106118321418762,
                        0.07344583421945572,
                        0.005508255213499069,
                        0.23990009725093842,
                        -0.2673022449016571,
                        -0.14056727290153503,
                        -0.005686752498149872,
                        -0.0280888881534338,
                        -0.21429623663425446,
                        -0.2523789405822754,
                        -0.30873218178749084,
                        -0.15050895512104034,
                        -0.4054262042045593,
                        -0.22193267941474915,
                        -0.11824395507574081,
                        -0.13506409525871277,
                        -0.20515958964824677,
                        -0.23795297741889954,
                        -0.10323519259691238,
                        0.1738700270652771,
                        -0.41350555419921875,
                        -0.644845724105835,
                        -0.011581511236727238,
                        -0.1581660658121109,
                        -0.499679297208786,
                        -0.326616108417511,
                        -0.4291344881057739,
                        -0.11839829385280609,
                        -0.3552674949169159
                    ],
                    [
                        -0.013089126907289028,
                        -0.24919675290584564,
                        -0.2075084000825882,
                        -0.17158515751361847,
                        0.09289854764938354,
                        0.060850001871585846,
                        0.08883046358823776,
                        0.2508973181247711,
                        -0.14355112612247467,
                        0.08496866375207901,
                        0.2362135797739029,
                        -0.24628935754299164,
                        -0.4866093099117279,
                        0.042244113981723785,
                        0.04788562282919884,
                        -0.048692017793655396,
                        0.055128004401922226,
                        -0.1702025681734085,
                        0.08746149390935898,
                        0.16055426001548767,
                        0.09696562588214874,
                        0.0030668843537569046,
                        -0.10952126979827881,
                        -0.2907857596874237,
                        0.173348069190979,
                        0.11322184652090073,
                        0.4449608027935028,
                        0.20245297253131866,
                        0.15998920798301697,
                        -0.056751448661088943,
                        -0.1213848739862442,
                        0.00870218314230442,
                        0.04381154477596283,
                        0.1990596503019333,
                        -0.011298718862235546,
                        0.03426206856966019,
                        0.06855528801679611,
                        -0.05169271305203438,
                        0.05540897697210312,
                        0.05960576608777046,
                        -0.1132991686463356,
                        0.3518645763397217,
                        0.008655698038637638,
                        1.5462265014648438,
                        -0.11297573149204254,
                        0.20582671463489532,
                        0.016992956399917603,
                        -0.16410455107688904,
                        -0.24445873498916626,
                        -0.07979986816644669,
                        0.1206759586930275,
                        -1.0574002265930176,
                        0.335416316986084,
                        0.22618508338928223,
                        0.08061223477125168,
                        0.25946134328842163,
                        -0.08802715688943863,
                        -0.05657469853758812,
                        0.22605136036872864,
                        -0.12553152441978455,
                        0.07279886305332184,
                        -0.04560799524188042,
                        -0.21743781864643097,
                        -0.29675260186195374,
                        0.12547223269939423,
                        0.0033223500940948725,
                        0.2697751820087433,
                        0.06601054966449738,
                        -0.1666967123746872,
                        0.14155089855194092,
                        -0.23392464220523834,
                        -0.2922419309616089,
                        0.03141047805547714,
                        -0.0029287184588611126,
                        0.011139782145619392,
                        -0.12499634921550751,
                        0.1508290022611618,
                        -0.18366988003253937,
                        0.4669826626777649,
                        0.10438504070043564
                    ],
                    [
                        0.055179085582494736,
                        -0.07090829312801361,
                        0.05760670453310013,
                        0.24141788482666016,
                        -0.298780232667923,
                        -0.20330405235290527,
                        0.05145297944545746,
                        0.23243430256843567,
                        -0.043443676084280014,
                        0.021149354055523872,
                        0.04610152170062065,
                        -0.027711661532521248,
                        0.21141712367534637,
                        0.2696213126182556,
                        -0.02541333995759487,
                        0.051649339497089386,
                        0.16304470598697662,
                        -0.02289603464305401,
                        -0.004857747349888086,
                        0.08621535450220108,
                        -0.11515845358371735,
                        -0.28405797481536865,
                        0.020629268139600754,
                        -0.03603542596101761,
                        -0.2731291651725769,
                        0.20343619585037231,
                        0.04805464670062065,
                        -0.4653707444667816,
                        -0.2422664612531662,
                        0.036654647439718246,
                        -0.2637783885002136,
                        -0.2190333902835846,
                        -0.21751058101654053,
                        0.23945288360118866,
                        0.09491956233978271,
                        -0.16778923571109772,
                        -0.19481982290744781,
                        0.31438034772872925,
                        -0.24251945316791534,
                        -0.2835656702518463,
                        -0.08844811469316483,
                        -0.2560257017612457,
                        0.030023057013750076,
                        -0.30254030227661133,
                        -0.060940906405448914,
                        -0.16131530702114105,
                        -0.11279623210430145,
                        -0.21588091552257538,
                        1.0997121334075928,
                        -0.11674545705318451,
                        0.08665867149829865,
                        -1.5858230590820312,
                        0.7630019187927246,
                        0.1068834662437439,
                        -0.1544664353132248,
                        0.19926176965236664,
                        -0.28728556632995605,
                        -0.32389968633651733,
                        0.34226685762405396,
                        0.007967500947415829,
                        0.214600071310997,
                        -0.3622300326824188,
                        0.08264806121587753,
                        -0.3126888573169708,
                        -0.6239348649978638,
                        -0.2042093127965927,
                        -0.13063840568065643,
                        -0.1177838146686554,
                        -0.06832578033208847,
                        -0.17746199667453766,
                        -0.028375811874866486,
                        0.13073667883872986,
                        -0.08948162943124771,
                        -0.04065601900219917,
                        -0.18723981082439423,
                        0.10619329661130905,
                        -0.35057321190834045,
                        -0.02889328822493553,
                        0.1482238620519638,
                        -0.07070280611515045
                    ],
                    [
                        0.3819311857223511,
                        -0.02249760366976261,
                        0.08874966949224472,
                        -0.7776996493339539,
                        -0.17845012247562408,
                        0.029631786048412323,
                        0.125294491648674,
                        0.38402092456817627,
                        -0.16393119096755981,
                        -0.06079960614442825,
                        -0.14204195141792297,
                        -0.09923802316188812,
                        0.278736412525177,
                        -0.06984225660562515,
                        0.16480636596679688,
                        -0.2555209696292877,
                        0.2589817941188812,
                        -0.2024008333683014,
                        0.21349306404590607,
                        0.2758283317089081,
                        -0.20225606858730316,
                        -0.049807026982307434,
                        0.3609263300895691,
                        -0.524265706539154,
                        -0.07147946953773499,
                        -0.18474626541137695,
                        -0.07813183218240738,
                        -0.20313167572021484,
                        -0.1430850774049759,
                        -0.145734965801239,
                        -0.014583996497094631,
                        0.3907688558101654,
                        0.3119675815105438,
                        -0.09152133017778397,
                        0.11121204495429993,
                        -0.13908100128173828,
                        -0.2702144384384155,
                        0.05817035585641861,
                        -0.16394749283790588,
                        -0.08335397392511368,
                        -0.10968393087387085,
                        0.1064407005906105,
                        -0.029388057067990303,
                        -0.9120559692382812,
                        -0.026545310392975807,
                        0.2684258818626404,
                        -0.38027504086494446,
                        -0.11186830699443817,
                        -0.5437279939651489,
                        0.1734144240617752,
                        -0.3925497233867645,
                        0.3880396783351898,
                        -0.3738726079463959,
                        0.030184226110577583,
                        0.02808823622763157,
                        -0.09051652997732162,
                        -0.13259395956993103,
                        -0.7508084177970886,
                        0.08162529766559601,
                        -0.15374532341957092,
                        -0.08515258133411407,
                        -0.2511190176010132,
                        -0.013612023554742336,
                        -0.19439858198165894,
                        -0.6163927912712097,
                        -0.3417116701602936,
                        0.1413242071866989,
                        -0.04785909131169319,
                        -0.10169386118650436,
                        -0.20234236121177673,
                        0.3416805863380432,
                        -0.13127581775188446,
                        0.004344944376498461,
                        -0.08191386610269547,
                        -0.024421900510787964,
                        -0.25968512892723083,
                        -0.07181329280138016,
                        -0.2183644324541092,
                        -0.5439417958259583,
                        -0.045320287346839905
                    ],
                    [
                        0.0491623692214489,
                        -0.22090159356594086,
                        -0.04497499018907547,
                        0.05795921012759209,
                        -0.029858918860554695,
                        -0.08217225223779678,
                        0.1461479812860489,
                        0.33110347390174866,
                        -0.055043525993824005,
                        0.06070846691727638,
                        0.2636054754257202,
                        -0.14023837447166443,
                        -0.06135447695851326,
                        0.10215160995721817,
                        0.4657747149467468,
                        -0.09086541086435318,
                        0.27725642919540405,
                        -0.1384681761264801,
                        0.39274439215660095,
                        -0.26399651169776917,
                        -0.2813071608543396,
                        -0.37421277165412903,
                        0.06369997560977936,
                        -0.053620025515556335,
                        0.14332671463489532,
                        -0.18610145151615143,
                        -0.10112401098012924,
                        -0.4457630217075348,
                        -0.0019902619533240795,
                        -0.17062778770923615,
                        -0.1972208172082901,
                        0.15854373574256897,
                        -0.008346819318830967,
                        0.09805212169885635,
                        0.3686290383338928,
                        -0.0595669187605381,
                        -0.015311138704419136,
                        0.10367429256439209,
                        0.06129391863942146,
                        -0.25313156843185425,
                        0.08849725127220154,
                        -0.02848995104432106,
                        0.09733083844184875,
                        -0.1865488439798355,
                        -0.0752086266875267,
                        -0.05043783411383629,
                        -0.042273882776498795,
                        0.9053124785423279,
                        -0.37521448731422424,
                        0.01580975204706192,
                        0.09188336879014969,
                        -0.2385120540857315,
                        0.06312322616577148,
                        0.05622236430644989,
                        -0.24376673996448517,
                        0.020243247970938683,
                        -0.11427851021289825,
                        -0.10526975989341736,
                        -0.053741250187158585,
                        0.4685293734073639,
                        -0.07677191495895386,
                        -0.11738014221191406,
                        -0.07351894676685333,
                        -0.07975004613399506,
                        -0.015515372157096863,
                        -0.07151447236537933,
                        -0.0942234992980957,
                        -0.0979941263794899,
                        0.04155996814370155,
                        -0.00447478424757719,
                        -0.13845263421535492,
                        0.035004228353500366,
                        0.049436669796705246,
                        -0.028002729639410973,
                        0.06978326290845871,
                        -0.07693105190992355,
                        -0.2855910360813141,
                        -0.15512049198150635,
                        -0.19394619762897491,
                        -0.707175076007843
                    ]
                ],
                [
                    -0.7288675308227539,
                    0.13129989802837372,
                    0.4177626967430115,
                    0.42693597078323364,
                    0.2953086197376251,
                    0.019465051591396332,
                    -1.0291239023208618,
                    -2.8575968742370605,
                    0.9699362516403198,
                    -0.3570786118507385,
                    -1.8484163284301758,
                    1.1693542003631592,
                    0.18632888793945312,
                    -0.05849283188581467,
                    -0.361569344997406,
                    -0.23660153150558472,
                    -1.838209629058838,
                    0.9490532875061035,
                    -1.4176799058914185,
                    -1.963133692741394,
                    1.489029884338379,
                    0.5725225210189819,
                    -0.04784589260816574,
                    -0.22335514426231384,
                    0.0405791737139225,
                    1.077728509902954,
                    1.7320504188537598,
                    2.9415478706359863,
                    0.31917110085487366,
                    0.8015855550765991,
                    2.0463366508483887,
                    0.2538619041442871,
                    0.43999332189559937,
                    0.5389650464057922,
                    0.8491467237472534,
                    0.8895488977432251,
                    2.5632753372192383,
                    -0.2721063494682312,
                    2.522399425506592,
                    2.600292205810547,
                    -0.09419359266757965,
                    -0.4149552583694458,
                    0.1359604001045227,
                    0.17875170707702637,
                    -0.47521352767944336,
                    0.6195225715637207,
                    0.12747833132743835,
                    0.045052699744701385,
                    0.01860247552394867,
                    -0.01489049382507801,
                    -0.23642368614673615,
                    -0.49035874009132385,
                    -0.20835161209106445,
                    0.4637245535850525,
                    -0.6174864768981934,
                    -0.40589532256126404,
                    -0.0018981397151947021,
                    -0.7618025541305542,
                    -0.3518766760826111,
                    0.21254363656044006,
                    0.49738577008247375,
                    0.5056954026222229,
                    0.7408490777015686,
                    0.9122235774993896,
                    0.295913964509964,
                    0.8037230968475342,
                    0.31155166029930115,
                    0.5559799075126648,
                    -0.3051423132419586,
                    -0.03995921462774277,
                    -0.16666822135448456,
                    0.4217304587364197,
                    0.3224691152572632,
                    0.8468478918075562,
                    1.1030645370483398,
                    1.0682127475738525,
                    0.494013249874115,
                    1.061781406402588,
                    0.4660837650299072,
                    0.6086714267730713
                ]
            ]
        },
        {
            "type": "dense",
            "activation": "",
            "shape": [
                null,
                null,
                1
            ],
            "weights": [
                [
                    [
                        0.1393454521894455
                    ],
                    [
                        0.03413589671254158
                    ],
                    [
                        0.19723518192768097
                    ],
                    [
                        0.0098227234557271
                    ],
                    [
                        -0.14018514752388
                    ],
                    [
                        -0.1845168173313141
                    ],
                    [
                        0.01809462532401085
                    ],
                    [
                        -0.5951234102249146
                    ],
                    [
                        0.5447691082954407
                    ],
                    [
                        0.05040905252099037
                    ],
                    [
                        0.008959371596574783
                    ],
                    [
                        -0.014318856410682201
                    ],
                    [
                        0.023506460711359978
                    ],
                    [
                        -0.16851067543029785
                    ],
                    [
                        -0.6560103297233582
                    ],
                    [
                        0.1859624981880188
                    ],
                    [
                        0.11178508400917053
                    ],
                    [
                        -0.07048895210027695
                    ],
                    [
                        0.006939722690731287
                    ],
                    [
                        0.8308042883872986
                    ]
                ],
                [
                    0.12669247388839722
                ]
            ]
        }
    ],
    "input_batch": [
        0.10126030445098877,
        0.08890712261199951,
        0.07685470581054688,
        0.0653461217880249,
        0.054532408714294434,
        0.04451119899749756,
        0.035308122634887695,
        0.026958346366882324,
        0.019446253776550293,
        0.012525677680969238,
        0.005981564521789551,
        -0.00026929378509521484,
        -0.006249666213989258,
        -0.011995553970336914,
        -0.017508625984191895,
        -0.02271401882171631,
        -0.02761971950531006,
        -0.032241225242614746,
        -0.036610960960388184,
        -0.040699005126953125,
        -0.044444918632507324,
        -0.04790925979614258,
        -0.05123317241668701,
        -0.05459952354431152,
        -0.05816948413848877,
        -0.06197834014892578,
        -0.06591951847076416,
        -0.06988704204559326,
        -0.07376646995544434,
        -0.0775219202041626,
        -0.0812673568725586,
        -0.0852200984954834,
        -0.08966875076293945,
        -0.0947955846786499,
        -0.10053467750549316,
        -0.10666441917419434,
        -0.11304926872253418,
        -0.11953246593475342,
        -0.12591278553009033,
        -0.132002592086792,
        -0.13763344287872314,
        -0.1428072452545166,
        -0.1477440595626831,
        -0.15266728401184082,
        -0.15767443180084229,
        -0.16278719902038574,
        -0.16788256168365479,
        -0.17280030250549316,
        -0.17743873596191406,
        -0.18170714378356934,
        -0.18566298484802246,
        -0.18930482864379883,
        -0.1925739049911499,
        -0.1953953504562378,
        -0.19770467281341553,
        -0.19953620433807373,
        -0.20087742805480957,
        -0.20163464546203613,
        -0.20174288749694824,
        -0.20131254196166992,
        -0.20060443878173828,
        -0.19981276988983154,
        -0.19898736476898193,
        -0.19804656505584717,
        -0.196830153465271,
        -0.19518935680389404,
        -0.19313395023345947,
        -0.19076907634735107,
        -0.18827474117279053,
        -0.18589138984680176,
        -0.1838209629058838,
        -0.1821526288986206,
        -0.18084239959716797,
        -0.17979443073272705,
        -0.17878055572509766,
        -0.17766690254211426,
        -0.17643523216247559,
        -0.17515993118286133,
        -0.1739363670349121,
        -0.17273938655853271,
        -0.17163515090942383,
        -0.17070817947387695,
        -0.17007207870483398,
        -0.16979968547821045,
        -0.16981327533721924,
        -0.16993045806884766,
        -0.16990244388580322,
        -0.16958773136138916,
        -0.1689746379852295,
        -0.16806650161743164,
        -0.16679561138153076,
        -0.1650604009628296,
        -0.16283249855041504,
        -0.16023242473602295,
        -0.15746891498565674,
        -0.15467429161071777,
        -0.1518399715423584,
        -0.14881455898284912,
        -0.14543640613555908,
        -0.1416233777999878,
        -0.13732385635375977,
        -0.13252103328704834,
        -0.12722790241241455,
        -0.12140977382659912,
        -0.1149972677230835,
        -0.10812699794769287,
        -0.10091328620910645,
        -0.09338629245758057,
        -0.08561444282531738,
        -0.07770180702209473,
        -0.0697547197341919,
        -0.06180286407470703,
        -0.05381882190704346,
        -0.04577839374542236,
        -0.037773728370666504,
        -0.02981877326965332,
        -0.0217587947845459,
        -0.013584733009338379,
        -0.005498647689819336,
        0.0022115707397460938,
        0.009361028671264648,
        0.015861988067626953,
        0.02178025245666504,
        0.027471303939819336,
        0.03322553634643555,
        0.0390704870223999,
        0.044942378997802734,
        0.05073356628417969,
        0.056270599365234375,
        0.061307668685913086,
        0.06559419631958008,
        0.06905794143676758,
        0.07182455062866211,
        0.07404875755310059,
        0.07576572895050049,
        0.07687973976135254,
        0.07731044292449951,
        0.07699429988861084,
        0.07598209381103516,
        0.07441914081573486,
        0.07245373725891113,
        0.07016265392303467,
        0.06741988658905029,
        0.06401145458221436,
        0.059793949127197266,
        0.054786086082458496,
        0.049076080322265625,
        0.04292154312133789,
        0.0367201566696167,
        0.030768513679504395,
        0.025237202644348145,
        0.020194053649902344,
        0.015549659729003906,
        0.011062860488891602,
        0.006516814231872559,
        0.0016690492630004883,
        -0.0035783052444458008,
        -0.009043335914611816,
        -0.014560103416442871,
        -0.01997232437133789,
        -0.025107622146606445,
        -0.029849529266357422,
        -0.0341801643371582,
        -0.038176894187927246,
        -0.0419238805770874,
        -0.04551243782043457,
        -0.049030423164367676,
        -0.05255579948425293,
        -0.05611443519592285,
        -0.05966758728027344,
        -0.06308913230895996,
        -0.06624603271484375,
        -0.06903386116027832,
        -0.07132863998413086,
        -0.07318830490112305,
        -0.07477903366088867,
        -0.07623231410980225,
        -0.07766759395599365,
        -0.07912790775299072,
        -0.08060348033905029,
        -0.08206832408905029,
        -0.0835350751876831,
        -0.0849834680557251,
        -0.0863875150680542,
        -0.08768463134765625,
        -0.08876609802246094,
        -0.08961772918701172,
        -0.09028482437133789,
        -0.09077417850494385,
        -0.09109926223754883,
        -0.09132516384124756,
        -0.09154629707336426,
        -0.09190034866333008,
        -0.09250175952911377,
        -0.09336423873901367,
        -0.09438812732696533,
        -0.09540486335754395,
        -0.09629964828491211,
        -0.09695351123809814,
        -0.09727776050567627,
        -0.09731853008270264,
        -0.09716832637786865,
        -0.09688055515289307,
        -0.09645700454711914,
        -0.09585022926330566,
        -0.09491729736328125,
        -0.09349715709686279,
        -0.09149730205535889,
        -0.0888979434967041,
        -0.08565866947174072,
        -0.08183944225311279,
        -0.07756125926971436,
        -0.07288217544555664,
        -0.06781184673309326,
        -0.06223011016845703,
        -0.05610156059265137,
        -0.049604177474975586,
        -0.04303312301635742,
        -0.03657269477844238,
        -0.030182957649230957,
        -0.023830890655517578,
        -0.017480134963989258,
        -0.011202812194824219,
        -0.005202770233154297,
        0.00040411949157714844,
        0.005603194236755371,
        0.010437726974487305,
        0.0148468017578125,
        0.018692374229431152,
        0.02192986011505127,
        0.0246657133102417,
        0.027021288871765137,
        0.029035091400146484,
        0.030586719512939453,
        0.03155243396759033,
        0.031975388526916504,
        0.031960248947143555,
        0.03164219856262207,
        0.03116452693939209,
        0.030570149421691895,
        0.029740571975708008,
        0.028551816940307617,
        0.027022480964660645,
        0.025263190269470215,
        0.023347020149230957,
        0.021306276321411133,
        0.019191265106201172,
        0.017074108123779297,
        0.014982461929321289,
        0.012930631637573242,
        0.011011600494384766,
        0.009290933609008789,
        0.007765769958496094,
        0.006402850151062012,
        0.005133152008056641,
        0.003931283950805664,
        0.0027321577072143555,
        0.0015039443969726562,
        0.0003292560577392578,
        -0.000674128532409668,
        -0.0014024972915649414,
        -0.001804351806640625,
        -0.0017800331115722656,
        -0.001269221305847168,
        -0.00032699108123779297,
        0.000947117805480957,
        0.002516508102416992,
        0.004452705383300781,
        0.006804466247558594,
        0.00959157943725586,
        0.01270139217376709,
        0.0160750150680542,
        0.01967310905456543,
        0.023368358612060547,
        0.027097105979919434,
        0.030758142471313477,
        0.03434407711029053,
        0.03788125514984131,
        0.04126310348510742,
        0.0442659854888916,
        0.046614766120910645,
        0.048201560974121094,
        0.04912543296813965,
        0.04964029788970947,
        0.049962520599365234,
        0.05014371871948242,
        0.05012857913970947,
        0.04983675479888916,
        0.04925990104675293,
        0.048380136489868164,
        0.04710042476654053,
        0.045377135276794434,
        0.04331254959106445,
        0.04109060764312744,
        0.038783907890319824,
        0.03635132312774658,
        0.03364443778991699,
        0.030588626861572266,
        0.027303099632263184,
        0.02396368980407715,
        0.020811080932617188,
        0.017944693565368652,
        0.015338897705078125,
        0.012925505638122559,
        0.010601639747619629,
        0.008323907852172852,
        0.006069660186767578,
        0.0038775205612182617,
        0.001814126968383789,
        -0.00012803077697753906,
        -0.001978278160095215,
        -0.003760099411010742,
        -0.0054596662521362305,
        -0.007068753242492676,
        -0.008604645729064941,
        -0.010076761245727539,
        -0.0114821195602417,
        -0.012848258018493652,
        -0.014246225357055664,
        -0.015692472457885742,
        -0.01719212532043457,
        -0.0187608003616333,
        -0.020316243171691895,
        -0.021687865257263184,
        -0.022744178771972656,
        -0.023395895957946777,
        -0.02367424964904785,
        -0.023686766624450684,
        -0.023559212684631348,
        -0.02353835105895996,
        -0.023810148239135742,
        -0.024420976638793945,
        -0.025281429290771484,
        -0.026275038719177246,
        -0.02729785442352295,
        -0.028254151344299316,
        -0.029113173484802246,
        -0.029862523078918457,
        -0.030559778213500977,
        -0.031292080879211426,
        -0.032172203063964844,
        -0.0333104133605957,
        -0.03469491004943848,
        -0.03616642951965332,
        -0.03746485710144043,
        -0.03835141658782959,
        -0.03867208957672119,
        -0.038384437561035156,
        -0.03746497631072998,
        -0.03588759899139404,
        -0.03366267681121826,
        -0.030804753303527832,
        -0.027373194694519043,
        -0.023534536361694336,
        -0.019438862800598145,
        -0.015193939208984375,
        -0.010837078094482422,
        -0.006299853324890137,
        -0.0014376640319824219,
        0.0038427114486694336,
        0.009543776512145996,
        0.01564168930053711,
        0.022014617919921875,
        0.02853548526763916,
        0.03507280349731445,
        0.041413187980651855,
        0.047380924224853516,
        0.052945852279663086,
        0.05824482440948486,
        0.0635983943939209,
        0.06930017471313477,
        0.07545745372772217,
        0.08200514316558838,
        0.08876204490661621,
        0.0954751968383789,
        0.10194063186645508,
        0.10813772678375244,
        0.11412465572357178,
        0.11989188194274902,
        0.12540817260742188,
        0.13065004348754883,
        0.13551747798919678,
        0.13996493816375732,
        0.14400458335876465,
        0.14764666557312012,
        0.1509488821029663,
        0.153936505317688,
        0.15665125846862793,
        0.15916800498962402,
        0.16149985790252686,
        0.163557767868042,
        0.1652536392211914,
        0.1665053367614746,
        0.16722917556762695,
        0.16746926307678223,
        0.16731905937194824,
        0.16686558723449707,
        0.1661592721939087,
        0.16517388820648193,
        0.16384673118591309,
        0.16212892532348633,
        0.15992379188537598,
        0.1572057008743286,
        0.15409469604492188,
        0.15064311027526855,
        0.14686822891235352,
        0.1427854299545288,
        0.13837194442749023,
        0.13358283042907715,
        0.12836873531341553,
        0.12267875671386719,
        0.11648714542388916,
        0.10981261730194092,
        0.10262274742126465,
        0.09489047527313232,
        0.08663547039031982,
        0.07785844802856445,
        0.06863725185394287,
        0.059093356132507324,
        0.049382805824279785,
        0.03961348533630371,
        0.029848098754882812,
        0.020093560218811035,
        0.010236620903015137,
        0.00021505355834960938,
        -0.009972095489501953,
        -0.020226001739501953,
        -0.030455946922302246,
        -0.04052531719207764,
        -0.050289154052734375,
        -0.05972552299499512,
        -0.06886005401611328,
        -0.07784080505371094,
        -0.0867767333984375,
        -0.09571337699890137,
        -0.1045914888381958,
        -0.11325192451477051,
        -0.12151956558227539,
        -0.12922298908233643,
        -0.1362835168838501,
        -0.14263927936553955,
        -0.1482940912246704,
        -0.1532684564590454,
        -0.15757524967193604,
        -0.16122519969940186,
        -0.1642622947692871,
        -0.16681206226348877,
        -0.16893625259399414,
        -0.17068421840667725,
        -0.17207610607147217,
        -0.17307233810424805,
        -0.17363691329956055,
        -0.1737598180770874,
        -0.17346549034118652,
        -0.17271947860717773,
        -0.17148637771606445,
        -0.16977882385253906,
        -0.16760897636413574,
        -0.16502392292022705,
        -0.16216707229614258,
        -0.1592104434967041,
        -0.15623486042022705,
        -0.15324032306671143,
        -0.1501682996749878,
        -0.14697551727294922,
        -0.14366364479064941,
        -0.14021897315979004,
        -0.13671469688415527,
        -0.13324189186096191,
        -0.12983334064483643,
        -0.12648701667785645,
        -0.12318646907806396,
        -0.11989593505859375,
        -0.11658215522766113,
        -0.11322450637817383,
        -0.10980117321014404,
        -0.10633063316345215,
        -0.10277009010314941,
        -0.09906196594238281,
        -0.09512495994567871,
        -0.09084725379943848,
        -0.08619320392608643,
        -0.08116018772125244,
        -0.07574772834777832,
        -0.06996405124664307,
        -0.0638279914855957,
        -0.05738401412963867,
        -0.05070388317108154,
        -0.043877243995666504,
        -0.03686964511871338,
        -0.029566407203674316,
        -0.021921396255493164,
        -0.013936519622802734,
        -0.005740642547607422,
        0.002494215965270996,
        0.010594964027404785,
        0.018350601196289062,
        0.025620341300964355,
        0.032303452491760254,
        0.03835153579711914,
        0.04381203651428223,
        0.04878711700439453,
        0.05340433120727539,
        0.05774569511413574,
        0.0618366003036499,
        0.06566691398620605,
        0.06917035579681396,
        0.07234203815460205,
        0.07526206970214844,
        0.07799792289733887,
        0.08058881759643555,
        0.08302938938140869,
        0.08532822132110596,
        0.08749306201934814,
        0.08949458599090576,
        0.09129893779754639,
        0.09285402297973633,
        0.09407222270965576,
        0.09488523006439209,
        0.09520912170410156,
        0.09495413303375244,
        0.09404194355010986,
        0.09246575832366943,
        0.0903468132019043,
        0.08780062198638916,
        0.08496463298797607,
        0.08192956447601318,
        0.07872426509857178,
        0.07540559768676758,
        0.0719749927520752,
        0.06843304634094238,
        0.06476032733917236,
        0.06087362766265869,
        0.05673205852508545,
        0.052332520484924316,
        0.047727346420288086,
        0.04300487041473389,
        0.03824615478515625,
        0.03349590301513672,
        0.02874135971069336,
        0.024009108543395996,
        0.019306421279907227,
        0.014646530151367188,
        0.010010123252868652,
        0.005287289619445801,
        0.00045299530029296875,
        -0.004498720169067383,
        -0.009496808052062988,
        -0.014434576034545898,
        -0.019288182258605957,
        -0.02406179904937744,
        -0.028815865516662598,
        -0.03360104560852051,
        -0.038417935371398926,
        -0.0432513952255249,
        -0.04804682731628418,
        -0.05280649662017822,
        -0.05752289295196533,
        -0.06214869022369385,
        -0.06665265560150146,
        -0.07101058959960938,
        -0.07518935203552246,
        -0.07914745807647705,
        -0.0828104019165039,
        -0.08608293533325195,
        -0.08889186382293701,
        -0.09117889404296875,
        -0.09295666217803955,
        -0.09428727626800537,
        -0.09519016742706299,
        -0.09563040733337402,
        -0.09557640552520752,
        -0.09496498107910156,
