{
    "in_shape": [
        null,
        null,
        1
    ],
    "out_gain": -2,
    "layers": [
        {
            "type": "lstm",
            "activation": "",
            "shape": [
                null,
                null,
                20
            ],
            "weights": [
                [
                    [
                        -0.3624223470687866,
                        0.1256074756383896,
                        0.921461820602417,
                        0.289762020111084,
                        -0.1420309841632843,
                        0.5194525718688965,
                        0.08394190669059753,
                        -0.3269957900047302,
                        -0.08867271989583969,
                        -0.06083574891090393,
                        0.6003535985946655,
                        0.043328892439603806,
                        -0.12821818888187408,
                        -0.023270804435014725,
                        0.08774443715810776,
                        0.2787065804004669,
                        0.46760791540145874,
                        -0.07885769009590149,
                        -0.23599453270435333,
                        0.19085390865802765,
                        -0.018232516944408417,
                        -0.03127763047814369,
                        0.3985110819339752,
                        0.037423670291900635,
                        -0.17356443405151367,
                        0.021569322794675827,
                        0.02486989088356495,
                        0.20375613868236542,
                        -0.17608393728733063,
                        -0.4967658221721649,
                        0.41796210408210754,
                        0.005364795681089163,
                        0.043082255870103836,
                        0.21721485257148743,
                        0.14758948981761932,
                        0.3128069341182709,
                        0.06483785808086395,
                        -0.11923857778310776,
                        -1.2607786655426025,
                        0.19542743265628815,
                        0.44188767671585083,
                        -4.183353424072266,
                        0.19646643102169037,
                        -0.09453459829092026,
                        -0.14093117415905,
                        0.07004047930240631,
                        0.03954136371612549,
                        -0.8391696214675903,
                        -0.4042355418205261,
                        0.4328204393386841,
                        -0.4852154850959778,
                        0.7868805527687073,
                        0.04756678640842438,
                        -0.39362868666648865,
                        0.15155015885829926,
                        0.19798444211483002,
                        0.11643772572278976,
                        -0.2638804316520691,
                        -0.5396345257759094,
                        -0.4539599120616913,
                        0.7570511102676392,
                        -0.33832022547721863,
                        0.0006617759354412556,
                        0.10748650133609772,
                        -0.28002527356147766,
                        0.40144288539886475,
                        0.026317568495869637,
                        -0.004047874826937914,
                        0.05429907515645027,
                        -0.3661058247089386,
                        0.4384166896343231,
                        -0.08592328429222107,
                        -0.2996087670326233,
                        0.03339255601167679,
                        0.14201396703720093,
                        0.07851086556911469,
                        -0.27837324142456055,
                        0.04005114734172821,
                        -0.7470471262931824,
                        -0.02663852460682392
                    ]
                ],
                [
                    [
                        -0.0969342365860939,
                        0.13148558139801025,
                        -0.04324410855770111,
                        0.3020743429660797,
                        0.121718630194664,
                        0.11986970156431198,
                        0.2503666281700134,
                        -0.5157804489135742,
                        0.30895185470581055,
                        0.042423006147146225,
                        -0.16571271419525146,
                        0.3595835268497467,
                        0.22613810002803802,
                        -0.03738679364323616,
                        0.11946804076433182,
                        0.5028058290481567,
                        -0.06886985898017883,
                        -0.6805731058120728,
                        0.5308340191841125,
                        -0.008648761548101902,
                        -0.11669551581144333,
                        0.040248073637485504,
                        0.2852576971054077,
                        0.303046852350235,
                        -0.07724738121032715,
                        0.13857102394104004,
                        0.060730941593647,
                        0.04112393781542778,
                        0.07464732974767685,
                        0.12502004206180573,
                        -0.609481692314148,
                        0.28466007113456726,
                        -0.7240234017372131,
                        -0.057123713195323944,
                        0.5766326189041138,
                        0.4517931044101715,
                        0.20074163377285004,
                        0.45384371280670166,
                        0.48303356766700745,
                        0.051210369914770126,
                        -0.16048286855220795,
                        -0.002403842518106103,
                        -0.22307799756526947,
                        -0.12958954274654388,
                        0.28481626510620117,
                        0.4284200072288513,
                        -0.08578997850418091,
                        -0.21751771867275238,
                        -0.3914313316345215,
                        -0.17726482450962067,
                        -0.2972669005393982,
                        0.11391638964414597,
                        0.5232805013656616,
                        -0.44012191891670227,
                        0.3251906931400299,
                        -0.15282362699508667,
                        -0.0182502381503582,
                        -0.017248772084712982,
                        -0.2966284155845642,
                        -0.01201707310974598,
                        0.40672534704208374,
                        0.2954851984977722,
                        0.3347425162792206,
                        -0.07873397320508957,
                        0.08784300088882446,
                        -0.19471697509288788,
                        -0.11118372529745102,
                        0.15021701157093048,
                        0.4348367750644684,
                        -0.5266162157058716,
                        0.338434100151062,
                        0.6130364537239075,
                        -0.09851902723312378,
                        -0.024983543902635574,
                        0.11217279732227325,
                        0.25758761167526245,
                        0.045202791690826416,
                        -0.1949726939201355,
                        0.30413341522216797,
                        0.09192225337028503
                    ],
                    [
                        -0.3050486445426941,
                        -0.40227851271629333,
                        -0.45843201875686646,
                        -0.9159679412841797,
                        0.007472988683730364,
                        0.21721741557121277,
                        -0.22431029379367828,
                        0.06790121644735336,
                        0.31098291277885437,
                        -0.012278864160180092,
                        -0.026439568027853966,
                        0.08875545114278793,
                        0.1976909637451172,
                        0.2645968496799469,
                        -0.1295514851808548,
                        -0.2975212037563324,
                        -0.06983309239149094,
                        0.24040274322032928,
                        0.7204657793045044,
                        -0.48256391286849976,
                        0.005815213080495596,
                        0.42847591638565063,
                        -0.49302977323532104,
                        0.4935857057571411,
                        -0.2933608889579773,
                        0.27481305599212646,
                        0.02089628390967846,
                        0.4096943140029907,
                        -0.03356333076953888,
                        0.08793586492538452,
                        -0.38746631145477295,
                        0.15180866420269012,
                        -0.13558779656887054,
                        0.31134456396102905,
                        0.26356956362724304,
                        0.030109405517578125,
                        0.5027512907981873,
                        0.6618699431419373,
                        0.12768805027008057,
                        -0.623076856136322,
                        0.7714675068855286,
                        0.05641362443566322,
                        0.18060670793056488,
                        -0.16692540049552917,
                        0.04430786147713661,
                        -0.12121877819299698,
                        -0.29274293780326843,
                        0.6047778725624084,
                        0.38349759578704834,
                        -1.814683437347412,
                        1.0862370729446411,
                        0.126786008477211,
                        -0.04121653363108635,
                        0.07053051143884659,
                        0.26314777135849,
                        -0.2301112413406372,
                        -0.3586671054363251,
                        0.49194496870040894,
                        2.488715648651123,
                        -0.7234874367713928,
                        -1.3671226501464844,
                        0.9997717142105103,
                        -0.09839300811290741,
                        -0.07148377597332001,
                        0.3522023558616638,
                        0.3475659191608429,
                        0.026832789182662964,
                        0.25748658180236816,
                        0.16129226982593536,
                        -0.794758677482605,
                        -0.14453130960464478,
                        0.24668173491954803,
                        0.20434173941612244,
                        0.3420746326446533,
                        -0.09998205304145813,
                        0.010571395047008991,
                        0.44685330986976624,
                        0.6339755654335022,
                        -0.4323722720146179,
                        -0.12202849984169006
                    ],
                    [
                        0.1219845712184906,
                        -1.264413595199585,
                        -0.25300878286361694,
                        0.8704036474227905,
                        0.6009263396263123,
                        0.6302598714828491,
                        0.0808505192399025,
                        0.5179027915000916,
                        0.21103408932685852,
                        -0.33173105120658875,
                        -0.3665372133255005,
                        -0.3428962528705597,
                        -0.14323961734771729,
                        0.28697144985198975,
                        -0.212412491440773,
                        0.06547951698303223,
                        0.2574138343334198,
                        0.8003224730491638,
                        -0.25130951404571533,
                        -0.26425036787986755,
                        -0.22007226943969727,
                        -0.29258832335472107,
                        -0.6286601424217224,
                        -1.0760807991027832,
                        -0.6359418034553528,
                        -0.9178447723388672,
                        -0.11324464529752731,
                        -0.5575063228607178,
                        0.41071492433547974,
                        0.32562777400016785,
                        -0.18709400296211243,
                        -0.040932927280664444,
                        0.09978597611188889,
                        0.3314708173274994,
                        -0.05878302454948425,
                        -0.170829638838768,
                        -0.5169000029563904,
                        -0.9833486080169678,
                        0.08165019750595093,
                        -0.47328343987464905,
                        -0.15805067121982574,
                        -0.6253077387809753,
                        0.37551650404930115,
                        0.010821879841387272,
                        -0.19383381307125092,
                        0.39967459440231323,
                        -0.012776268646121025,
                        0.013315606862306595,
                        -0.01571943610906601,
                        0.5727511644363403,
                        0.1686774641275406,
                        -0.10648588091135025,
                        0.07995249330997467,
                        -0.13802453875541687,
                        -0.25404489040374756,
                        0.06757833808660507,
                        -0.05275047570466995,
                        -0.1897481381893158,
                        -0.700875997543335,
                        -0.48064595460891724,
                        -0.35855284333229065,
                        -0.5219200849533081,
                        -0.8288065791130066,
                        -0.13493600487709045,
                        -0.10732214152812958,
                        -0.3670101463794708,
                        -0.15609116852283478,
                        -0.24964535236358643,
                        0.0684783086180687,
                        -0.02603999711573124,
                        -0.16725169122219086,
                        -0.2147396355867386,
                        -0.004585449583828449,
                        -0.03404305875301361,
                        -0.20762014389038086,
                        -0.3242240250110626,
                        -0.25241678953170776,
                        -0.04046393185853958,
                        -0.17618146538734436,
                        -0.5517327189445496
                    ],
                    [
                        0.12648709118366241,
                        0.16749811172485352,
                        -0.2263108789920807,
                        0.15992078185081482,
                        -0.43333175778388977,
                        -0.2509384751319885,
                        0.04854849353432655,
                        0.1654900163412094,
                        -0.017551932483911514,
                        0.31840017437934875,
                        -0.09972874075174332,
                        0.257987380027771,
                        0.025838200002908707,
                        0.007357996888458729,
                        0.09009873867034912,
                        -0.16704440116882324,
                        -0.5715249180793762,
                        -0.2181992083787918,
                        0.041452806442976,
                        -1.160780429840088,
                        0.2274630218744278,
                        -0.25088298320770264,
                        0.12639109790325165,
                        0.30365845561027527,
                        0.1799158900976181,
                        0.28247350454330444,
                        0.20958036184310913,
                        -0.5152036547660828,
                        0.21930989623069763,
                        -0.28044241666793823,
                        -0.21340301632881165,
                        0.44219842553138733,
                        0.15374967455863953,
                        0.042768578976392746,
                        -0.230247363448143,
                        -0.06206333264708519,
                        0.13012054562568665,
                        -0.8608142137527466,
                        -0.4172365665435791,
                        -1.1149104833602905,
                        -0.7063859105110168,
                        -0.1760101169347763,
                        -0.2434486746788025,
                        0.35729774832725525,
                        -0.06654667109251022,
                        -0.03009113110601902,
                        0.1826607584953308,
                        0.2494053989648819,
                        -0.00725172646343708,
                        0.5587899684906006,
                        -0.003542794380337,
                        0.46649855375289917,
                        -0.2242828905582428,
                        0.24115560948848724,
                        -0.017764179036021233,
                        0.7312149405479431,
                        -0.131627157330513,
                        -0.44535064697265625,
                        0.3176794946193695,
                        -0.5971683263778687,
                        0.13109250366687775,
                        -0.328391432762146,
                        0.0758059173822403,
                        0.5825474262237549,
                        -0.37499532103538513,
                        -0.22846902906894684,
                        0.17649845778942108,
                        0.37601175904273987,
                        -0.01628635637462139,
                        0.330641508102417,
                        -0.08024421334266663,
                        -0.049373798072338104,
                        0.13801588118076324,
                        0.12484527379274368,
                        -0.1609143763780594,
                        0.06171201542019844,
                        -0.00334758497774601,
                        -0.15342916548252106,
                        1.2010549306869507,
                        0.04418761655688286
                    ],
                    [
                        0.19110366702079773,
                        -0.02997523732483387,
                        -0.2941823899745941,
                        -0.6729719042778015,
                        0.2368658483028412,
                        -0.20307323336601257,
                        0.016475701704621315,
                        -0.21362391114234924,
                        0.003400529036298394,
                        0.0866989940404892,
                        -0.030211150646209717,
                        0.04865138232707977,
                        0.12298165261745453,
                        0.1760309934616089,
                        0.21909558773040771,
                        -0.12492623925209045,
                        -0.22987058758735657,
                        -0.14615501463413239,
                        0.1878814548254013,
                        0.15392552316188812,
                        0.3533570170402527,
                        -0.2907470762729645,
                        0.1924356371164322,
                        0.3796002268791199,
                        0.0679776594042778,
                        0.3207656145095825,
                        0.22591698169708252,
                        -0.000419212767155841,
                        -0.008566751144826412,
                        -0.4647318124771118,
                        0.09379114210605621,
                        0.2929868698120117,
                        -0.148629829287529,
                        -0.0387294664978981,
                        0.18539045751094818,
                        0.020816028118133545,
                        0.13934314250946045,
                        0.4307734966278076,
                        -0.06729797273874283,
                        0.27203238010406494,
                        0.11409302055835724,
                        0.023517943918704987,
                        -0.026469822973012924,
                        -0.08334660530090332,
                        0.2203703224658966,
                        0.8417959213256836,
                        0.9916000962257385,
                        0.012882472947239876,
                        0.32029542326927185,
                        -0.0997505635023117,
                        -0.1199660524725914,
                        0.10368774831295013,
                        0.5103734731674194,
                        0.13685928285121918,
                        -0.07229554653167725,
                        -0.20245037972927094,
                        -0.3384208679199219,
                        0.05079062283039093,
                        -0.12106794118881226,
                        0.22799912095069885,
                        0.14896075427532196,
                        0.15370778739452362,
                        0.03268731012940407,
                        0.1986878663301468,
                        0.980995237827301,
                        0.3054051399230957,
                        0.10200629383325577,
                        0.142011359333992,
                        0.07682651281356812,
                        0.08039029687643051,
                        -0.22695738077163696,
                        0.4273466169834137,
                        0.18118350207805634,
                        0.13681305944919586,
                        -0.15210716426372528,
                        0.12513339519500732,
                        0.17948520183563232,
                        0.06555397808551788,
                        0.17005622386932373,
                        0.020787447690963745
                    ],
                    [
                        -0.11610237509012222,
                        -0.5230010747909546,
                        -0.05190906301140785,
                        0.24486419558525085,
                        -0.7921385765075684,
                        -0.489674836397171,
                        -0.08199288696050644,
                        0.33080899715423584,
                        0.07797598093748093,
                        -0.1043991670012474,
                        -0.20931431651115417,
                        -0.08591237664222717,
                        0.03642039746046066,
                        0.10999643057584763,
                        -0.1382862627506256,
                        -0.1671396791934967,
                        0.17444166541099548,
                        0.2059018760919571,
                        -0.034144338220357895,
                        -0.06913909316062927,
                        -0.10625001788139343,
                        -0.40010732412338257,
                        -0.1304636299610138,
                        0.01856193318963051,
                        -0.5148793458938599,
                        0.127231627702713,
                        0.20941907167434692,
                        -0.06151806190609932,
                        0.0108104282990098,
                        0.1696738600730896,
                        0.07328328490257263,
                        -0.07192543148994446,
                        0.061634428799152374,
                        -0.10290795564651489,
                        -0.2436283677816391,
                        -0.16367201507091522,
                        -0.262947142124176,
                        -0.12260618805885315,
                        0.12160608172416687,
                        0.1014099270105362,
                        -0.12451820075511932,
                        0.14125865697860718,
                        -0.22652985155582428,
                        0.0842275470495224,
                        -0.4447936713695526,
                        0.09820558875799179,
                        -0.35433509945869446,
                        -0.07543163001537323,
                        -0.13555538654327393,
                        0.02184181474149227,
                        -0.10887855291366577,
                        0.09723931550979614,
                        0.4554172456264496,
                        -0.593588650226593,
                        -0.1921461522579193,
                        0.05039680004119873,
                        0.02878659777343273,
                        -0.24816928803920746,
                        0.17053362727165222,
                        -0.08192513138055801,
                        -0.33023306727409363,
                        -0.5009745955467224,
                        -0.21138593554496765,
                        -0.011859315447509289,
                        0.054736342281103134,
                        -0.5246171951293945,
                        -0.21775224804878235,
                        -0.09011311829090118,
                        -0.13863947987556458,
                        0.25270649790763855,
                        -0.09670431911945343,
                        0.3937923014163971,
                        0.11730702221393585,
                        -0.028381673619151115,
                        -0.051880594342947006,
                        -0.35893121361732483,
                        0.14445951581001282,
                        -0.11571268737316132,
                        0.8090975880622864,
                        0.025401843711733818
                    ],
                    [
                        0.17221494019031525,
                        0.2234254777431488,
                        0.002823120215907693,
                        -0.38319501280784607,
                        0.10582778602838516,
                        0.4114643335342407,
                        0.01551194116473198,
                        0.01603703945875168,
                        0.33377084136009216,
                        0.19168682396411896,
                        0.16757886111736298,
                        0.0796467587351799,
                        -0.5378714203834534,
                        -0.3699629604816437,
                        -0.07754717022180557,
                        -0.08460869640111923,
                        0.15989786386489868,
                        -0.09591332823038101,
                        -0.34669938683509827,
                        -0.21454276144504547,
                        0.14300760626792908,
                        0.2346828281879425,
                        0.060019638389348984,
                        -0.8847296833992004,
                        -0.4944150745868683,
                        -0.05351966246962547,
                        0.49080193042755127,
                        -0.11964988708496094,
                        0.11595442146062851,
                        -0.07204215973615646,
                        -0.12870652973651886,
                        -0.6066855192184448,
                        -0.41691461205482483,
                        -0.13538327813148499,
                        -0.12859848141670227,
                        -0.2318020462989807,
                        -0.05337974801659584,
                        0.2181924432516098,
                        0.07487893104553223,
                        0.02844606339931488,
                        -0.10127753019332886,
                        0.04322900250554085,
                        0.14897646009922028,
                        -0.35109496116638184,
                        -0.10582096874713898,
                        0.942438006401062,
                        -0.45447996258735657,
                        0.05428401753306389,
                        0.02907463163137436,
                        0.01626431941986084,
                        -0.0380173958837986,
                        0.5964133143424988,
                        -0.8556118011474609,
                        -0.06635935604572296,
                        -0.026833221316337585,
                        0.2126009464263916,
                        0.2736157178878784,
                        -0.2957536578178406,
                        -0.1795976310968399,
                        0.11499536782503128,
                        0.4715050756931305,
                        -0.49057066440582275,
                        -0.1974259614944458,
                        -0.13297852873802185,
                        -0.30881473422050476,
                        -0.019861968234181404,
                        -0.37039175629615784,
                        -0.13396838307380676,
                        0.19079692661762238,
                        -0.3125787079334259,
                        0.23571273684501648,
                        -0.05937429144978523,
                        0.9256134629249573,
                        0.05734275281429291,
                        -0.25673243403434753,
                        -0.22512026131153107,
                        -0.0446576364338398,
                        -0.14779715240001678,
                        0.2767103314399719,
                        0.09549172967672348
                    ],
                    [
                        0.20102249085903168,
                        0.2928211987018585,
                        -0.07226374745368958,
                        -0.4748155474662781,
                        -0.25508928298950195,
                        -0.24255284667015076,
                        0.10109830647706985,
                        0.0669487863779068,
                        0.5459821820259094,
                        0.34413784742355347,
                        0.0066825952380895615,
                        0.33882007002830505,
                        0.2439500391483307,
                        -0.00799876730889082,
                        -0.0574352964758873,
                        -0.010989198461174965,
                        -0.017523961141705513,
                        -0.4521477520465851,
                        0.31475841999053955,
                        -0.8658283948898315,
                        0.28493887186050415,
                        0.094337597489357,
                        0.11956162005662918,
                        0.653572142124176,
                        0.1289481818675995,
                        0.33018070459365845,
                        0.31199851632118225,
                        0.17709313333034515,
                        0.6212033033370972,
                        0.3410354554653168,
                        0.13414683938026428,
                        -0.045310501009225845,
                        0.024317432194948196,
                        -0.016850022599101067,
                        0.012562820687890053,
                        -0.005540943704545498,
                        0.7058897018432617,
                        0.11047185957431793,
                        0.23707999289035797,
                        -0.6249690055847168,
                        -0.030982600525021553,
                        -0.9614678025245667,
                        -0.3245425522327423,
                        -0.10124383121728897,
                        -0.025956660509109497,
                        -0.020684821531176567,
                        0.23667119443416595,
                        -0.0786648839712143,
                        -0.7577385902404785,
                        0.5818639993667603,
                        -0.33175355195999146,
                        0.18929371237754822,
                        -0.06521867960691452,
                        -0.23363304138183594,
                        -0.03362584114074707,
                        0.2579929828643799,
                        0.10035339742898941,
                        -0.21501897275447845,
                        -0.34202638268470764,
                        0.008006947115063667,
                        0.1391889452934265,
                        -0.5259593725204468,
                        0.03774314001202583,
                        0.627984344959259,
                        -0.1019468680024147,
                        -0.026599174365401268,
                        0.15125934779644012,
                        0.6798807978630066,
                        0.48509925603866577,
                        0.16377317905426025,
                        0.4816630780696869,
                        0.029762500897049904,
                        -0.2510695457458496,
                        0.08566558361053467,
                        -0.5502585172653198,
                        0.1776939183473587,
                        0.2496383935213089,
                        0.23373530805110931,
                        0.5757957696914673,
                        0.3678847849369049
                    ],
                    [
                        -0.26549994945526123,
                        -0.4827256202697754,
                        -0.26496994495391846,
                        0.11194492876529694,
                        -0.0181842353194952,
                        -0.07055344432592392,
                        -0.08366601914167404,
                        0.6244447231292725,
                        -0.05651188641786575,
                        -0.04501710832118988,
                        0.04869282245635986,
                        -0.11728546768426895,
                        0.07712849229574203,
                        -0.06567496061325073,
                        0.18091417849063873,
                        -0.28126370906829834,
                        0.18428878486156464,
                        -0.1040973961353302,
                        0.08420633524656296,
                        -0.12368686497211456,
                        0.18054617941379547,
                        -0.10489790141582489,
                        0.09614818543195724,
                        0.2873179018497467,
                        0.5786182880401611,
                        0.14440080523490906,
                        -0.0016540036303922534,
                        0.2135547399520874,
                        0.17065641283988953,
                        0.17444905638694763,
                        0.7953783869743347,
                        0.25085753202438354,
                        0.49025121331214905,
                        0.06006596237421036,
                        0.5675689578056335,
                        0.17003898322582245,
                        0.2688109278678894,
                        0.1117883175611496,
                        -0.10313275456428528,
                        -0.27699747681617737,
                        -0.022608499974012375,
                        -0.07490439713001251,
                        -0.19960102438926697,
                        0.380750834941864,
                        0.12213800102472305,
                        0.270073801279068,
                        -0.2097145915031433,
                        0.12066614627838135,
                        -0.12376634031534195,
                        -0.15288780629634857,
                        -0.16711996495723724,
                        -0.24648408591747284,
                        0.5377516746520996,
                        -0.20128250122070312,
                        0.2689691185951233,
                        -0.06849752366542816,
                        -0.05578399449586868,
                        0.13533233106136322,
                        0.12264618277549744,
                        -0.13128714263439178,
                        -0.25531473755836487,
                        -0.0031177678611129522,
                        0.1913541853427887,
                        -0.38579222559928894,
                        0.23853281140327454,
                        -0.22386720776557922,
                        0.24152792990207672,
                        0.08397786319255829,
                        0.04567772150039673,
                        0.5185956954956055,
                        -0.2174736112356186,
                        -0.8523849844932556,
                        0.07217791676521301,
                        0.03524770587682724,
                        0.12310145795345306,
                        0.1765008568763733,
                        0.1518033891916275,
                        0.3943849205970764,
                        -0.5664001107215881,
                        -0.04810245707631111
                    ],
                    [
                        -0.2522183060646057,
                        -0.01578238233923912,
                        0.18386822938919067,
                        -0.28927069902420044,
                        0.06645843386650085,
                        0.05413677915930748,
                        -0.10292614251375198,
                        0.8410872220993042,
                        0.15750639140605927,
                        -0.12912851572036743,
                        -0.003259829943999648,
                        -0.2830187678337097,
                        0.16421201825141907,
                        0.02788684330880642,
                        0.014126087538897991,
                        -0.026186643168330193,
                        0.19841663539409637,
                        0.21014171838760376,
                        -0.8353448510169983,
                        -0.2299875169992447,
                        -0.0405326671898365,
                        -0.44018909335136414,
                        -0.37547779083251953,
                        -0.7349485754966736,
                        -0.22457800805568695,
                        -0.35402733087539673,
                        -0.1380571871995926,
                        -1.0063029527664185,
                        0.22013333439826965,
                        0.41511887311935425,
                        -0.1794436275959015,
                        0.27012670040130615,
                        -0.05827808380126953,
                        -0.42676928639411926,
                        -0.060802944004535675,
                        0.0303664393723011,
                        -0.8318853378295898,
                        -0.1482887864112854,
                        -0.4236922860145569,
                        -0.22587034106254578,
                        -0.2730942368507385,
                        -0.22981806099414825,
                        0.24133116006851196,
                        0.06675010919570923,
                        0.027453329414129257,
                        -0.04494320601224899,
                        -0.07670057564973831,
                        -0.6020471453666687,
                        0.35063475370407104,
                        0.4053259491920471,
                        -0.0989273265004158,
                        0.2633771300315857,
                        0.17167994379997253,
                        -0.01706709712743759,
                        0.09234124422073364,
                        -0.2482970505952835,
                        -0.160687655210495,
                        -0.1508740484714508,
                        0.5328222513198853,
                        -0.3842175602912903,
                        0.011474802158772945,
                        -0.561319887638092,
                        -0.1323506236076355,
                        -0.3889928162097931,
                        0.057547230273485184,
                        0.13954325020313263,
                        -0.16567572951316833,
                        -0.6347967386245728,
                        -0.1160387471318245,
                        0.3265901207923889,
                        -0.8465373516082764,
                        0.14662592113018036,
                        -0.0667617917060852,
                        0.07172724604606628,
                        0.1542270928621292,
                        0.032376114279031754,
                        -0.6254820823669434,
                        -0.17893663048744202,
                        -0.8834448456764221,
                        -0.22761763632297516
                    ],
                    [
                        0.1929490715265274,
                        -0.4965397119522095,
                        0.38659119606018066,
                        0.8750240802764893,
                        0.08916093409061432,
                        0.12483809143304825,
                        -0.5696455836296082,
                        0.8924265503883362,
                        0.18155589699745178,
                        -0.24109531939029694,
                        -0.36942538619041443,
                        -0.273296982049942,
                        0.09753012657165527,
                        -0.052987854927778244,
                        -0.22351910173892975,
                        -0.22425583004951477,
                        0.9950453639030457,
                        0.8584575057029724,
                        -0.015989895910024643,
                        0.11463704705238342,
                        0.40493080019950867,
                        -0.09611997753381729,
                        -0.6224205493927002,
                        -0.9017570614814758,
                        0.1671752780675888,
                        0.15793298184871674,
                        -0.17993378639221191,
                        -0.622044026851654,
                        0.21518509089946747,
                        0.582656979560852,
                        0.0881841704249382,
                        -0.3264691233634949,
                        0.03955252096056938,
                        -0.023270202800631523,
                        -0.19774232804775238,
                        -0.29358187317848206,
                        -0.49176403880119324,
                        -0.6722156405448914,
                        -0.1548195332288742,
                        -0.03239280730485916,
                        0.15539342164993286,
                        -0.0040030768141150475,
                        0.22118645906448364,
                        -0.23062904179096222,
                        -0.12754668295383453,
                        -0.24920149147510529,
                        0.027926545590162277,
                        -0.2513490319252014,
                        0.19863684475421906,
                        0.660366952419281,
                        -0.49773311614990234,
                        0.47121119499206543,
                        0.06755038350820541,
                        0.456697940826416,
                        -0.10645930469036102,
                        -0.1397300511598587,
                        0.04622584581375122,
                        -0.055909235030412674,
                        -0.2721206843852997,
                        -0.13660438358783722,
                        -0.5480413436889648,
                        -0.28942394256591797,
                        -0.2997626066207886,
                        -0.15297938883304596,
                        -0.16159771382808685,
                        -0.4591823220252991,
                        -0.02647360973060131,
                        -0.12809428572654724,
                        -0.20401032269001007,
                        -0.1557430922985077,
                        -0.3796784281730652,
                        -0.49324658513069153,
                        -0.06654582172632217,
                        0.15813399851322174,
                        -0.1438267081975937,
                        -0.16168707609176636,
                        -0.5237537026405334,
                        -0.526770293712616,
                        -0.9545202255249023,
                        -0.3995952904224396
                    ],
                    [
                        -0.03417908772826195,
                        0.44390514492988586,
                        0.12974223494529724,
                        -0.3941587507724762,
                        0.08455470949411392,
                        0.04402073845267296,
                        -0.3307958245277405,
                        0.06805478781461716,
                        0.16698835790157318,
                        0.2010217159986496,
                        0.35025250911712646,
                        -0.09875797480344772,
                        -0.5628239512443542,
                        0.1518530249595642,
                        -0.13679365813732147,
                        -0.09286308288574219,
                        -0.10207322239875793,
                        0.3825210928916931,
                        -0.16406123340129852,
                        0.07032425701618195,
                        0.3776739537715912,
                        0.20305374264717102,
                        0.05943163484334946,
                        -0.3424355983734131,
                        -0.13613802194595337,
                        0.7138673067092896,
                        -0.3732975423336029,
                        -0.06917194277048111,
                        -0.13560643792152405,
                        0.07805952429771423,
                        -0.059694334864616394,
                        -0.016865484416484833,
                        -0.7173798084259033,
                        0.4093879759311676,
                        -0.31244510412216187,
                        0.05014027655124664,
                        0.2515534460544586,
                        0.10280801355838776,
                        0.3540197014808655,
                        -0.14645281434059143,
                        0.1544584184885025,
                        0.09815714508295059,
                        0.02083822339773178,
                        -0.3695259690284729,
                        -0.08105778694152832,
                        -0.13951879739761353,
                        -0.1521374136209488,
                        -0.3608565032482147,
                        0.11865387111902237,
                        -0.1338880956172943,
                        0.013066357932984829,
                        1.6261652708053589,
                        1.2824729681015015,
                        1.736973524093628,
                        0.2547288239002228,
                        0.29022595286369324,
                        0.171189546585083,
                        0.39776909351348877,
                        -0.3141632080078125,
                        -0.04061075672507286,
                        0.04644479230046272,
                        0.11072957515716553,
                        -0.06876855343580246,
                        -0.11347582936286926,
                        0.23329412937164307,
                        0.49978235363960266,
                        -0.18594646453857422,
                        -0.043134745210409164,
                        0.025823170319199562,
                        -0.48581597208976746,
                        0.253906786441803,
                        0.23356696963310242,
                        0.4759487509727478,
                        0.1037316620349884,
                        -0.09798714518547058,
                        -0.07096163928508759,
                        0.050432514399290085,
                        0.11416859924793243,
                        -0.7221391797065735,
                        -0.14553876221179962
                    ],
                    [
                        -0.29649248719215393,
                        -0.3722005784511566,
                        -0.06405002623796463,
                        0.4977862536907196,
                        -0.2637774646282196,
                        -0.08108385652303696,
                        -0.4160759747028351,
                        0.166119784116745,
                        0.32372862100601196,
                        0.0922318547964096,
                        0.1846027672290802,
                        -0.047604627907276154,
                        -0.42750978469848633,
                        0.6887970566749573,
                        -0.051568131893873215,
                        -0.06928542256355286,
                        0.02425450086593628,
                        -0.0914701297879219,
                        -0.4862525761127472,
                        0.1459093689918518,
                        -0.15812404453754425,
                        -0.22492364048957825,
                        -0.08900698274374008,
                        -0.29630762338638306,
                        -0.48177099227905273,
                        0.7194182276725769,
                        0.06571149080991745,
                        0.10347332805395126,
                        -0.00987863726913929,
                        0.029965998604893684,
                        -0.2621450126171112,
                        0.02713223546743393,
                        -0.2852303385734558,
                        0.7811371684074402,
                        -0.07986901700496674,
                        0.0493914820253849,
                        -0.05239039286971092,
                        -0.06763279438018799,
                        -0.10024034231901169,
                        0.18975411355495453,
                        -0.15220928192138672,
                        -0.07499997317790985,
                        -0.00991086009889841,
                        0.3424266576766968,
                        -0.3952367901802063,
                        -0.7191871404647827,
                        0.7047721147537231,
                        -0.0018970067612826824,
                        -0.3454788029193878,
                        -0.05823170021176338,
                        -0.09882652759552002,
                        -0.5310518741607666,
                        0.15255732834339142,
                        0.27588963508605957,
                        0.22995740175247192,
                        -0.5103475451469421,
                        -0.4216325581073761,
                        -0.09453851729631424,
                        0.18844974040985107,
                        0.20185571908950806,
                        -0.5698807835578918,
                        -0.0009843821171671152,
                        0.18714332580566406,
                        0.07316393405199051,
                        -0.42019620537757874,
                        0.2031901776790619,
                        -0.13569727540016174,
                        -0.11385564506053925,
                        -0.08267129957675934,
                        0.08844649791717529,
                        0.2204505205154419,
                        0.16342498362064362,
                        -0.15355780720710754,
                        0.5861550569534302,
                        0.06412331014871597,
                        -0.22237981855869293,
                        -0.11354251950979233,
                        -0.07702475041151047,
                        0.20449811220169067,
                        -0.1998579353094101
                    ],
                    [
                        0.09890437871217728,
                        0.2849957048892975,
                        0.16550414264202118,
                        0.17732781171798706,
                        0.21765893697738647,
                        0.04066769778728485,
                        0.39006322622299194,
                        -0.08138346672058105,
                        -0.11807359009981155,
                        -0.0421190969645977,
                        -0.25895485281944275,
                        -0.224320188164711,
                        -0.12152569741010666,
                        -0.11384053528308868,
                        -0.0049753556959331036,
                        -0.18213623762130737,
                        -0.3895723819732666,
                        0.0657040998339653,
                        -0.4258774220943451,
                        -0.07600260525941849,
                        -0.34416747093200684,
                        0.04724577069282532,
                        -0.023693036288022995,
                        -0.34101563692092896,
                        0.4426293969154358,
                        0.15467850863933563,
                        7.18255978426896e-05,
                        0.006317013408988714,
                        -0.430877685546875,
                        0.03668931499123573,
                        -0.38130223751068115,
                        0.45267751812934875,
                        -0.06495717167854309,
                        -0.06115242466330528,
                        -0.09384099394083023,
                        -0.13872680068016052,
                        0.05181536823511124,
                        -0.26217272877693176,
                        -0.25320354104042053,
                        -0.08148130029439926,
                        -0.016871439293026924,
                        -0.0016430056421086192,
                        -0.11302116513252258,
                        -0.012533283792436123,
                        -0.07119391113519669,
                        0.6321857571601868,
                        -0.4390373229980469,
                        0.032780971378088,
                        0.11456727236509323,
                        -0.20510166883468628,
                        0.2628057301044464,
                        0.033119913190603256,
                        0.5103268623352051,
                        0.4407462179660797,
                        0.08116525411605835,
                        0.24259474873542786,
                        0.18206138908863068,
                        0.0884777083992958,
                        -0.0018627883400768042,
                        0.05815429240465164,
                        -0.16296420991420746,
                        -0.08575642108917236,
                        -0.21249696612358093,
                        0.03194965049624443,
                        0.4513673484325409,
                        0.06957733631134033,
                        0.5025997757911682,
                        0.08448101580142975,
                        -0.42960888147354126,
                        0.2081311196088791,
                        -0.28471124172210693,
                        -0.6706415414810181,
                        -0.5219770073890686,
                        0.05746091529726982,
                        0.01199983898550272,
                        -0.26397189497947693,
                        -0.2377936840057373,
                        -0.15981769561767578,
                        0.7912235856056213,
                        0.01954003982245922
                    ],
                    [
                        -0.23240599036216736,
                        0.7714170217514038,
                        0.10911212116479874,
                        -0.7613510489463806,
                        -0.536116898059845,
                        -0.4149608314037323,
                        -0.040473438799381256,
                        -0.41720137000083923,
                        -0.013554349541664124,
                        0.21812093257904053,
                        0.18021169304847717,
                        0.22266831994056702,
                        0.14308764040470123,
                        -0.07668157666921616,
                        0.1301085501909256,
                        -0.08868561685085297,
                        -0.4395243525505066,
                        -0.6649588346481323,
                        0.11034806072711945,
                        0.123866505920887,
                        0.03534058853983879,
                        0.26877349615097046,
                        0.3938482105731964,
                        0.7093332409858704,
                        0.4921320378780365,
                        0.6431279182434082,
                        0.17914454638957977,
                        0.33266472816467285,
                        -0.1067037433385849,
                        -0.1806761473417282,
                        0.13534440100193024,
                        0.16807995736598969,
                        0.06494341045618057,
                        0.05385732650756836,
                        -0.02705734223127365,
                        0.12289415299892426,
                        0.3684272766113281,
                        0.7193147540092468,
                        -0.05156071484088898,
                        0.23590785264968872,
                        0.0771404281258583,
                        0.4524158835411072,
                        -0.2867679297924042,
                        -0.2677052319049835,
                        0.17405253648757935,
                        -0.29249709844589233,
                        -0.037841275334358215,
                        0.2726668417453766,
                        -0.020940415561199188,
                        -0.5008148550987244,
                        -0.14212946593761444,
                        0.20236405730247498,
                        0.11536194384098053,
                        0.04502040892839432,
                        -0.056237462908029556,
                        -0.3596702814102173,
                        -0.10372614115476608,
                        0.3699416220188141,
                        -0.13474807143211365,
                        0.11350055038928986,
                        -0.03856651857495308,
                        0.5726358294487,
                        0.5633540153503418,
                        0.08059641718864441,
                        0.18926669657230377,
                        0.04629122093319893,
                        0.17632220685482025,
                        0.2577187418937683,
                        0.04491080716252327,
                        0.13747583329677582,
                        0.1453133523464203,
                        -0.007300285156816244,
                        0.19781987369060516,
                        0.0808456540107727,
                        0.3107065260410309,
                        0.22293251752853394,
                        0.15319310128688812,
                        -0.1290147304534912,
                        0.2692544162273407,
                        0.2737770974636078
                    ],
                    [
                        0.3425963819026947,
                        0.2960279881954193,
                        0.09533468633890152,
                        -1.4457677602767944,
                        -0.019615964964032173,
                        -0.04971402511000633,
                        -0.05353456735610962,
                        0.3833175003528595,
                        0.18800297379493713,
                        0.11174716800451279,
                        0.2653529644012451,
                        0.011186438612639904,
                        0.07802711427211761,
                        0.10681119561195374,
                        -0.2063063383102417,
                        0.14036034047603607,
                        0.3231359124183655,
                        0.10309518873691559,
                        0.11647584289312363,
                        -0.07749642431735992,
                        -0.12047968804836273,
                        0.16516345739364624,
                        -0.05781268700957298,
                        0.7176940441131592,
                        0.18203933537006378,
                        0.3995075225830078,
                        0.03640393540263176,
                        -0.1630014032125473,
                        -0.05382302775979042,
                        -0.4750688076019287,
                        -0.3841537535190582,
                        -0.3899332880973816,
                        -0.3944072127342224,
                        -0.4035491347312927,
                        -0.4877525269985199,
                        -0.09176934510469437,
                        -0.19317299127578735,
                        0.5146891474723816,
                        -0.5598406791687012,
                        -0.17179612815380096,
                        -0.08740271627902985,
                        -0.020725930109620094,
                        0.4067261517047882,
                        -0.24394185841083527,
                        0.2658677101135254,
                        0.0002804759133141488,
                        -0.17937861382961273,
                        0.04340828210115433,
                        -0.5595343708992004,
                        0.1974969208240509,
                        -0.04784775525331497,
                        1.4190601110458374,
                        0.5069441795349121,
                        -0.5566617250442505,
                        -0.1440981775522232,
                        -0.06086650490760803,
                        0.038592755794525146,
                        0.04334838315844536,
                        -0.1284121423959732,
                        -0.5063561201095581,
                        0.1508776992559433,
                        -0.29264482855796814,
                        -0.07331722229719162,
                        0.06840012967586517,
                        0.3074478209018707,
                        0.10238423198461533,
                        -0.5203584432601929,
                        0.12352683395147324,
                        0.14112308621406555,
                        0.17466525733470917,
                        0.3153536319732666,
                        0.336054265499115,
                        -0.05329837650060654,
                        -0.17242760956287384,
                        0.20046022534370422,
                        -0.1864529252052307,
                        -0.3315938711166382,
                        -0.11435307562351227,
                        0.842248260974884,
                        0.11169271916151047
                    ],
                    [
                        -0.398207426071167,
                        1.8326492309570312,
                        0.8454740047454834,
                        -0.8763242363929749,
                        -0.0338507816195488,
                        0.12823748588562012,
                        -0.24927875399589539,
                        -0.5719987750053406,
                        -0.3062583804130554,
                        -0.20629426836967468,
                        0.22791072726249695,
                        -0.38208046555519104,
                        -0.335258811712265,
                        0.17189842462539673,
                        0.02901715599000454,
                        -0.45040184259414673,
                        -0.2785090208053589,
                        -0.21154449880123138,
                        -0.20836110413074493,
                        0.0673149973154068,
                        -0.14960290491580963,
                        0.7903342247009277,
                        0.7388980984687805,
                        0.2719758152961731,
                        0.15545456111431122,
                        0.051967594772577286,
                        -0.0022287238389253616,
                        0.24301116168498993,
                        -0.24326983094215393,
                        -0.5674146413803101,
                        0.09749948233366013,
                        -0.11866457015275955,
                        -0.07189330458641052,
                        -0.024259448051452637,
                        -0.2246175855398178,
                        -0.5189757943153381,
                        -0.03264931961894035,
                        0.7327624559402466,
                        0.3867247700691223,
                        0.161505788564682,
                        -0.16627264022827148,
                        0.22442829608917236,
                        -0.20879778265953064,
                        -0.16696690022945404,
                        0.16708806157112122,
                        -0.1193312332034111,
                        -0.030142713338136673,
                        0.20530109107494354,
                        -0.5063580870628357,
                        -0.3168007731437683,
                        -0.07436380535364151,
                        0.29569941759109497,
                        0.6394968628883362,
                        0.055424440652132034,
                        0.10432858765125275,
                        -0.3357895314693451,
                        -0.24683021008968353,
                        0.0328221321105957,
                        0.6350733637809753,
                        0.23088066279888153,
                        -0.07582632452249527,
                        0.7151530385017395,
                        0.4165476858615875,
                        0.1585577130317688,
                        0.10009343177080154,
                        0.31119009852409363,
                        -0.16593037545681,
                        -0.23429661989212036,
                        -0.4125038981437683,
                        -0.2186814695596695,
                        -0.2679099142551422,
                        0.38945919275283813,
                        0.03507579490542412,
                        -0.0188725758343935,
                        0.4559783339500427,
                        -0.4329252541065216,
                        -0.5166136026382446,
                        -0.4137992560863495,
                        0.9963364601135254,
                        0.04483714699745178
                    ],
                    [
                        -0.2303396761417389,
                        -0.875821053981781,
                        -0.27227678894996643,
                        -0.08130592852830887,
                        -0.3859712779521942,
                        -0.2954651713371277,
                        0.07113930583000183,
                        -0.10085555911064148,
                        0.14423072338104248,
                        0.25137537717819214,
                        0.03663767874240875,
                        0.27338165044784546,
                        0.20856235921382904,
                        -0.126204714179039,
                        0.11494351923465729,
                        0.15975308418273926,
                        -0.3331316411495209,
                        -0.001589044462889433,
                        0.25545793771743774,
                        0.4619385302066803,
                        0.024320095777511597,
                        -0.2970879077911377,
                        -0.17627936601638794,
                        0.5083602070808411,
                        0.35561949014663696,
                        0.5631107687950134,
                        0.2761770784854889,
                        0.4365340769290924,
                        -0.06703382730484009,
                        -0.015506540425121784,
                        -0.07465160638093948,
                        0.09424646198749542,
                        0.02540488727390766,
                        0.08707879483699799,
                        0.3810866177082062,
                        0.38466906547546387,
                        0.19089889526367188,
                        0.08137533813714981,
                        -0.03502391278743744,
                        0.526157557964325,
                        0.31356626749038696,
                        -0.9235574007034302,
                        0.05089090019464493,
                        0.2841438055038452,
                        0.24465684592723846,
                        -0.03919592127203941,
                        -0.6403692364692688,
                        0.21652327477931976,
                        0.22852176427841187,
                        -0.11483555287122726,
                        0.3208443820476532,
                        -0.5994448661804199,
                        0.20200686156749725,
                        -0.7104954123497009,
                        0.5158694982528687,
                        -0.2405182272195816,
                        -0.8029052019119263,
                        0.32604140043258667,
                        -2.0347018241882324,
                        0.4656200110912323,
                        -0.05404309555888176,
                        0.2292487770318985,
                        0.15449538826942444,
                        -0.03560792654752731,
                        0.20978006720542908,
                        0.20498612523078918,
                        0.20573630928993225,
                        0.2516145706176758,
                        0.2638254463672638,
                        0.12154725193977356,
                        0.06549830734729767,
                        -0.3432374894618988,
                        -0.11874821782112122,
                        0.06430515646934509,
                        0.0999363586306572,
                        0.39081132411956787,
                        0.16636265814304352,
                        0.6302635669708252,
                        -0.09544600546360016,
                        0.2735440731048584
                    ],
                    [
                        -0.06393681466579437,
                        0.7794042825698853,
                        0.5008225440979004,
                        -0.02286205254495144,
                        -0.13367924094200134,
                        0.035753753036260605,
                        0.17901064455509186,
                        -0.058264706283807755,
                        0.2039949595928192,
                        -0.15808361768722534,
                        0.3789883553981781,
                        -0.08425924181938171,
                        -0.2914141118526459,
                        -0.09317263960838318,
                        -0.0631362646818161,
                        -0.11360590904951096,
                        -0.3342618942260742,
                        0.4782778322696686,
                        0.2359222173690796,
                        0.25477319955825806,
                        0.3988029360771179,
                        -0.08536824584007263,
                        -0.14604942500591278,
                        -0.17873123288154602,
                        -0.200224369764328,
                        0.27091148495674133,
                        -0.07443121820688248,
                        -0.20449264347553253,
                        0.015298661775887012,
                        0.08792905509471893,
                        -0.08874395489692688,
                        -0.4478476643562317,
                        -0.022425085306167603,
                        0.07623083144426346,
                        -0.053755663335323334,
                        0.22916695475578308,
                        0.18339477479457855,
                        1.3963123559951782,
                        0.9368804693222046,
                        -0.5973721742630005,
                        0.022852446883916855,
                        -0.058669961988925934,
                        0.2594805061817169,
                        -1.154358148574829,
                        0.003199796425178647,
                        0.004233267158269882,
                        -0.1345268040895462,
                        -0.22396321594715118,
                        -0.2812776565551758,
                        -1.6830450296401978,
                        1.1363974809646606,
                        3.339331865310669,
                        -0.24993330240249634,
                        -0.35460641980171204,
                        0.1128770112991333,
                        0.2720341980457306,
                        -0.2058362364768982,
                        0.942064642906189,
                        0.5397534966468811,
                        0.17485259473323822,
                        -0.11630871146917343,
                        1.1287518739700317,
                        0.052416231483221054,
                        -0.4072689116001129,
                        0.30147114396095276,
                        0.5782665014266968,
                        0.25747936964035034,
                        0.052700065076351166,
                        -0.04628879949450493,
                        -1.4558755159378052,
                        -0.18377970159053802,
                        -0.32124724984169006,
                        0.18994878232479095,
                        0.4691948890686035,
                        0.20017974078655243,
                        -0.05472508445382118,
                        -0.3877084255218506,
                        0.0063676293939352036,
                        -1.0279655456542969,
                        -0.1287440061569214
                    ],
                    [
                        -0.2318657487630844,
                        0.3521725833415985,
                        -0.17132997512817383,
                        -0.8670863509178162,
                        -0.6665000319480896,
                        -0.7490143775939941,
                        -0.009052515961229801,
                        -0.736158549785614,
                        -0.17637629806995392,
                        0.3597729206085205,
                        0.24210470914840698,
                        0.3074236810207367,
                        0.21229922771453857,
                        -0.12207380682229996,
                        0.2180503010749817,
                        -0.01023039035499096,
                        -0.45614925026893616,
                        -0.3829464614391327,
                        0.2994113862514496,
                        0.37843552231788635,
                        0.2859366238117218,
                        -0.14123275876045227,
                        0.051423441618680954,
                        1.2701870203018188,
                        0.5377428531646729,
                        1.0201245546340942,
                        0.20134010910987854,
                        0.8130977749824524,
                        -0.19982732832431793,
                        -0.09926419705152512,
                        0.27321675419807434,
                        -0.006332981400191784,
                        0.30080926418304443,
                        -0.05653752386569977,
                        0.15082822740077972,
                        0.20790210366249084,
                        0.4235585331916809,
                        1.0987186431884766,
                        -0.07556253671646118,
                        0.5819631814956665,
                        0.28003939986228943,
                        0.09818428009748459,
                        -0.05043714493513107,
                        -0.311242014169693,
                        -0.16302500665187836,
                        0.13644419610500336,
                        -0.28420308232307434,
                        -0.24800091981887817,
                        0.09921851754188538,
                        -0.5437745451927185,
                        -0.2206193506717682,
                        -0.04569438099861145,
                        0.10060026496648788,
                        -0.19823303818702698,
                        0.2924225926399231,
                        -0.3163149654865265,
                        0.11729501932859421,
                        0.061987556517124176,
                        0.15682518482208252,
                        0.5049813389778137,
                        0.34302979707717896,
                        0.5869336724281311,
                        0.5068756341934204,
                        -0.06861557811498642,
                        0.5942338705062866,
                        0.3772549033164978,
                        0.1254688948392868,
                        0.26507818698883057,
                        0.027775028720498085,
                        0.1165352389216423,
                        0.09941337257623672,
                        0.08878268301486969,
                        0.12458346039056778,
                        0.08265835046768188,
                        0.26358762383461,
                        0.2903140187263489,
                        0.4312250018119812,
                        0.5931304097175598,
                        0.18729257583618164,
                        0.5845714211463928
                    ]
                ],
                [
                    -0.4392430782318115,
                    1.240999698638916,
                    0.2506842017173767,
                    -1.6509617567062378,
                    -1.827048420906067,
                    -2.210409641265869,
                    -0.10000091046094894,
                    -1.1976675987243652,
                    0.1388838291168213,
                    0.7780734300613403,
                    0.45101237297058105,
                    0.7027174830436707,
                    0.12084969878196716,
                    -0.03263431042432785,
                    0.3884102702140808,
                    -0.2009773850440979,
                    -0.5328245162963867,
                    -1.3607715368270874,
                    0.4194085896015167,
                    0.664130449295044,
                    0.6203757524490356,
                    0.21007919311523438,
                    1.2305667400360107,
                    2.496335506439209,
                    2.1041741371154785,
                    2.7543067932128906,
                    0.7853870987892151,
                    1.6771681308746338,
                    -0.04130078852176666,
                    -0.15466207265853882,
                    0.41009610891342163,
                    0.031578704714775085,
                    0.014668110758066177,
                    0.06789414584636688,
                    0.22121897339820862,
                    0.11753501743078232,
                    0.9422324299812317,
                    2.2970476150512695,
                    -0.3158755302429199,
                    1.006575345993042,
                    -0.36121872067451477,
                    0.8780522346496582,
                    -0.707622766494751,
                    0.12945710122585297,
                    -0.02918582409620285,
                    -0.17543324828147888,
                    -0.2477005422115326,
                    0.314006507396698,
                    0.27134737372398376,
                    0.048904456198215485,
                    -0.27902841567993164,
                    0.06297697126865387,
                    0.21823982894420624,
                    -0.31980836391448975,
                    0.49829941987991333,
                    -0.18536679446697235,
                    0.2445681095123291,
                    0.3043220043182373,
                    1.4190460443496704,
                    0.3025689721107483,
                    0.14662103354930878,
                    0.7442503571510315,
                    1.5701162815093994,
                    0.4298939108848572,
                    -0.2934320569038391,
                    0.022421814501285553,
                    0.41997790336608887,
                    0.5667026042938232,
                    0.2794841527938843,
                    0.8004241585731506,
                    0.299575537443161,
                    0.0024218254256993532,
                    0.1651938110589981,
                    0.25136128067970276,
                    0.9580829739570618,
                    0.5057429075241089,
                    0.7741681337356567,
                    0.4779828190803528,
                    0.9998268485069275,
                    1.2799673080444336
                ]
            ]
        },
        {
            "type": "dense",
            "activation": "",
            "shape": [
                null,
                null,
                1
            ],
            "weights": [
                [
                    [
                        -0.2974556088447571
                    ],
                    [
                        0.0027161480393260717
                    ],
                    [
                        -0.1476878970861435
                    ],
                    [
                        0.027920614928007126
                    ],
                    [
                        -0.4998471140861511
                    ],
                    [
                        0.587847113609314
                    ],
                    [
                        -0.9379070997238159
                    ],
                    [
                        0.1408119797706604
                    ],
                    [
                        -0.3557708263397217
                    ],
                    [
                        -0.02005794644355774
                    ],
                    [
                        -0.031620755791664124
                    ],
                    [
                        0.005453780293464661
                    ],
                    [
                        1.0548865795135498
                    ],
                    [
                        -0.5946379899978638
                    ],
                    [
                        0.06481984257698059
                    ],
                    [
                        -0.15148630738258362
                    ],
                    [
                        0.023450253531336784
                    ],
                    [
                        -0.1569497287273407
                    ],
                    [
                        -0.019425271078944206
                    ],
                    [
                        -0.07878581434488297
                    ]
                ],
                [
                    0.3754138648509979
                ]
            ]
        }
    ],
    "metadata": {
        "name": "SYN_PLEXI_6L6_AP-1B-BOOST_HVY",
        "samplerate": "48000",
        "source": "original",
        "style": "mid-gain",
        "based": "plexi tube pre into 6L6",
        "author": "DavidA-Overdriven.fr",
        "dataset": "custom",
        "license": "CC BY-NC-ND 4.0",
        "esr": 0.0481
    }
}