{"version": "0.5.1", "metadata": {"date": {"year": 2023, "month": 5, "day": 1, "hour": 15, "minute": 53, "second": 52}, "loudness": -13.061086654663086, "gain": 0.8379804079191556, "name": null, "modeled_by": null, "gear_type": null, "gear_make": null, "gear_model": null, "tone_type": null}, "architecture": "WaveNet", "config": {"layers": [{"input_size": 1, "condition_size": 1, "head_size": 8, "channels": 16, "kernel_size": 3, "dilations": [1, 2, 4, 8, 16, 32, 64, 128, 256, 512], "activation": "Tanh", "gated": false, "head_bias": false}, {"input_size": 16, "condition_size": 1, "head_size": 1, "channels": 8, "kernel_size": 3, "dilations": [1, 2, 4, 8, 16, 32, 64, 128, 256, 512], "activation": "Tanh", "gated": false, "head_bias": true}], "head": null, "head_scale": 0.02}, "weights": [0.004012536257505417, 0.4522566497325897, -1.0672271251678467, -0.7428082227706909, -0.4090147018432617, 0.3399737775325775, -0.01623915135860443, 0.8517756462097168, -0.09282732009887695, 0.24212679266929626, -0.3975685238838196, -0.16951125860214233, -0.9774850010871887, -0.6542271375656128, -0.5200690031051636, 0.013759301044046879, 0.18055538833141327, 0.35626667737960815, -0.23549430072307587, -0.21351133286952972, -0.21506367623806, 0.25475141406059265, 0.13430793583393097, 0.38481542468070984, -0.16416709125041962, 0.1741078495979309, 0.4052428603172302, -0.27026188373565674, 0.06380212306976318, 0.22840389609336853, -0.1948271542787552, -0.020058853551745415, -0.3575589060783386, 0.08972880989313126, -0.001247169217094779, 0.09419222176074982, -0.26668593287467957, -0.036579180508852005, -0.2114018201828003, 0.20865140855312347, 0.12077832967042923, 0.17505191266536713, -0.15220361948013306, -0.2781456708908081, -0.36996492743492126, 0.07447007298469543, 0.2408280074596405, 0.3532721996307373, -0.21619899570941925, 0.13345550000667572, 0.351619154214859, -0.010724627412855625, 0.2175113707780838, 0.29539963603019714, -0.03885982930660248, 0.07191620022058487, 0.30079299211502075, -0.24807868897914886, 0.058097418397665024, 0.20350919663906097, -0.07809416204690933, 0.015962380915880203, -0.1589997559785843, -0.05488254874944687, -0.02326066978275776, 0.0287641528993845, 0.020374180749058723, 0.06783401221036911, -0.018874958157539368, 0.044131044298410416, -0.14121150970458984, 0.06362896412611008, 0.15729022026062012, 0.0895455852150917, 0.24123546481132507, 0.2263617068529129, -0.008462777361273766, -0.01893325336277485, 0.10887341946363449, -0.047299791127443314, -0.23607487976551056, 0.04469422996044159, 0.005380625836551189, -0.09081034362316132, 0.01926163025200367, 0.004633364733308554, -0.13995014131069183, -0.1659500002861023, -0.018480433151125908, -0.0060622855089604855, 0.09080647677183151, 0.11690530180931091, -0.002010834403336048, -0.022834831848740578, -0.18328334391117096, 0.010576732456684113, 0.15832430124282837, -0.02028757520020008, -0.011759478598833084, -0.008455626666545868, 0.10743018984794617, 0.21390770375728607, 0.03800642490386963, -0.06783002614974976, -0.02393701672554016, 0.09579010307788849, -0.14648424088954926, 0.00318010151386261, 0.08402375131845474, -0.01984710805118084, -0.152374729514122, 0.026083573698997498, 0.03543204814195633, -0.06817002594470978, 0.1573714315891266, -0.20668382942676544, 0.21618197858333588, -0.0006697441567666829, 0.10252292454242706, -0.23045788705348969, 0.05921950191259384, 0.08979786187410355, -0.33103618025779724, 0.07198557257652283, -0.04966260492801666, -0.3381804823875427, -0.03082534857094288, -0.1655549854040146, 0.1967376321554184, -0.14059153199195862, 0.08876712620258331, -0.18318264186382294, -0.021136580035090446, -0.08825494349002838, 0.36451423168182373, -0.019063303247094154, 0.1309935301542282, -0.22834114730358124, 0.10437458753585815, -0.003500817809253931, 0.3829895853996277, 0.06179884076118469, 0.22959868609905243, -0.2610614001750946, -0.11007220298051834, 0.03223761171102524, -0.14561143517494202, 0.02661021053791046, 0.007942071184515953, -0.3724695146083832, -0.13293953239917755, -0.03857848048210144, -0.28746408224105835, 0.08386677503585815, 0.16632556915283203, -0.4014587700366974, 0.1023133397102356, -0.09962479025125504, 0.002787539502605796, -0.1684010624885559, -0.07385033369064331, 0.026119042187929153, -0.12793254852294922, -0.11426342278718948, -0.10976585000753403, -0.043152790516614914, -0.07064707577228546, 0.15143318474292755, -0.07771249860525131, -0.01501103863120079, 0.2227511703968048, -0.00834975577890873, 0.11465561389923096, 0.13707847893238068, -0.08413016051054001, 0.1070476695895195, -0.09673929959535599, -0.09710793197154999, 0.051711928099393845, -0.059874504804611206, -0.01323734875768423, -0.026025263592600822, 0.0077461982145905495, -0.00964333489537239, 0.022746587172150612, 0.11157741397619247, -0.049792561680078506, -0.010553878732025623, -0.20437712967395782, 0.05267322435975075, 0.10186847299337387, 0.18254102766513824, -0.06563275307416916, -0.01932276040315628, -0.01946670189499855, -0.05182712525129318, -0.08775604516267776, 0.1455971747636795, -0.034319180995225906, -0.010280830785632133, 0.09859264642000198, 0.1418588012456894, -0.12141348421573639, -0.002639573533087969, -0.04042632505297661, 0.02543138898909092, -0.11673656851053238, 0.13804186880588531, -0.004636682104319334, 0.0351857952773571, -0.07888045907020569, 0.08654479682445526, 0.024986058473587036, 0.059539128094911575, -0.12614373862743378, 0.005395079497247934, -0.21356873214244843, -0.19663037359714508, 0.10417332500219345, -0.21409784257411957, -0.128935307264328, 0.13709206879138947, -0.04608052596449852, 0.10948126018047333, -0.12903045117855072, 0.1495242565870285, -0.12773054838180542, 0.025224069133400917, -0.02987227961421013, 0.1009964719414711, 0.014669042080640793, 0.21661174297332764, -0.05424218997359276, 0.15166375041007996, 0.05080335587263107, 0.015084641054272652, 0.06819690018892288, -0.02540944702923298, -0.17137429118156433, 0.04162845388054848, -0.035902563482522964, 0.009976010769605637, -0.04104097560048103, -0.07195258885622025, -0.04813477024435997, -0.1530652940273285, 0.005845548585057259, -0.23737812042236328, -0.00796072743833065, -0.11969613283872604, -0.19387593865394592, 0.00682901730760932, 0.025949627161026, -0.08784907311201096, -0.11560127884149551, -0.0072125839069485664, -0.0559917576611042, 0.01326434500515461, -0.057325299829244614, -0.13009706139564514, 0.003232622519135475, 0.13154157996177673, 0.10579466819763184, 0.014613398350775242, -0.0007180118700489402, -0.018521558493375778, -0.1346268355846405, -0.009084467776119709, 0.15512660145759583, -0.04695175588130951, -0.1194663941860199, -0.11144232004880905, -0.05795782431960106, 0.06533730030059814, 0.01022340264171362, -0.18377342820167542, 0.17079149186611176, -0.12275829166173935, 0.07761413604021072, 0.0929337590932846, 0.08441438525915146, -0.15049004554748535, -0.09475531429052353, 0.06888501346111298, 0.10527032613754272, 0.14369982481002808, -0.007493520621210337, -0.038956113159656525, -0.06973833590745926, 0.0455898717045784, -0.16778214275836945, 0.02373112551867962, 0.0738469585776329, -0.09773183614015579, -0.08572119474411011, -0.057464078068733215, 0.008154290728271008, -0.15868839621543884, 0.0964626669883728, -0.14344437420368195, -0.11193349212408066, 0.0171794556081295, -0.11324582248926163, -0.04833913594484329, 0.07310038059949875, -0.3555150032043457, 0.22873137891292572, 0.061891019344329834, 0.3579420745372772, -0.1908121556043625, -0.12630656361579895, -0.3371288478374481, 0.22717897593975067, -0.058537960052490234, -0.25467273592948914, 0.2693387269973755, -0.07641665637493134, -0.3035704493522644, 0.2338927686214447, 0.0005887969746254385, 0.3058798015117645, -0.17494183778762817, -0.06790579110383987, -0.23777158558368683, 0.32920366525650024, 0.1361008584499359, 0.3943368196487427, -0.15619201958179474, 0.11954982578754425, -0.3262759745121002, 0.11926072090864182, -0.13814324140548706, 0.4348050057888031, -0.10658183693885803, -0.09211897850036621, -0.2407544106245041, 0.3002106547355652, 0.16154803335666656, -0.16383427381515503, 0.30750223994255066, -0.0400950089097023, -0.3609475791454315, 0.291128545999527, 0.0772409662604332, -0.3942593038082123, 0.30267173051834106, 0.06985490024089813, -0.23391278088092804, 0.09546344727277756, 0.015127956867218018, -0.07224013656377792, -0.02733130380511284, 0.07156527042388916, -0.045261822640895844, -0.1289616823196411, -0.02054937183856964, 0.06772597879171371, 0.2627207040786743, -0.019383741542696953, -0.09207352995872498, -0.30126312375068665, -0.06279076635837555, -0.2389989197254181, -0.08506768196821213, 0.16719993948936462, 0.021541636437177658, -0.07902926951646805, -0.21721982955932617, 0.015752457082271576, 0.16561537981033325, 0.04035346210002899, 0.033355534076690674, -0.2290455847978592, -0.14913049340248108, -0.015242139808833599, 0.1186012476682663, 0.22486914694309235, 0.022953961044549942, -0.05053155869245529, 0.024778781458735466, 0.24313490092754364, 0.14585691690444946, 0.14918404817581177, 0.011297114193439484, -0.14426638185977936, 0.2385140359401703, -0.036777544766664505, -0.09322598576545715, 0.02710377424955368, -0.05556923523545265, -0.18472686409950256, 0.046369776129722595, -0.20258742570877075, -0.2783867120742798, -0.02450573816895485, -0.02474944107234478, -0.09516323357820511, -0.051250338554382324, -0.1182866320014, 0.035227954387664795, 0.15832260251045227, 0.042073220014572144, -0.11055084317922592, 0.12393882125616074, 0.061627618968486786, -0.020166805014014244, 0.14275893568992615, 0.10356312990188599, -0.1501801311969757, 0.0857999250292778, -0.08983975648880005, -0.1171591728925705, 0.13585476577281952, 0.010781759396195412, -0.19520613551139832, -0.06362453103065491, -0.04338294267654419, 0.05042886734008789, 0.05419299006462097, 0.1368703544139862, -0.022900715470314026, -0.09264156222343445, 0.0153867918998003, 0.16399115324020386, 0.1172991394996643, -0.11032352596521378, -0.05429186671972275, -0.12501226365566254, -0.06180816516280174, 0.12166453897953033, -0.09032516926527023, 0.054617974907159805, 0.04031756520271301, 0.03349262848496437, -0.09075385332107544, -0.12393707782030106, 0.034272655844688416, -0.11921188235282898, -0.024791723117232323, -0.12497999519109726, -0.1452033668756485, -0.23395155370235443, -0.016626674681901932, 0.0926661342382431, -0.22404132783412933, 0.15948297083377838, -0.008386400528252125, 0.06989429891109467, 0.03164141625165939, -0.19807425141334534, 0.1503157764673233, 0.13934431970119476, 0.25907212495803833, 0.104546457529068, -0.1641046553850174, -0.004516379442065954, -0.025071173906326294, 0.001933752791956067, -0.23853328824043274, -0.07378164678812027, -0.2055337131023407, -0.17441563308238983, -0.003949628211557865, -0.06202249601483345, 0.15356387197971344, 0.09437688440084457, 0.04575701802968979, -0.16064569354057312, -0.03377358242869377, 0.02254519797861576, 0.18561330437660217, 0.1742001324892044, 0.07184163480997086, -0.10038815438747406, 0.08328322321176529, -0.09358736127614975, -0.01262021902948618, 0.07509482651948929, -0.13527972996234894, -0.03999219462275505, -0.12008427828550339, -0.11427142471075058, -0.22855085134506226, 0.06747127324342728, -0.08234494179487228, -0.011729429475963116, 0.055836476385593414, 0.015215319581329823, -0.11607316136360168, -0.0774337574839592, -0.09279725700616837, -0.10597073286771774, 0.047586336731910706, -0.047894492745399475, 0.15839506685733795, 0.024521078914403915, -0.3281034827232361, -0.09490498900413513, 0.28560563921928406, 0.35700270533561707, -0.10981833934783936, -0.04869707673788071, -0.17181117832660675, 0.058965131640434265, 0.28444334864616394, -0.3123146593570709, 0.019084088504314423, 0.21344754099845886, -0.27921581268310547, 0.026023682206869125, 0.11930558830499649, 0.3137820363044739, -0.02379831299185753, -0.22003361582756042, -0.12928949296474457, 0.07221025973558426, 0.11849257349967957, 0.24837812781333923, 0.10868606716394424, -0.17262443900108337, -0.1644250899553299, -0.056065041571855545, 0.20029594004154205, 0.11901289224624634, -0.05950009077787399, -0.22378380596637726, -0.09567434340715408, -0.058106016367673874, 0.16388064622879028, -0.29151323437690735, 0.12628412246704102, 0.30252546072006226, -0.34320908784866333, -0.1428733766078949, 0.04591583460569382, -0.23298797011375427, -0.062464389950037, 0.05941949784755707, -0.2947457730770111, -0.002947358414530754, 0.0816572979092598, 0.10920553654432297, 0.08063484728336334, 0.16508007049560547, 0.08379585295915604, 0.2599332630634308, -0.19188417494297028, -0.03699569031596184, -0.1924605816602707, 0.2445119023323059, -0.09496358036994934, 0.0003792871721088886, 0.0300663560628891, -0.050009068101644516, 0.165458545088768, -0.12084881216287613, 0.01609584130346775, 0.10762118548154831, -0.014364421367645264, -0.03321307897567749, -0.28030312061309814, 0.022477589547634125, 0.00033297674963250756, 0.2090795785188675, -0.18929703533649445, 0.09721002727746964, -0.16834163665771484, 0.08502474427223206, 0.1453104019165039, 0.20605340600013733, 0.009819938801229, 0.04703053459525108, -0.17800621688365936, 0.016388554126024246, 0.028225630521774292, 0.257894903421402, -0.1583583801984787, -0.08936995267868042, 0.20098622143268585, 0.03610321134328842, -0.0002615630510263145, 0.01799669861793518, -0.2398911565542221, 0.07734984159469604, 0.1272701472043991, -0.18024924397468567, 0.06901873648166656, 0.19337163865566254, 0.0005384563701227307, 0.3696347177028656, 0.19312991201877594, 0.1608780175447464, -0.19539107382297516, 0.02303006686270237, 0.2698478400707245, 0.1658008098602295, 0.017294472083449364, -0.04044565558433533, 0.03140440583229065, -0.014894727617502213, 0.06322368234395981, -0.15663446485996246, -0.2417089194059372, 0.3175085783004761, -0.1738048791885376, -0.21701225638389587, 0.24901364743709564, 0.026640020310878754, 0.06365053355693817, -0.1997448354959488, -0.06750918924808502, -0.2258925586938858, 0.3196652829647064, 0.036115773022174835, 0.1908694952726364, -0.05861561372876167, -0.00477383891120553, -0.10693581402301788, 0.3181101083755493, 0.11064280569553375, 0.06875685602426529, -0.051094118505716324, -0.05782332271337509, -0.2737564742565155, 0.14896224439144135, -0.19318686425685883, -0.015221061185002327, 0.16013966500759125, -0.23308610916137695, -0.15018992125988007, 0.2723715305328369, -0.06418325006961823, -0.09625423699617386, 0.19269149005413055, -0.05029193311929703, -0.18253208696842194, 0.12899808585643768, -0.07445552945137024, -0.07126981765031815, -0.019987236708402634, -0.16295428574085236, 0.04299618676304817, 0.1729191541671753, 0.06581031531095505, -0.13513381779193878, -0.008969920687377453, -0.1353638768196106, 0.16587123274803162, 0.042738862335681915, -0.08561897277832031, 0.126164510846138, 0.09533987939357758, 0.05906624346971512, -0.06395038217306137, 0.02598525770008564, -0.0060545820742845535, -0.013203203678131104, -0.008800757117569447, -0.15014120936393738, 0.07790522277355194, 0.06101571395993233, 0.018033668398857117, 0.05763151869177818, -0.2676117718219757, -0.06527458876371384, 0.15760141611099243, 0.08372689038515091, 0.17188306152820587, -0.08595094829797745, -0.019411984831094742, -0.195310577750206, 0.019720226526260376, 0.12129952758550644, -0.020075183361768723, 0.09098741412162781, 0.24519333243370056, -0.07049736380577087, 0.04349449276924133, 0.2554354667663574, -0.09147245436906815, 0.17212387919425964, 0.05682971701025963, -0.07374130934476852, 0.03708517551422119, 0.21343113481998444, 0.05681733042001724, -0.10299672186374664, -0.1813574880361557, -0.06566552817821503, 0.25749167799949646, -0.12311287224292755, -0.019070567563176155, -0.19419589638710022, 0.23132267594337463, -0.06406246870756149, 0.16247768700122833, 0.0008201824384741485, -0.18171092867851257, 0.32339292764663696, -0.07869201898574829, -0.1338152140378952, 0.35569337010383606, -0.21897576749324799, 0.11337120085954666, -0.3750832676887512, 0.0858597382903099, -0.09872142970561981, 0.36473548412323, -0.20903828740119934, 0.17054519057273865, -0.3062855899333954, 0.033447153866291046, -0.2052621990442276, 0.1401630938053131, 0.03383275866508484, 0.039688948541879654, -0.2749883532524109, 0.14188870787620544, 0.013147634454071522, 0.40234389901161194, 0.00964356865733862, -0.17804384231567383, 0.2758152484893799, -0.18018797039985657, -0.15776585042476654, 0.32312628626823425, 0.035410284996032715, -0.18880605697631836, 0.37714508175849915, -0.17232616245746613, -0.09941833466291428, 0.41652774810791016, -0.1289573758840561, -0.0656890943646431, -0.10761234164237976, 0.28082340955734253, 0.07130640745162964, -0.13190260529518127, 0.0672430545091629, -0.11290121078491211, -0.017381398007273674, 0.054747242480516434, 0.12001892179250717, -0.14493505656719208, 0.01727782003581524, 0.12938152253627777, -0.008019390515983105, -0.1257421225309372, -0.001294369576498866, -0.13968724012374878, -0.1618330478668213, -0.018198665231466293, 0.19671125710010529, 0.15484052896499634, 0.10095935314893723, 0.007255287375301123, 0.005909753497689962, 0.10452400147914886, 0.043899115175008774, -0.04998297616839409, 0.06467477232217789, 0.014232838526368141, -0.12458734214305878, 0.11389095336198807, 0.14742214977741241, -0.07197335362434387, -0.01685916632413864, 0.03278369829058647, -0.1484949290752411, -0.01656281016767025, -0.040388405323028564, -0.15238957107067108, 0.08274015784263611, -0.029969796538352966, 0.03729752078652382, -0.08513069152832031, 0.04205448925495148, -0.13535000383853912, 0.15703068673610687, -0.24161143600940704, -0.17152081429958344, 0.020511604845523834, 0.021059982478618622, 0.03226257860660553, 0.21242131292819977, -0.007256998680531979, -0.19349919259548187, -0.06415990740060806, 0.048174548894166946, -0.0026675413828343153, -0.15924973785877228, -0.0507143996655941, 0.05575171113014221, 0.06842271238565445, -0.10025828331708908, 0.0027880948036909103, 0.014516896568238735, 0.037433214485645294, -0.08510974049568176, -0.026654286310076714, 0.5748441219329834, -0.5380309224128723, 0.8054632544517517, -0.7631989121437073, 0.11045945435762405, 0.9631633758544922, 0.8316643834114075, -0.37178629636764526, 0.2839060425758362, 0.16108165681362152, -0.6237236857414246, -0.23691426217556, 0.0914757177233696, -0.8594557642936707, 0.26524293422698975, 0.4934241771697998, -0.4012594223022461, 0.27794045209884644, -0.05856115743517876, 0.159237802028656, 0.3021024465560913, -0.18146979808807373, 0.2328432947397232, -0.0719144195318222, -0.13648948073387146, 0.008788191713392735, 0.4546186625957489, -0.15055061876773834, 0.42241528630256653, 0.17446132004261017, 0.4356268346309662, -0.15020518004894257, 0.1072944775223732, -0.0062922528013587, -0.32630327343940735, 0.12336032092571259, -0.06075802445411682, -0.2025601863861084, -0.22702476382255554, 0.055589038878679276, -0.07611488550901413, 0.05681146681308746, -0.2991858422756195, 0.07187359035015106, -0.08691638708114624, -0.002348159672692418, -0.16541403532028198, 0.02336660772562027, 0.18963386118412018, 0.2784244418144226, -0.27589282393455505, 0.2965879440307617, -0.33711180090904236, -0.44556689262390137, -0.18176156282424927, -0.29186078906059265, -0.17894987761974335, -0.31757742166519165, 0.12274271994829178, -0.19566400349140167, 0.10620927810668945, 0.5075442790985107, -0.13995002210140228, -0.27958187460899353, 0.3164990544319153, -0.20377787947654724, -0.17516250908374786, -0.25112926959991455, 0.11003979295492172, 0.13427668809890747, -0.08578883856534958, 0.21700778603553772, -0.10172855854034424, 0.1850518137216568, -0.04948177933692932, -0.005609986837953329, 0.2044578343629837, 0.17875832319259644, -0.02399066463112831, 0.083332858979702, -0.046993523836135864, -0.15333575010299683, -0.20626161992549896, 0.21261675655841827, 0.10160233080387115, 0.034966226667165756, 0.1259431689977646, -0.2730809152126312, -0.003279720898717642, 0.18021683394908905, -0.1098119243979454, 0.04509541764855385, 0.045462075620889664, 0.19490748643875122, -0.2284865826368332, -0.007278089877218008, -0.17713578045368195, -0.001375387073494494, 0.13539257645606995, 0.10193274915218353, 0.21231290698051453, 0.23643706738948822, 0.2509377896785736, 0.03476312384009361, 0.18354912102222443, -0.09115394949913025, -0.2305917888879776, 0.03801969811320305, -0.14113935828208923, -0.16261911392211914, 0.45781049132347107, 0.016454368829727173, 0.15230248868465424, 0.1922619640827179, 0.2360619753599167, 0.3114761710166931, -0.38313722610473633, -0.26554715633392334, 0.017715241760015488, -0.039681609719991684, -0.045841872692108154, -0.4602382183074951, -0.3888024389743805, 0.1923341602087021, 0.027211535722017288, -0.09087984263896942, 0.48971474170684814, -0.22666865587234497, 0.12801700830459595, 0.12205273658037186, 0.40331360697746277, -0.15999065339565277, -0.24367864429950714, 0.14513228833675385, 0.35550549626350403, -0.01285674050450325, 0.08540627360343933, -0.2750883996486664, 0.19018498063087463, -0.11563524603843689, 0.012683538720011711, -0.156713604927063, 0.06979869306087494, 0.029660679399967194, -0.14064157009124756, -0.05156220123171806, -0.2729996144771576, -0.2412862330675125, 0.12048336118459702, -0.0772060751914978, -0.14354516565799713, -0.0011604655301198363, -0.2174368053674698, -0.1353341042995453, 0.1798895299434662, 0.05487276613712311, 0.11014755815267563, -0.10955842584371567, 0.08224891871213913, 0.033912304788827896, -0.26037919521331787, 0.1263020932674408, 0.23259800672531128, -0.213487446308136, -0.25523754954338074, -0.06688650697469711, 0.24996702373027802, -0.26183292269706726, -0.010096021927893162, 0.15866729617118835, 0.14890192449092865, -0.11621285229921341, 0.1972372978925705, 0.22916750609874725, -0.10587430745363235, -0.0867784321308136, 0.161154106259346, 0.23377448320388794, -0.3841243088245392, 0.1390196681022644, -0.09468506276607513, -0.2710476219654083, -0.057885803282260895, -0.10405080765485764, 0.02053130604326725, -0.15690922737121582, -0.16607311367988586, 0.03180624917149544, -0.07298892736434937, 0.21218690276145935, 0.16307231783866882, 0.13366049528121948, 0.2572850286960602, -0.03422483801841736, 0.028948156163096428, 0.05308571830391884, -0.10833504796028137, -0.10236000269651413, -0.23934562504291534, -0.010965198278427124, -0.014734507538378239, -0.3040785491466522, -0.18169167637825012, -0.10674875974655151, -0.12698329985141754, 0.1664034128189087, 0.0062310053035616875, -0.17515204846858978, 0.005099323578178883, -0.1147046834230423, 0.05817987769842148, 0.028633756563067436, 0.1557435691356659, -0.10442348569631577, -0.0014624629402533174, 0.1948479562997818, 0.1873181015253067, 0.05347667634487152, -0.1501331925392151, 0.07017707824707031, 0.23931629955768585, -0.16382403671741486, -0.23906250298023224, 0.19391411542892456, -0.08832922577857971, -0.24894708395004272, -0.12135662883520126, 0.1303548514842987, -0.08686543256044388, 0.2076067179441452, 0.2335163950920105, 0.1702503114938736, -0.08933500200510025, -0.009879032149910927, 0.1441589593887329, -0.0618966668844223, -0.013234635815024376, -0.03704942762851715, -0.7164061665534973, 0.2858501970767975, -0.21152523159980774, 0.2683112621307373, -0.13587108254432678, -0.17394565045833588, 0.10267461836338043, -0.09771016985177994, 0.15520867705345154, 0.14451418817043304, -0.32182759046554565, 0.17285937070846558, 0.27284833788871765, 0.09970909357070923, 0.4491181969642639, 0.25635936856269836, -0.6165543794631958, -0.1199146956205368, 0.1872408390045166, 0.11361087113618851, 0.17634344100952148, -0.07157870382070541, -0.28286537528038025, 0.10272597521543503, -0.0015907203778624535, 0.2764367461204529, -0.13378524780273438, -0.19812850654125214, -0.23136045038700104, -0.3270303010940552, 0.31593775749206543, 0.18094080686569214, -1.1724933385849, -0.014348485507071018, 0.14605171978473663, -0.0934467688202858, 0.23929429054260254, -0.21821126341819763, -0.0751233696937561, 0.05435718223452568, 0.017730355262756348, 0.07509011775255203, -0.02045234851539135, -0.03336189314723015, 0.05683830380439758, -0.12092751264572144, -0.07630200684070587, -0.04906188324093819, 0.04938759282231331, -0.08977295458316803, -0.014202458783984184, 0.04298493638634682, 0.005435972008854151, 0.2974797189235687, -0.1751672625541687, 0.22912141680717468, -0.06572823971509933, -0.0869189128279686, 0.09624677896499634, -0.3878188729286194, -0.14379943907260895, -0.14861595630645752, -0.12273651361465454, -0.16972993314266205, -0.0059858886525034904, 0.17163661122322083, -0.016293423250317574, -0.01560258213430643, -0.23082424700260162, -0.356886625289917, 0.01005649659782648, 0.055454593151807785, 0.026313986629247665, -0.19383573532104492, -0.08839014172554016, -0.010062504559755325, -0.04755067452788353, -0.22857151925563812, 0.1400144398212433, -0.18673521280288696, -0.13002870976924896, -0.1784350872039795, 0.08675004541873932, -0.25568023324012756, -0.28185737133026123, -0.022406920790672302, -0.23207959532737732, 0.10701795667409897, -0.110026054084301, -0.08254428952932358, 0.2606549561023712, -0.08747227489948273, -0.05745598301291466, 0.25507470965385437, 0.2402680218219757, 0.4019498825073242, -0.09922747313976288, 0.2533864974975586, 0.22391377389431, 0.052787911146879196, -0.0675622895359993, -0.13245001435279846, -0.0709797739982605, 0.288714736700058, -0.05904576927423477, -0.20218750834465027, 0.09238890558481216, -0.1915588080883026, 0.06550486385822296, -0.07588296383619308, 0.08297602832317352, -0.11854363232851028, -0.017750708386301994, -0.17320212721824646, -0.03409050405025482, -0.05565207451581955, 0.09824391454458237, -0.261913537979126, -0.049580883234739304, 0.07594963163137436, 0.02454189769923687, -0.014811527915298939, 0.05034513771533966, -0.04400114715099335, -0.030248669907450676, 0.13183392584323883, 0.17905813455581665, -0.21411380171775818, 0.03873952850699425, -0.13206344842910767, 0.027702495455741882, -0.09555937349796295, -0.11421828716993332, 0.20431426167488098, -0.3019106984138489, 0.18627864122390747, 0.17680320143699646, -0.032881271094083786, 0.1672186255455017, 0.04066295921802521, 0.02636411413550377, -0.13877210021018982, -0.06213635578751564, -0.19681178033351898, -0.04009523242712021, 0.1963370442390442, 0.03246130421757698, -0.07393011450767517, -0.014697788283228874, 0.12792713940143585, -0.009563145227730274, 0.0074121966026723385, -0.0507916659116745, -0.08807899057865143, 0.0012264735996723175, 0.10798322409391403, 0.05102117359638214, -0.06311964243650436, 0.13138987123966217, -0.054518379271030426, 0.0559045672416687, -0.031081972643733025, 0.14296290278434753, 0.14606957137584686, 0.18648666143417358, -0.22498226165771484, 0.010623988695442677, -0.031528290361166, 0.03395562991499901, 0.13367849588394165, -0.0185246542096138, -0.128322035074234, 0.006554015912115574, 0.02384382113814354, 0.2931978702545166, -0.06386170536279678, -0.16376447677612305, -0.32579106092453003, 0.027047166600823402, 0.13060232996940613, -0.14596867561340332, 0.1327369511127472, 0.19615483283996582, 0.28018203377723694, 0.0768883004784584, 0.028909724205732346, 0.22968660295009613, 0.03359956666827202, -0.09408716857433319, 0.13193750381469727, 0.032418422400951385, -0.00657920865342021, 0.11168627440929413, 0.035535410046577454, -0.22500577569007874, -0.021502092480659485, 0.15696437656879425, 0.0031190344598144293, 0.14285920560359955, -0.04966675862669945, 0.2728336751461029, 0.010321899317204952, -0.1714634895324707, 0.15034599602222443, 0.051256537437438965, -0.18089117109775543, -0.044028621166944504, -0.054688312113285065, -0.008724846877157688, -0.22839732468128204, -0.016804825514554977, 0.022936511784791946, 0.12007966637611389, 0.1193624809384346, -0.022755984216928482, -0.25705084204673767, -0.0232967808842659, 0.12732194364070892, 0.1479324847459793, -0.03541560843586922, 0.011631273664534092, -0.013181808404624462, -0.20782829821109772, 0.08928672224283218, 0.32297998666763306, 0.03632573038339615, -0.01593766361474991, 0.19604454934597015, 0.0631081685423851, 0.029013045132160187, 0.3091272711753845, -0.14581745862960815, -0.47261857986450195, 0.1426524966955185, -0.19592207670211792, -0.2583847641944885, 0.12515732645988464, 0.04526793584227562, 0.018786683678627014, 0.3279201090335846, 0.20110921561717987, -0.2302318811416626, -0.1725301891565323, 0.10173766314983368, 0.13523273169994354, 0.16063536703586578, 0.1028200313448906, -0.10718335211277008, 0.036293238401412964, 0.13181595504283905, -0.2042941004037857, -0.17018312215805054, 0.014894756488502026, -0.06092017889022827, -0.16733701527118683, -0.17800748348236084, -0.24912576377391815, -0.21636343002319336, 0.01429783832281828, 0.09323441237211227, 0.23728157579898834, -0.06432156264781952, -0.03364091366529465, -0.016594724729657173, 0.1204092726111412, 0.33523860573768616, 0.13416455686092377, 0.10735474526882172, -0.05817955732345581, -0.13514994084835052, -0.09259308874607086, 0.18325269222259521, 0.23838640749454498, -0.03143157437443733, -0.1914752870798111, 0.027083883062005043, 0.06509903818368912, -0.0619676411151886, -0.10610242933034897, 0.04959440976381302, 0.2661878168582916, 0.016880661249160767, 0.12552329897880554, 0.2733001410961151, 0.026928391307592392, 0.011822600848972797, -0.10645364224910736, 0.23481179773807526, 0.15936659276485443, 0.07561510801315308, -0.09154289960861206, -0.29104697704315186, -0.28091269731521606, -0.12912775576114655, 0.1386665403842926, 0.02044692449271679, -0.0616900660097599, -0.025416836142539978, 0.0682571679353714, 0.10653160512447357, 0.15324686467647552, 0.16303414106369019, 0.07715188711881638, 0.1830204874277115, 0.14146925508975983, 0.11952235549688339, -0.0623815543949604, -0.022785179316997528, 0.09705673158168793, -0.14733485877513885, -0.10538256913423538, 0.05128804221749306, -0.15013296902179718, 0.0789569616317749, 0.13018445670604706, 0.08812066167593002, -0.16913655400276184, 0.08950319141149521, -0.11714264750480652, -0.08947861939668655, 0.06633863598108292, 0.07527033239603043, 0.09083229303359985, 0.16337378323078156, -0.020500166341662407, 0.11929047107696533, 0.13132357597351074, 0.07389572262763977, 0.2707967162132263, -0.12797459959983826, -0.18675069510936737, 0.1002458855509758, -0.13888567686080933, 0.03263891115784645, -0.19638760387897491, -0.0009792519267648458, 0.00035388304968364537, 0.13567401468753815, 0.12688928842544556, -0.0020129047334194183, -0.17352648079395294, 0.03418118134140968, 0.17870168387889862, 0.13938333094120026, 0.015523127280175686, -0.14524544775485992, 0.08731933683156967, 0.19414487481117249, 0.09702949970960617, 0.027331098914146423, 0.06995929032564163, 0.18117375671863556, 0.014073180966079235, 0.10711997002363205, 0.14086249470710754, 0.1379144787788391, 0.2184709757566452, -0.05977289006114006, 0.14359238743782043, -0.12304878234863281, 0.11649587005376816, -0.009759722277522087, 0.020111408084630966, -0.18843525648117065, -0.2202250361442566, 0.1151629388332367, 0.12767641246318817, -0.021442905068397522, 0.09663580358028412, -0.15090453624725342, 0.05837348848581314, 0.015962006524205208, 0.05555743724107742, 0.045017946511507034, 0.11723627150058746, 0.2666562497615814, 0.059808116406202316, 0.03072008304297924, 0.0445893332362175, -0.3103574216365814, -0.03997914493083954, -0.05235278606414795, -0.15615764260292053, 0.00910261832177639, 0.035611532628536224, 0.24958747625350952, -0.25132372975349426, 0.03196600452065468, -0.042013946920633316, 0.22895638644695282, -0.18119506537914276, 0.0033495977986603975, -0.05601170286536217, -0.06901799142360687, 0.07328057289123535, 0.03031856380403042, 0.02912730723619461, -0.009114064276218414, 0.04617622122168541, -0.08971775323152542, -0.12203551828861237, 0.09867002815008163, -0.03001568652689457, -0.002031400566920638, 0.18505063652992249, -0.14896222949028015, 0.09056761860847473, -0.06307642161846161, -0.03159641474485397, -0.026357632130384445, 0.009047758765518665, -0.1977970451116562, 0.09378636628389359, 0.07042904943227768, 0.27684783935546875, -0.03896323963999748, 0.16123655438423157, -0.23140200972557068, -0.027182407677173615, 0.1329811066389084, -0.07757990807294846, 0.10772734135389328, -0.046145129948854446, 0.22096911072731018, -0.026370616629719734, -0.2546640634536743, 0.17695122957229614, -0.22379909455776215, 0.028503796085715294, 0.10156788676977158, 0.02600916475057602, 0.024371257051825523, 0.014883499592542648, -0.08002441376447678, 0.29296475648880005, 0.3701052665710449, -0.06744721531867981, -0.30467134714126587, -0.26123982667922974, -0.20677250623703003, 0.0770161971449852, 0.16137009859085083, 0.11924368888139725, 0.008348722942173481, -0.04397255927324295, -0.12812209129333496, 0.02973458357155323, 0.06657315790653229, -0.11615925282239914, 0.0020340471528470516, 0.0064256880432367325, 0.058141808956861496, -0.06793475151062012, 0.039555054157972336, 0.07394478470087051, 0.004640048369765282, -0.13697464764118195, 0.11690982431173325, -0.06063873693346977, 0.002370871603488922, 0.08796565979719162, 0.102330282330513, 0.11615174263715744, -0.17823171615600586, -0.10056588053703308, 0.03388581424951553, -0.028330067172646523, -0.18566186726093292, -0.0035883879754692316, 0.08063653111457825, 0.11830146610736847, 0.25998055934906006, 0.2988564372062683, 0.25730374455451965, 0.11017565429210663, -0.08071614056825638, 0.07203558832406998, 0.10849130898714066, -0.12198972702026367, 0.1382419317960739, 0.05352172628045082, -0.2764778435230255, 0.19861575961112976, -0.02044595219194889, -0.19915418326854706, -0.12926363945007324, 0.09794296324253082, 0.19185283780097961, -0.18013975024223328, -0.08430108428001404, 0.0639435425400734, -0.1266956627368927, 0.07362962514162064, -0.02994578704237938, -0.012924694456160069, -0.1279027909040451, -0.16422083973884583, -0.023608386516571045, 0.03050992079079151, -0.016158005222678185, 0.005326570011675358, -0.017647692933678627, 0.19792349636554718, -0.04892708361148834, 0.10206625610589981, 0.05833291634917259, -0.03155023232102394, 0.08740077912807465, 0.04839353263378143, -0.12252940982580185, -0.1378590315580368, -0.10818654298782349, -0.13446177542209625, -0.007043050602078438, 0.2542925775051117, -0.06745120137929916, -0.0699036717414856, 0.0952145904302597, 0.10093117505311966, 0.0631653442978859, 0.04538196697831154, 0.02990580163896084, 0.03951125219464302, -0.01262593176215887, -0.10528814047574997, -0.26785019040107727, -0.0015762269031256437, 0.22884687781333923, -0.23879636824131012, -0.4054284989833832, 0.20600280165672302, -0.28748413920402527, -0.21998830139636993, -0.2548748552799225, 0.22144724428653717, -0.027137193828821182, -0.09172772616147995, -0.08888451009988785, 0.025065820664167404, -0.10263774544000626, 0.016900453716516495, 0.05549593269824982, -0.04024108871817589, -0.05827944353222847, -0.18034037947654724, 0.06635070592164993, 0.11420826613903046, 0.021564442664384842, -0.13873453438282013, 0.168106347322464, 0.16685037314891815, -0.028622891753911972, 0.059481456875801086, 0.045089274644851685, -0.033452220261096954, -0.17094315588474274, 0.06896597892045975, 0.007028824649751186, -0.2762160003185272, -0.13886509835720062, 0.0660587027668953, -0.005554985720664263, -0.01766751892864704, 0.03243530914187431, 0.08815295994281769, -0.014335432089865208, -0.00753773795440793, -0.0375618040561676, -0.08732052892446518, 0.1275637298822403, -0.29320648312568665, -0.10049585998058319, 0.07390233129262924, -0.3139454424381256, -0.2807355225086212, -0.13038496673107147, -0.30041876435279846, -0.24886660277843475, 0.31395554542541504, -0.015470053069293499, -0.15704751014709473, -0.14921526610851288, -0.09972845762968063, -0.09333188831806183, -0.1369924545288086, 0.0090549997985363, 0.06919524073600769, -0.05361015722155571, 0.0359710231423378, -0.0036876227241009474, 0.006203058175742626, 0.012448729947209358, -0.10944075137376785, 0.05265728011727333, 0.2407323271036148, 0.06535431742668152, -0.0027625523507595062, -0.08525016158819199, 0.17679531872272491, 0.16134120523929596, 0.21566453576087952, 0.05398722365498543, 0.1693238765001297, -0.22183513641357422, -0.15285857021808624, -0.058008693158626556, 0.19956834614276886, -0.01048644445836544, -0.1355704516172409, -0.11608093976974487, -0.09684745222330093, -0.13218213617801666, 0.005501966457813978, 0.04099103808403015, -0.30052468180656433, 0.11516692489385605, 0.21590809524059296, 0.05717725306749344, 0.05949433892965317, -0.07343699783086777, 0.10985302180051804, 0.04483961686491966, -0.12752708792686462, -0.36527472734451294, 0.030019624158740044, 0.2817672789096832, 0.07165195047855377, 0.29811951518058777, 0.12030063569545746, -0.033738136291503906, -0.03263404965400696, -0.10097990930080414, 0.1304432600736618, 0.36462774872779846, -0.014991911128163338, -0.10409453511238098, -0.010953309945762157, -0.18781684339046478, 0.03561057522892952, -0.06147351115942001, -0.14245255291461945, -0.018329937011003494, -0.26866576075553894, 0.17961683869361877, -0.15075336396694183, -0.08777282387018204, -0.06693203002214432, -0.0646987110376358, -0.180861234664917, 0.16291601955890656, -0.0864996537566185, 0.19184830784797668, 0.1105661541223526, -0.0646359771490097, -0.08283787220716476, -0.1511424332857132, 0.1238086074590683, 0.3495938777923584, 0.05332139879465103, 0.03427378088235855, -0.13006532192230225, -0.1493058055639267, 0.11030104011297226, -0.06456354260444641, -0.23805579543113708, 0.13618503510951996, 0.04260064288973808, -0.09893949329853058, 0.1775044947862625, 0.229177787899971, -0.024488480761647224, -0.1150507777929306, 0.08876030147075653, -0.1976490318775177, 0.12742462754249573, -0.2432505190372467, 0.06698695570230484, -0.08944132924079895, 0.06776226311922073, 0.047287944704294205, -0.0017721247859299183, -0.18786132335662842, 0.2524796426296234, -0.13744419813156128, -0.0596349760890007, 0.08892743289470673, -0.1654037982225418, -0.10310695320367813, 0.0631270557641983, 0.04176024720072746, 0.11195681989192963, -0.2937981188297272, -0.07403997331857681, 0.057436954230070114, 0.11348989605903625, 0.20198486745357513, 0.10050563514232635, -0.18933027982711792, -0.019694196060299873, -0.13490840792655945, 0.23195594549179077, 0.10184933245182037, -0.12399069219827652, 0.0029733378905802965, -0.11385513842105865, -0.03272382169961929, 0.14499253034591675, -0.18216386437416077, -0.02291991375386715, 0.06802567839622498, -0.1208161860704422, 0.1599413901567459, 0.47139281034469604, 0.1852739006280899, 0.21898356080055237, 0.1346169114112854, -0.18199297785758972, -0.20784391462802887, 0.0510367751121521, -0.17703162133693695, -0.1455201506614685, 0.413486123085022, -0.2848540246486664, 0.06100587174296379, 0.058640532195568085, -0.07197380810976028, 0.20721915364265442, -0.2101716846227646, -0.12814940512180328, 0.0960221216082573, 0.006938752252608538, -0.021163610741496086, -0.09716924279928207, -0.04483148828148842, -0.03374827280640602, 0.07466907054185867, 0.035510607063770294, 0.13764621317386627, -0.0531107597053051, -0.022710317745804787, -0.02674810402095318, 0.22228293120861053, 0.1298171579837799, 0.10409808903932571, 0.023368628695607185, -0.01741006039083004, -0.042587295174598694, -0.035157036036252975, 0.01049728598445654, -0.030124934390187263, -0.18752428889274597, 0.18426275253295898, -0.08412045240402222, 0.07821051776409149, -0.017013810575008392, 0.0829477459192276, 0.085738405585289, -0.07852467149496078, 0.20058628916740417, -0.2871658504009247, 0.040316056460142136, 0.19649572670459747, -0.15336409211158752, 0.13500259816646576, -0.1307864636182785, -0.11545998603105545, -0.0027001758571714163, 0.5104628801345825, 0.04085925966501236, 0.33126917481422424, -0.048994194716215134, 0.014892905950546265, -0.2209375947713852, -0.05600704997777939, 0.05668364092707634, -0.05565528944134712, 0.009236318059265614, 0.044636230915784836, 0.06709415465593338, 0.10996401309967041, 0.03307012468576431, -0.0815577581524849, 0.06955941766500473, 0.07566148042678833, 0.09977788478136063, 0.002648439723998308, -0.05157696083188057, 0.027492396533489227, -0.05516544729471207, 0.15255793929100037, -0.27060824632644653, 0.05269888415932655, -0.12139907479286194, -0.10778792947530746, -0.18094965815544128, -0.16616025567054749, -0.19010169804096222, -0.1334424465894699, 0.002588793868198991, 0.122033029794693, -0.05869682505726814, 0.11560112237930298, -0.11840631812810898, -0.11920534074306488, 0.006920267827808857, -0.0212691780179739, 0.10004079341888428, -0.3638302981853485, 0.16461452841758728, 0.052128031849861145, -0.11593826860189438, -0.04704269766807556, -0.019760778173804283, -0.32168081402778625, -0.03598975017666817, -0.26506665349006653, -0.05681617930531502, 0.08613748848438263, 0.298307329416275, 0.04770560562610626, -0.07906035333871841, 0.1724679321050644, -0.07909641414880753, 0.06330160051584244, 0.09799380600452423, 0.03740854188799858, -0.025401951745152473, 0.007084289565682411, 0.012009023688733578, 0.06784132122993469, 0.3137286305427551, 0.15610100328922272, 0.05761338770389557, -0.016008105129003525, -0.38089635968208313, 0.354213148355484, 0.3807719945907593, -0.5180613994598389, 0.4686289429664612, -1.0577501058578491, -0.21061185002326965, -0.45866531133651733, 0.6893796324729919, -1.070191740989685, -0.47344720363616943, -0.9334610104560852, 0.28721317648887634, -1.160132884979248, 0.5279697179794312, -0.8182743191719055, -0.22166019678115845, -0.17696313560009003, 0.08694759011268616, 0.3660256564617157, 0.32305389642715454, -0.015755606815218925, -0.11071258783340454, 0.06098735332489014, -0.33495575189590454, -0.18696443736553192, -0.15936340391635895, 0.17690081894397736, -0.09504503011703491, -0.11680468916893005, -0.043966300785541534, -0.032192204147577286, -0.12589424848556519, -0.26261353492736816, -0.16998054087162018, 0.005596166010946035, -0.23925888538360596, 0.1982249617576599, -0.18810997903347015, -0.25657469034194946, 0.2034996747970581, -0.023874297738075256, 0.019161535426974297, 0.11967284977436066, 0.03801371157169342, 0.1171574667096138, 0.23018431663513184, 0.30120649933815, -0.20927484333515167, -0.2245006561279297, -0.15100708603858948, 0.23944054543972015, -0.02095736935734749, 0.29396679997444153, -0.09053512662649155, 0.15765169262886047, -0.07392563670873642, 0.06307439506053925, -0.2330656498670578, -0.3673843443393707, 0.13208338618278503, 0.39077234268188477, 0.033378686755895615, 0.10772594809532166, 0.302030086517334, 0.159666046500206, -0.1947242021560669, -0.23970310389995575, -0.3331245481967926, -0.0028142817318439484, -0.0972152054309845, 0.07528884708881378, 0.015478074550628662, 0.2132621705532074, -0.06336494535207748, 0.36844733357429504, 0.23473142087459564, 0.06721486896276474, 0.217127725481987, -0.0223873108625412, 0.08569618314504623, -0.06750797480344772, -0.20328229665756226, 0.00028406555065885186, 0.06161994859576225, 0.029901105910539627, -0.08716299384832382, 0.08981117606163025, 0.25945472717285156, 0.22440461814403534, -0.17499825358390808, 0.14681480824947357, -0.11206737160682678, 0.15101534128189087, -0.03945104032754898, -0.014508306980133057, -0.31960129737854004, -0.13411365449428558, -0.4099242687225342, -0.11376351863145828, -0.017691776156425476, -0.06593941152095795, -0.25677430629730225, -0.1958618462085724, 0.2283523827791214, 0.2262943834066391, 0.004440754186362028, -0.19297197461128235, -0.31892237067222595, -0.09827931970357895, 0.051405441015958786, 0.10772362351417542, 0.16839584708213806, -0.11770713329315186, 0.1853032261133194, -0.16132943332195282, 0.10823500156402588, 0.3086757957935333, -0.284210205078125, 0.07681688666343689, 0.11442770808935165, 0.005629443563520908, -0.2447909414768219, 0.21635118126869202, 0.08956918865442276, -0.1695355623960495, -0.26030147075653076, 0.2699422538280487, 0.16689616441726685, 0.1848413646221161, 0.11988604813814163, -0.009371297433972359, 0.057799480855464935, -0.035481151193380356, 0.011218826286494732, 0.2382856160402298, 0.02010377310216427, 0.29934877157211304, -0.23164904117584229, 0.14627672731876373, -0.2959213852882385, 0.026275889948010445, -0.03425607457756996, -0.031914789229631424, 0.05181337893009186, 0.07567226141691208, -0.1503116935491562, -0.17302076518535614, -0.2124316692352295, -0.1238396018743515, 0.06937958300113678, -0.0888814702630043, -0.039100226014852524, 0.06121809408068657, 0.3983282446861267, -0.042880892753601074, 0.03011361137032509, 0.19919666647911072, -0.12101804465055466, 0.3630630373954773, -0.18299327790737152, -0.04914657771587372, -0.15947246551513672, 0.05222528427839279, 0.06775252521038055, -0.10784290730953217, 0.2520626485347748, 0.057825326919555664, -0.08838315308094025, -0.02067294344305992, 0.27474331855773926, 0.19189345836639404, -0.08347228169441223, -0.12311123311519623, 0.057653896510601044, -0.07631906867027283, -0.046156857162714005, -0.08581604808568954, -0.04248196259140968, 0.07997208088636398, 0.15087731182575226, -0.1348745971918106, 0.013143816962838173, 0.07500134408473969, 0.11621489375829697, 0.1515081226825714, -0.053454890847206116, 0.21062679588794708, 0.014174885116517544, 0.10787791758775711, -0.06341351568698883, -0.016508739441633224, 0.11638996005058289, 0.22059568762779236, -0.26711276173591614, 0.024506818503141403, -0.20914407074451447, 0.03305024653673172, 0.22492919862270355, 0.06988673657178879, -0.022739870473742485, 0.17210954427719116, 0.11700388789176941, -0.08014605194330215, 0.12419068068265915, 0.039173394441604614, -0.06686429679393768, -0.07184860855340958, -0.19920846819877625, -0.2933402359485626, -0.2630321979522705, 0.303989976644516, -0.01396761741489172, -0.02100887894630432, -0.10688240826129913, -0.03482583537697792, -0.10693097114562988, -0.05264507606625557, 0.08810825645923615, -0.31137025356292725, 0.40196850895881653, -0.2896153926849365, -0.001629676902666688, 0.09323157370090485, 0.16953381896018982, 0.061414722353219986, -0.15521900355815887, 0.3833950459957123, -0.14192193746566772, -0.018617916852235794, 0.11007358878850937, 0.0004345467605162412, 0.0878458097577095, 0.19566626846790314, -0.14736638963222504, -0.07739678770303726, 0.45774775743484497, -0.0006807101308368146, 0.10510946065187454, -0.01064242422580719, 0.1955977827310562, 0.3705296814441681, 0.028913991525769234, -0.2676744759082794, -0.32245752215385437, -0.10644844174385071, 0.12590739130973816, -0.05574554577469826, -0.045354411005973816, 0.20124295353889465, 0.2663891613483429, 0.08031298220157623, -0.1568872481584549, 0.5373262166976929, 0.14685823023319244, 0.08089771121740341, 0.18719419836997986, -0.10805489122867584, -0.13216806948184967, -0.12297585606575012, -0.33655524253845215, 0.1720692664384842, -0.07399182766675949, 0.019786357879638672, 0.19270099699497223, -0.10852682590484619, 0.10258873552083969, 0.1485123485326767, -0.08245522528886795, 0.4820016324520111, -0.39187318086624146, -0.20172882080078125, -0.11565390974283218, 0.04570084065198898, 0.02062477171421051, -0.1180320531129837, -0.07526835799217224, 0.19302497804164886, 0.05187080800533295, 0.31762421131134033, -0.08911842852830887, 0.25673407316207886, -0.11716526001691818, -0.28661975264549255, -0.04873471334576607, -0.4446244239807129, 0.00725557142868638, -0.11276384443044662, -0.05076887086033821, 0.26853877305984497, -0.039980143308639526, 0.026155252009630203, -0.18292659521102905, -0.016652707010507584, -0.10387853533029556, -0.01487826555967331, 0.018345896154642105, -0.051914408802986145, -0.26203465461730957, -0.30655884742736816, 0.1532134860754013, 0.028698312118649483, -0.04507608339190483, 0.43322357535362244, 0.21789753437042236, 0.022276699542999268, -0.013001537881791592, -0.06254824995994568, 0.12541407346725464, 0.07606091350317001, 0.10988851636648178, -0.13822713494300842, -0.08639346063137054, 0.02866324968636036, -0.06725295633077621, 0.0673016831278801, 0.09323463588953018, -0.10023428499698639, -0.17844611406326294, -0.010261683724820614, -0.019970569759607315, -0.16946937143802643, -0.11744523048400879, -0.024885054677724838, -0.18322394788265228, 0.03931039944291115, 0.0573074109852314, -0.38383617997169495, 0.20279699563980103, -0.08722450584173203, 0.30386456847190857, -0.05158000811934471, -0.2079344391822815, 0.21888992190361023, -0.30533120036125183, 0.003076043212786317, -0.13300877809524536, -0.03183511272072792, -0.011030416004359722, -0.09117867052555084, 0.2843320071697235, 0.0029232592787593603, 0.3432275056838989, 0.2365167886018753, 0.17516227066516876, 0.0375349335372448, -0.19959956407546997, -0.19525811076164246, 0.167282372713089, -0.11475948989391327, 0.03254284709692001, -0.4166420102119446, 0.47061917185783386, 0.14186184108257294, 0.03413793817162514, -0.28844112157821655, 0.1635359227657318, -0.1363878697156906, -0.09224631637334824, -0.011624978855252266, 0.03186308965086937, 0.0407550223171711, -0.17875038087368011, 0.21198038756847382, 0.17349794507026672, 0.0774419978260994, 0.23843812942504883, 0.08791764825582504, 0.012717320583760738, -0.02994065172970295, -0.1446847766637802, -0.09641115367412567, 0.050519075244665146, 0.2140241265296936, 0.033025890588760376, 0.06133683770895004, -0.1258384883403778, -0.18980702757835388, 0.22748461365699768, -0.10432162880897522, -0.09802862256765366, 0.4255501925945282, -0.2131442278623581, -0.08058927208185196, 0.41729357838630676, -0.03759581595659256, 0.05291328951716423, 0.09758152812719345, -0.19798368215560913, -0.12171617150306702, 0.024734733626246452, -0.18929791450500488, 0.04875919222831726, -0.47691893577575684, 0.02650887332856655, 0.15987563133239746, -0.08572251349687576, -0.07613436132669449, 0.016416436061263084, 0.20308202505111694, -0.31664320826530457, -0.07629015296697617, -0.16377806663513184, 0.09655321389436722, -0.10903305560350418, -0.010071316733956337, 0.1645042449235916, 0.015704285353422165, -0.4085293412208557, -0.14610418677330017, 0.13088420033454895, 0.08090431243181229, 0.09136451780796051, -0.06422264873981476, -0.19138790667057037, 0.011919673532247543, -0.06784452497959137, -0.18436437845230103, 0.1250157207250595, 0.09835797548294067, 0.18337565660476685, -0.11760914325714111, 0.112591452896595, 0.05208272486925125, 0.026412086561322212, 0.3206884264945984, -0.23958994448184967, -0.00010760319128166884, -0.10041454434394836, -0.36935150623321533, -0.018214093521237373, 0.1317567676305771, 0.031462833285331726, -0.04969305545091629, 0.09526239335536957, 0.02779574505984783, 0.16732513904571533, -0.10870035737752914, 0.16526801884174347, 0.1918724775314331, -0.3544672429561615, 0.06605635583400726, -0.05085244029760361, -0.23142428696155548, 0.06794605404138565, -0.034260936081409454, -0.00645833695307374, -0.0661415383219719, -0.05033336207270622, 0.5874238014221191, 0.12803156673908234, 0.03730829060077667, -0.29425209760665894, -0.09393279999494553, 0.0010183843551203609, 0.3646511733531952, -0.048236947506666183, -0.02461274340748787, -0.06992568075656891, -0.0768965557217598, -0.10641130059957504, 0.17922961711883545, 0.10293176025152206, 0.05161096528172493, -0.3305051028728485, 0.23322176933288574, 0.012484810315072536, -0.40550848841667175, 0.15558068454265594, 0.031693533062934875, -0.14643600583076477, 0.24424269795417786, 0.0006067517679184675, -0.1424228698015213, -0.09123784303665161, -0.18760204315185547, 0.034091901034116745, -0.020114000886678696, 0.11878079175949097, -0.043740205466747284, -0.04765357822179794, -0.046994540840387344, -0.09539976716041565, -0.18850933015346527, 0.2589619755744934, -0.030635954812169075, 0.047189682722091675, 0.30375024676322937, -0.07710715383291245, -0.003105905605480075, 0.1397910714149475, -0.19868676364421844, -0.060976237058639526, 0.022664707154035568, 0.0046690902672708035, -0.004529892932623625, 0.7287510633468628, 0.1700684130191803, -0.058538999408483505, -0.14870445430278778, 0.05609404295682907, -0.03742316737771034, -0.2023829221725464, 0.0933939516544342, -0.21633148193359375, 0.012584378942847252, -0.07957309484481812, 0.0003360385890118778, 0.21576926112174988, 0.10116579383611679, -0.03341521695256233, -0.03468942642211914, 0.0018571302061900496, -0.012847574427723885, -0.007942979224026203, -0.20537881553173065, -0.16660267114639282, 0.10152355581521988, -0.04758327454328537, -0.28376731276512146, -0.22382888197898865, -0.059051062911748886, 0.11357144266366959, -0.18385301530361176, 0.17833468317985535, 0.08465257287025452, -0.06152148172259331, -0.07069209963083267, 0.009206173941493034, 0.07291123270988464, -0.23847666382789612, 0.029855595901608467, 0.021550647914409637, -0.06688392907381058, 0.05376916378736496, 0.035626061260700226, -0.20727123320102692, -0.07147229462862015, -0.16384439170360565, 0.11526521295309067, 0.14031338691711426, 0.02730063907802105, 0.24695593118667603, -0.326661616563797, -0.02234986051917076, 0.43087461590766907, -0.09220147877931595, 0.18825796246528625, 0.16796250641345978, -0.24216482043266296, -0.27101168036460876, 0.07134684920310974, 0.05651847645640373, 0.02735462598502636, -0.11572587490081787, -0.21024592220783234, -0.08426162600517273, 0.024474702775478363, 0.21311229467391968, 0.1842673420906067, -0.07603306323289871, 0.1688685119152069, 0.16586241126060486, 0.03217114135622978, 0.18856967985630035, 0.04755491763353348, -0.14346985518932343, 0.05388630926609039, 0.08923180401325226, -0.1852644383907318, 0.137007474899292, -0.18886518478393555, -0.14810439944267273, 0.25469887256622314, -0.0430339090526104, -0.08539232611656189, -0.11559378355741501, -0.2547484040260315, 0.022506119683384895, 0.09338118135929108, -0.11389262974262238, -0.061499908566474915, 0.14704051613807678, -0.13445362448692322, -0.0845794603228569, -0.023204827681183815, 0.13555902242660522, 0.025205714628100395, 0.006594531238079071, -0.0713139995932579, -0.07757217437028885, -0.017605258151888847, -0.19923590123653412, -0.0853838324546814, 0.15021182596683502, 0.19747819006443024, -0.015684062615036964, 0.2763059735298157, 0.18452930450439453, -0.0935506522655487, 0.013599292375147343, -0.023400744423270226, 0.12699516117572784, -0.029582183808088303, 0.1449727863073349, -0.024930141866207123, -0.11311620473861694, 0.09035860747098923, -0.09942758828401566, -0.10338819026947021, -0.06537490338087082, -0.09699128568172455, -0.229508176445961, -0.19843755662441254, 0.17674218118190765, -0.2506445646286011, -0.3541439473628998, -0.07142648845911026, -0.056986309587955475, 0.18205495178699493, -0.10784874856472015, 0.25165262818336487, -0.05832311511039734, -0.09572981297969818, 0.06931237876415253, 0.30304697155952454, -0.14704254269599915, 0.058902010321617126, 0.23962555825710297, 0.15144874155521393, 0.007686588913202286, 0.296370267868042, -0.020659802481532097, -0.16106295585632324, 0.03609916567802429, 0.1433025449514389, -0.2153071165084839, -0.00022173651086632162, -0.014480470679700375, -0.4114222526550293, 0.18551453948020935, -0.07847940176725388, -0.45669829845428467, -0.12106344103813171, -0.024077167734503746, -0.10410846769809723, 0.021827049553394318, 0.0033315690234303474, -0.06915221363306046, 0.11382946372032166, -0.00018145258945878595, -0.031738586723804474, -0.0035232529044151306, -0.17153048515319824, 0.09249282628297806, -0.038845960050821304, -0.012927768751978874, -0.13305719196796417, -0.026769466698169708, -0.12754811346530914, 0.21425406634807587, 0.23686400055885315, 0.1130143254995346, 0.22338618338108063, 0.08710157871246338, 0.07906343787908554, 0.054827507585287094, -0.23392124474048615, 0.2076471596956253, -0.06698699295520782, -0.12807069718837738, 0.0845094844698906, -0.4064367413520813, 0.037342168390750885, -0.1837412416934967, 0.12552514672279358, 0.18751747906208038, 0.19622217118740082, -0.12374413013458252, 0.19908839464187622, -0.08364418148994446, 0.42134392261505127, 0.1571054756641388, 0.16806292533874512, 0.0031917814631015062, 0.022663921117782593, 0.1485356092453003, -0.25835826992988586, 0.15075092017650604, 0.04553323984146118, -0.07513456046581268, -0.16778534650802612, 0.04642263054847717, 0.05575956776738167, -0.21137700974941254, -0.03537677600979805, 0.2403809279203415, 0.009409056045114994, 0.09014803171157837, 0.10844553261995316, 0.07490144670009613, 0.0899517610669136, -0.1235336884856224, -0.021736640483140945, -0.1976737082004547, 0.12927024066448212, 0.0414300411939621, -0.02581549622118473, -0.3567940294742584, 0.2636495530605316, -0.11327189952135086, 0.12085847556591034, 0.2473727911710739, 0.04820869863033295, 0.4819633960723877, -0.13799801468849182, 0.1358618438243866, 0.21707653999328613, -0.031249022111296654, 0.1843981146812439, -0.005950027611106634, -0.38065990805625916, 0.05548107624053955, 0.03001490980386734, 0.14016982913017273, 0.03603911027312279, 0.08175251632928848, 0.04873928800225258, 0.14331485331058502, 0.2560998201370239, 0.3316340446472168, -0.33175337314605713, 0.1111428514122963, 0.13392847776412964, 0.07118979841470718, -0.036231886595487595, 0.02774847485125065, 0.1278708130121231, -0.17206250131130219, 0.14786195755004883, -0.37919628620147705, -0.12227801233530045, -0.3455960750579834, -0.35849305987358093, 0.1058686152100563, -0.23346638679504395, -0.40507450699806213, -0.09117868542671204, -0.23052434623241425, 0.053179241716861725, 0.10364066809415817, 0.09377012401819229, -0.022816462442278862, 0.06547819077968597, 0.3825123608112335, 0.007709439843893051, 0.0028320015408098698, -0.008524667471647263, 0.10746745765209198, 0.09552737325429916, 0.006066655274480581, 0.1669960469007492, -0.09090215712785721, 0.16635450720787048, -0.8200172781944275, 0.2732641398906708, 0.44131898880004883, -0.8470438122749329, -0.012224611826241016, -0.09031417220830917, -0.028277643024921417, 0.07413680851459503, -0.11077659577131271, 0.0780094638466835, 0.1484101116657257, 0.054323066025972366, 0.15836185216903687, -0.07296391576528549, -0.05882613733410835, 0.018962301313877106, 0.14197009801864624, -0.1840570569038391, -0.025540510192513466, 0.1221344918012619, -0.23545996844768524, -0.06596332788467407, 0.25381264090538025, 0.2743326723575592, 0.18433940410614014, 0.09714172035455704, 0.18330009281635284, 0.09936975687742233, 0.13691462576389313, 0.06425675004720688, -0.023870088160037994, -0.04993370920419693, 0.07301262766122818, -0.027110906317830086, 0.17059719562530518, 0.12166662514209747, 0.242386132478714, 0.04954800382256508, -0.07753438502550125, 0.04605822637677193, 0.15991614758968353, 0.0060725039802491665, 0.013174683786928654, 0.061895184218883514, -0.2612674832344055, -0.2542289197444916, -0.06511395424604416, 0.27961593866348267, -0.2105453461408615, 0.17746946215629578, -0.1360180377960205, -0.03170314431190491, -0.07741346955299377, 0.1787288784980774, 0.17548565566539764, -0.004799440037459135, -0.21894784271717072, 0.16466651856899261, 0.03568556532263756, -0.16466699540615082, 0.3064730167388916, -0.15886737406253815, -0.20012472569942474, 0.05959709361195564, 0.06980171799659729, 0.03563863784074783, -0.053434986621141434, 0.07705356180667877, 0.022115034982562065, -0.2617388069629669, 0.010428041219711304, -0.09421760588884354, 0.28524917364120483, 0.19606585800647736, 0.04088643938302994, -0.26009076833724976, -0.1800031214952469, -0.11311937868595123, 0.04923006147146225, -0.049064286053180695, 0.1507476568222046, -0.26725947856903076, -0.19605205953121185, -0.22366976737976074, 0.11879778653383255, -0.0570833645761013, -0.21339716017246246, 0.2834634780883789, -0.10835988819599152, -0.08926336467266083, 0.07420139759778976, -0.14631368219852448, -0.13893049955368042, 0.2602667808532715, 0.08072079718112946, -0.23361054062843323, 0.1588573455810547, 0.1847948580980301, -0.15845277905464172, 0.018286943435668945, -0.013588634319603443, 0.49677783250808716, 0.6345770955085754, -0.116956926882267, -0.08163119852542877, -0.17449620366096497, -0.6748925447463989, -0.27840712666511536, 0.01071117538958788, -0.3355461657047272, -0.16965490579605103, -0.2146834135055542, 0.3526071012020111, 0.3803042471408844, 0.24590487778186798, 1.081787347793579, 0.5487167239189148, 0.1281966269016266, -0.4357704520225525, 0.052450649440288544, -0.03547129034996033, 0.175454244017601, -0.1961834579706192, -0.20389717817306519, -0.4765810966491699, -0.1646425873041153, -0.05880531296133995, -0.061759985983371735, 0.14402073621749878, -0.08983827382326126, -0.4484674334526062, 0.08458803594112396, 0.09637612104415894, -0.137446328997612, 0.15536032617092133, 0.3013210892677307, -0.32714414596557617, -0.1691388487815857, -0.10431528091430664, 0.20059116184711456, 0.16440270841121674, 0.25692588090896606, -0.4956142008304596, 0.024788012728095055, -0.37547576427459717, 0.1578877717256546, -0.29203560948371887, 0.03040853701531887, 0.12921857833862305, -0.39844125509262085, -0.0238672886043787, 0.1045677438378334, -0.1587100327014923, -0.06722953915596008, 0.0834449753165245, -0.03251093626022339, -0.12301609665155411, -0.15460246801376343, 0.36419934034347534, 0.44212961196899414, -0.09986552596092224, 0.12651735544204712, 0.12413042038679123, 0.0027081561274826527, -0.32024240493774414, -0.039273131638765335, -0.016177982091903687, 0.16603387892246246, 0.012128971517086029, 0.024290043860673904, 0.07208632677793503, -0.06289468705654144, -0.1387471854686737, -0.08026372641324997, 0.1423802673816681, 0.07113097608089447, -0.182078555226326, 0.1796444207429886, 0.03875484690070152, -0.0034046676009893417, -0.11687450855970383, -0.028328945860266685, 0.28739097714424133, 0.11259361356496811, 0.02832893282175064, -0.06035018339753151, -0.03345594182610512, 0.1535448282957077, 0.04668581485748291, -0.08604872226715088, -0.4847269058227539, 0.27629566192626953, -0.013985063880681992, -0.24040205776691437, 0.3586830794811249, -0.18601477146148682, -0.08880307525396347, 0.15544089674949646, 0.14013144373893738, -0.013315011747181416, 0.010821638628840446, 0.03998173773288727, -0.11048562079668045, -0.05814583599567413, 0.022317776456475258, 0.04979599267244339, -0.06806371361017227, 0.055478785187006, 0.04374063387513161, 0.023522691801190376, -0.16178001463413239, 0.21711216866970062, -0.0755009651184082, -0.19167180359363556, 0.1455359309911728, 0.024589193984866142, -0.03799073398113251, 0.03553210571408272, -0.11518476903438568, -0.06264695525169373, 0.2485174983739853, -0.009066680446267128, 0.12054213881492615, 0.1065586656332016, -0.058444391936063766, -0.0540439672768116, -0.19419550895690918, -0.000964803621172905, 0.04433491826057434, 0.056554414331912994, 0.15707387030124664, -0.0728323683142662, -0.2590416371822357, -0.07121631503105164, -0.029046030715107918, -0.1430412381887436, 0.16159848868846893, 0.20767207443714142, 0.39158692955970764, 0.056229542940855026, -0.09241396933794022, 0.2979547381401062, 0.24021349847316742, -0.08084672689437866, -0.033284448087215424, 0.16693700850009918, 0.10097997635602951, -0.07088051736354828, 0.09544449299573898, 0.24874182045459747, -0.163796529173851, 0.07178936898708344, 0.2229377180337906, -0.21367940306663513, -0.02828124351799488, 0.08970292657613754, 0.02715153805911541, 0.129245787858963, 0.07729029655456543, 0.20103999972343445, 0.24065575003623962, -0.3041248917579651, -0.11538289487361908, -0.17136555910110474, 0.0520174503326416, 0.11924535781145096, 0.08579757809638977, -0.017121456563472748, -0.07163679599761963, -0.031660716980695724, -0.01620759256184101, 0.06560883671045303, 0.10538168996572495, 0.0938442274928093, -0.13182392716407776, -0.17903552949428558, 0.16358281672000885, -0.2758253812789917, -0.09170014411211014, 0.16666920483112335, -0.2345639020204544, 0.13440853357315063, -0.09920940548181534, -0.116191565990448, 0.06536345183849335, 0.0033899417612701654, 0.1760890632867813, -0.19002336263656616, 0.13391897082328796, -0.07741512358188629, -0.17431405186653137, 0.2833215892314911, 0.077365942299366, 0.13653689622879028, -0.04061172157526016, -0.0682898536324501, 0.06803397834300995, -0.09905709326267242, 0.1112273707985878, -0.010503062047064304, 0.09529592096805573, -0.13215333223342896, 0.20961534976959229, -0.028491562232375145, -0.5680310726165771, 0.06049581989645958, -0.09044749289751053, -0.00045996459084562957, -0.4367542862892151, -0.32841241359710693, 0.849938690662384, 1.0794494152069092, -0.4684853255748749, 0.33640235662460327, -0.29332616925239563, 0.10971074551343918, 0.7824984788894653, -1.1300184726715088, 0.8224116563796997, 0.3027168810367584, -0.2496890276670456, -0.3029492497444153, 0.166770800948143, -1.1441558599472046, 0.10266201198101044, -0.10035523772239685, -0.08006865531206131, 0.14372991025447845, 0.0038054371252655983, 0.2980518639087677, 0.007362747564911842, 0.18002137541770935, 0.30950167775154114, 0.14052167534828186, 0.024688631296157837, -0.04484449699521065, -0.29445281624794006, -0.05686149001121521, -0.07857948541641235, -0.2906385064125061, 0.26463478803634644, -0.2033744901418686, -0.052219290286302567, 0.1053728312253952, 0.18857692182064056, 0.21459119021892548, 0.07482768595218658, -0.2760329246520996, -0.15747307240962982, 0.1509978026151657, 0.22049830853939056, -0.39638930559158325, 0.2604718804359436, 0.2754393219947815, 0.168312206864357, -0.004868461284786463, 0.14547325670719147, -0.32650405168533325, 0.06439223885536194, -0.8056760430335999, 0.06387557089328766, -0.09098318964242935, 0.04542064294219017, -0.20306311547756195, -0.3792482316493988, 0.1516989767551422, 0.0029416473116725683, 0.15140512585639954, 0.44618165493011475, -0.05538013577461243, 0.014473422430455685, 0.11822402477264404, 0.29974010586738586, 0.06801223754882812, 0.07865897566080093, -0.11219014972448349, -0.11138312518596649, 0.19888077676296234, -0.2837613821029663, 0.2793567180633545, 0.2280668020248413, -0.08681230247020721, 0.02949572540819645, 0.29997116327285767, 0.07532423734664917, -0.10831748694181442, 0.025241971015930176, 0.202377587556839, 0.06674247980117798, -0.40260323882102966, 0.3840707540512085, -0.10742342472076416, -0.10685860365629196, -0.18389452993869781, 0.3519447147846222, -0.17750798165798187, -0.1325228065252304, -0.13302209973335266, -0.11308985948562622, 0.18446284532546997, 0.07701639086008072, 0.10939020663499832, 0.1752510368824005, -0.06924023479223251, 0.014000140130519867, -0.12367676943540573, 0.12088672071695328, -0.237328439950943, -0.2003840208053589, -0.21235628426074982, 0.35267478227615356, -0.06327158957719803, -0.1460418403148651, -0.29076850414276123, 0.16248300671577454, 0.15769506990909576, 0.12502284348011017, 0.2747666537761688, 0.34625139832496643, 0.08229631930589676, 0.11890643835067749, 0.18561184406280518, -0.27992820739746094, -0.06844179332256317, 0.2623612582683563, -0.036565475165843964, -0.1098356544971466, -0.06311886012554169, -0.21827787160873413, 0.1302611231803894, 0.10815688967704773, -0.15168945491313934, 0.1120581403374672, -0.0016080575296655297, 0.000404795806389302, 0.1643100380897522, 0.3537621796131134, 0.13573330640792847, -0.01563694328069687, 0.14820292592048645, 0.006757131777703762, -0.09454141557216644, 0.049304742366075516, -0.11146886646747589, -0.023509150370955467, 0.14710819721221924, 0.023407641798257828, 0.22413088381290436, 0.07446715980768204, -0.30749717354774475, 0.10368501394987106, -0.07881136238574982, -0.1494676172733307, 0.30521097779273987, -0.2110644429922104, -0.054406169801950455, 0.21204547584056854, -0.04196597635746002, -0.23056133091449738, 0.06544072180986404, -0.11489228904247284, 0.07594292610883713, -0.166119784116745, 0.23970350623130798, -0.3386339843273163, 0.01953529566526413, 0.01868160255253315, 0.13131290674209595, 0.19441983103752136, -0.15474587678909302, -0.38578835129737854, 0.5401369333267212, 0.21182891726493835, 0.19810067117214203, -0.1614486426115036, -0.12652331590652466, -0.033241014927625656, -0.07561338692903519, 0.21195660531520844, -0.12844276428222656, 0.010511098429560661, -0.5760841369628906, 0.21975849568843842, -0.12251800298690796, 0.39217138290405273, -0.04933788999915123, -0.2867690324783325, -0.35384294390678406, 0.32063570618629456, -0.19620735943317413, 0.06589220464229584, -0.09444212168455124, 0.5297502279281616, -0.03624102100729942, -0.36596664786338806, 0.01827572099864483, -0.008185753598809242, -0.32589998841285706, 0.0950923040509224, 0.46917736530303955, 0.10733076184988022, 0.09795508533716202, -0.2658863663673401, -0.0009343494311906397, -0.08534791320562363, 0.21958081424236298, 0.15902476012706757, 0.12283585220575333, -0.06977987289428711, -0.2671011686325073, -0.10248970985412598, 0.22736923396587372, -0.20453190803527832, -0.35798171162605286, -0.00025345891481265426, 0.15942415595054626, -0.39975735545158386, -0.15964347124099731, -0.024201350286602974, 0.03153284639120102, 0.1262720227241516, 0.19860512018203735, -0.4183668792247772, -0.06891633570194244, 0.08885246515274048, 0.07806239277124405, -0.22558876872062683, -0.039005666971206665, -0.11327691376209259, 0.007467363495379686, -0.04975207895040512, -0.07363652437925339, -0.3677143156528473, 0.13550779223442078, -0.06152348592877388, -0.022055622190237045, -0.1435595005750656, -0.10727763175964355, 0.054934024810791016, -0.14229042828083038, -0.20281672477722168, 0.06587062776088715, 0.10107182711362839, -0.24743764102458954, -0.1016237661242485, 0.3689478635787964, -0.3047667145729065, 0.015479057095944881, 0.20119136571884155, 0.13172277808189392, 0.16241861879825592, -0.11714779585599899, -0.43997713923454285, -0.02862098067998886, 0.2757725417613983, -0.2722054719924927, -0.13971473276615143, 0.2339858114719391, 0.236850306391716, 0.27097466588020325, 0.22436806559562683, 0.13978202641010284, 0.06445401906967163, -0.20093068480491638, -0.06766659021377563, -0.08461219817399979, -0.132573202252388, -0.6268582940101624, -0.5558061003684998, -0.22764970362186432, 0.08955951780080795, -0.24366386234760284, 0.10615481436252594, 0.13558882474899292, 0.4128059148788452, -0.0038084250409156084, -0.008385837078094482, 0.17934776842594147, -0.01370928343385458, -0.07879558205604553, -0.04068026319146156, 0.2768900394439697, 0.09445841610431671, 0.06559600681066513, -0.018980136141180992, 0.33723005652427673, -0.03372529149055481, 0.22565309703350067, -0.4533027708530426, 0.14541371166706085, -0.046656493097543716, -0.011506880633533001, 0.05888430029153824, -0.056361470371484756, 0.20983712375164032, -0.03441918268799782, 0.23328658938407898, -0.07365221530199051, -0.10356543213129044, -0.15148694813251495, -0.4359242022037506, 0.14705713093280792, -0.13263481855392456, -0.750523030757904, -0.055841851979494095, 0.059084076434373856, 0.10151473432779312, 0.22169986367225647, -0.11934245377779007, -0.1963425874710083, -0.05770339071750641, -0.06288077682256699, -0.0019396553980186582, 0.3880426287651062, 0.17670980095863342, -0.08596087247133255, -0.15828771889209747, -0.2694544792175293, 0.2550116181373596, 0.35193508863449097, 0.11440230906009674, -0.10080421715974808, -0.26321443915367126, -0.04748117923736572, 0.24137334525585175, 0.024707665666937828, -0.49459582567214966, -0.33198246359825134, 0.1209113746881485, 0.12906794250011444, -0.21644489467144012, -0.20518113672733307, 0.023096458986401558, 0.0014435953926295042, -0.1990348845720291, 0.16243641078472137, -0.050248004496097565, -0.2644517123699188, -0.328328013420105, -0.04825182259082794, 0.17885224521160126, -0.08937326073646545, -0.27726036310195923, 0.17659714818000793, 0.09691895544528961, 0.13387571275234222, 0.1983671933412552, 0.16203492879867554, 0.5077738761901855, -0.44106006622314453, 0.31595778465270996, -0.10935662686824799, -0.4299309253692627, -0.0844867005944252, -0.06493927538394928, -0.41551828384399414, 0.12817659974098206, 0.2220756858587265, 0.4869709610939026, -0.43914327025413513, -0.34835779666900635, -0.06641728430986404, 0.05780821293592453, 0.1464616358280182, -0.2764551639556885, -0.29851070046424866, -0.2866678237915039, 0.1043960303068161, 0.19518093764781952, 0.13155198097229004, -0.3587133288383484, 0.1205761507153511, 0.28779542446136475, 0.7980769276618958, -0.12607786059379578, 0.24910327792167664, -0.3694585859775543, -0.11611153930425644, -0.34361472725868225, -0.8592913150787354, -0.005705009680241346, -0.012118726968765259, -0.4427119493484497, -0.37619635462760925, -0.11490795761346817, -0.9706894159317017, -0.0938798263669014, 0.0442899614572525, 0.0345635823905468, -0.7324900031089783, -0.3777049779891968, -1.2185039520263672, -0.0022747579496353865, -0.20283988118171692, -0.042366787791252136, 0.6282259225845337, 0.38439077138900757, -0.24913492798805237, 0.032551102340221405, 0.2301146537065506, -0.04086507856845856, -0.3176385164260864, -0.31919917464256287, -0.054104119539260864, 0.04927302524447441, -0.009838586673140526, 0.03169514238834381, -0.18655893206596375, -0.08754119277000427, 0.05972037464380264, 0.11230305582284927, 0.11486295610666275, -0.01703125797212124, -0.15013772249221802, -0.024237610399723053, 0.12362881004810333, -0.08034307509660721, -0.06979959458112717, 0.02598339505493641, 0.05855061113834381, 0.06290929764509201, 0.09718568623065948, -0.10827724635601044, 0.21304672956466675, -0.09303483366966248, -0.1209637001156807, -0.34472182393074036, 0.03196626529097557, 0.15087789297103882, 0.15174131095409393, -0.07036677747964859, 0.06731545925140381, 0.008888138458132744, -0.053956516087055206, -0.08701421320438385, -0.11045776307582855, -0.05254488065838814, -0.20383942127227783, 0.1607445478439331, -0.05249206721782684, 0.2624359726905823, 0.11574864387512207, -0.05618271604180336, -0.06854042410850525, -0.2609153985977173, 0.2672119736671448, 0.07138772308826447, -0.08786056190729141, 0.06412050873041153, -0.06404228508472443, 0.014110380783677101, -0.10525506734848022, -0.03903639689087868, 0.06698629260063171, -0.09171818196773529, -0.16801154613494873, -0.05089947581291199, 0.13410064578056335, 0.11859685182571411, -0.0031892729457467794, 0.06092486530542374, -0.04993472993373871, 0.07383500784635544, 0.23263604938983917, 0.16740675270557404, -0.12254028767347336, -0.19424478709697723, -0.14000003039836884, 0.09884737432003021, 0.31281062960624695, -0.3967075049877167, 0.2641271650791168, 0.08125510066747665, 0.06094834953546524, 0.07212074100971222, 0.05770603194832802, 0.10444832593202591, 0.11736597120761871, -0.1610887050628662, 0.23158566653728485, 0.03820560872554779, -0.19114473462104797, -0.3286391496658325, 0.08699557930231094, 0.10767379403114319, -0.018762320280075073, 0.1372358500957489, 0.24888983368873596, 0.12086367607116699, -0.11053357273340225, -0.09919769316911697, -0.002631938550621271, 0.06158508360385895, 0.07938846200704575, -0.09571219235658646, 0.4091624915599823, 0.1474664807319641, 0.09449397772550583, 0.06453986465930939, -0.0427224338054657, 0.1032116562128067, -0.1087019145488739, -0.10504139214754105, -0.1771225929260254, 0.05934956669807434, 0.022320138290524483, -0.007007126696407795, -0.07234834134578705, 0.1208266094326973, 0.12393233180046082, -0.1278316229581833, -0.24069786071777344, -0.06508570164442062, 0.10335041582584381, -0.02208138071000576, -0.15580490231513977, -0.22548428177833557, -0.1761777102947235, 0.1644889861345291, -0.042899101972579956, -0.01987437903881073, -0.1099536195397377, 0.11784100532531738, 0.05150716379284859, -0.14378567039966583, -0.016489678993821144, 0.05055160075426102, -0.16038043797016144, 0.008478749543428421, 0.04890165105462074, 0.015109842643141747, 0.01369662955403328, -0.04499316215515137, -0.18424272537231445, 0.10713894665241241, 0.031797826290130615, -0.17061220109462738, -0.12266343832015991, 0.002350986236706376, 0.569433867931366, -0.34904929995536804, -0.5366292595863342, 0.09626626968383789, 0.5349515080451965, 0.04051319882273674, -0.06561753898859024, 0.3345753252506256, -0.06562545895576477, 0.1858185976743698, -0.1540050357580185, -0.1524316817522049, -0.032615553587675095, -0.20649075508117676, -0.07479798048734665, -0.013199289329349995, 0.08504233509302139, -0.03432884439826012, 0.10652139782905579, -0.09329931437969208, -0.10937999188899994, -0.21662859618663788, 0.16198661923408508, -0.03168053179979324, 0.09175552427768707, -0.009201779030263424, -0.09122432768344879, -0.032489877194166183, 0.0922095999121666, -0.12185178697109222, -0.0341498889029026, 0.04956848919391632, 0.1889507919549942, -0.031058229506015778, -0.006483365781605244, -0.08009922504425049, -0.09080838412046432, -0.0006079740123823285, -0.019073504954576492, 0.13558807969093323, 0.16915294528007507, -0.15624840557575226, -0.0552799291908741, 0.3433813750743866, -0.21993011236190796, 0.09562557190656662, -0.016926337033510208, 0.028149044141173363, -0.20677880942821503, -0.9301016926765442, -0.04318959638476372, -0.13367332518100739, -0.4372030198574066, 0.038508426398038864, -0.2755844295024872, -0.02027493342757225, -0.1499800980091095, -0.13398566842079163, 0.08750949800014496, -0.16413938999176025, -0.1042684018611908, -0.03944357484579086, -0.021781623363494873, -0.02823519892990589, -0.28769129514694214, 0.22328948974609375, -0.008643986657261848, 0.34015971422195435, 0.05633563920855522, 0.011586068198084831, -0.012715577147901058, 0.18873129785060883, -0.1896096020936966, 0.3848411738872528, 0.05940965190529823, -0.29408660531044006, -0.13329792022705078, 0.3766852915287018, 0.20510506629943848, -0.14108283817768097, -0.04226166754961014, 0.21149028837680817, -0.26872560381889343, 0.133689284324646, 0.06859508156776428, -0.16330187022686005, -0.03455899655818939, -0.1721305549144745, 0.40104639530181885, -0.23486800491809845, -0.133981853723526, -0.07949932664632797, -0.14301109313964844, -0.021566137671470642, -0.10816333442926407, -0.0654175654053688, -0.31007814407348633, -0.015366475097835064, -0.02417454868555069, -0.08590123057365417, -0.5100614428520203, 0.08099321275949478, -0.01486741378903389, -0.03549971804022789, 0.08427171409130096, -0.10432593524456024, 0.2733832001686096, 0.08142565935850143, -0.1535019725561142, -0.132276251912117, -0.12882938981056213, -0.004120860248804092, -0.3291882276535034, 0.12198255956172943, -0.23816734552383423, 0.024299249053001404, -0.07576237618923187, 0.1139753982424736, -0.04289130121469498, 0.00694334227591753, -0.09216848760843277, 0.16028574109077454, 0.22974397242069244, -0.1919863224029541, -0.294462114572525, -0.12347700446844101, -0.03597525507211685, -0.20603089034557343, 0.06891332566738129, 0.1545855700969696, -0.002468888880684972, -0.03714524209499359, 0.11663120985031128, -0.2605096697807312, -0.21192437410354614, -0.21171046793460846, -0.1817518174648285, 0.008331852033734322, 0.11800128221511841, -0.3940327763557434, -0.04619130119681358, 0.05350067466497421, 0.20782412588596344, 0.19154967367649078, 0.32269686460494995, -0.32033368945121765, 0.28117117285728455, 0.07251650840044022, -0.3555223047733307, 0.16340501606464386, -0.08546261489391327, -0.022860867902636528, -0.11329655349254608, -0.2498232126235962, -0.07455148547887802, -0.014720779843628407, -0.07064934819936752, 0.03360753506422043, 0.040574729442596436, 0.08329182118177414, -0.03695482015609741, -0.016354551538825035, -0.08380614221096039, -0.09890784323215485, -0.046919066458940506, 0.06661342084407806, 0.07028866559267044, -0.10417672991752625, 0.036154039204120636, 0.17136093974113464, 0.04210372269153595, 0.1925123631954193, -0.05971908941864967, 0.10634396970272064, 0.23733368515968323, 0.045355264097452164, -0.1189061626791954, 0.21763485670089722, 0.04018387570977211, -0.04089193046092987, 0.03714926540851593, 0.16194714605808258, -0.016960399225354195, 0.047134991735219955, -0.0006406340980902314, -0.1863650679588318, 0.10201604664325714, -0.27549540996551514, 0.2650781273841858, 0.11648835986852646, 0.0757046565413475, -0.011746179312467575, 0.39372825622558594, -0.04178909212350845, 0.1862991899251938, 0.2289847880601883, -0.19586598873138428, -0.01679159514605999, 0.22385907173156738, -0.3583640456199646, -0.01564396359026432, -0.051419954746961594, 0.07119304686784744, 0.206598162651062, -0.17850223183631897, 0.0878983587026596, 0.09707435220479965, 0.03156394138932228, -0.13261274993419647, 0.01157315168529749, -0.17616006731987, 0.06962385028600693, 0.19129043817520142, 0.12017729878425598, -0.07975433021783829, -0.2145175337791443, -0.07818949222564697, 0.11183919757604599, 0.17805787920951843, -0.19416260719299316, -0.00878205243498087, -0.04942235350608826, 0.11511463671922684, -0.32221850752830505, -0.2343026101589203, 0.168231800198555, -0.01683611236512661, -0.21748948097229004, 0.00397690013051033, 0.06221867352724075, -0.18769003450870514, 0.03475907817482948, -0.009120844304561615, 0.10221182554960251, 0.0194211695343256, -0.21453708410263062, 0.279792457818985, 0.0427025631070137, -0.11220041662454605, 0.017333155497908592, 0.4721091389656067, -0.08244043588638306, 0.3865404427051544, -0.1773744523525238, -0.06598290801048279, 0.4801574945449829, -0.03108440898358822, 0.11659099161624908, 0.12491806596517563, -0.02549820952117443, -0.11912284046411514, 0.01790560409426689, 0.2409169226884842, 0.06356067210435867, -0.012839489616453648, 0.03579344227910042, 0.06269145011901855, -0.17660146951675415, 0.0928339958190918, -0.011399118229746819, -0.025622054934501648, -0.11662022769451141, 0.1323825865983963, 0.21997025609016418, 0.053380031138658524, 0.13186447322368622, -0.05269724503159523, 0.2625746726989746, 0.013138422742486, 0.10133848339319229, -0.19385243952274323, 0.07383733242750168, -0.056198880076408386, -0.005309963598847389, -0.13452163338661194, 0.06310442090034485, -0.04856940731406212, -0.062231652438640594, 0.06263578683137894, -0.027096912264823914, -0.11219429969787598, 0.20071470737457275, 0.11181724816560745, -0.14866970479488373, 0.2731044590473175, 0.12393908947706223, 0.06601408869028091, -0.012325247749686241, 0.17897851765155792, 0.10465948283672333, 0.08760571479797363, -0.0030675160232931376, -0.29063957929611206, 0.13077504932880402, -0.0388505794107914, -0.17429055273532867, 0.06655231863260269, -0.2302241325378418, -0.09754560142755508, 0.16894565522670746, -0.11618391424417496, -0.06031457707285881, 0.11596197634935379, 0.013612898997962475, -0.10239315032958984, -0.18304210901260376, -0.013520819135010242, 0.07975336909294128, 0.26249513030052185, -0.03644244745373726, -0.17255578935146332, -0.16281571984291077, -0.0757235512137413, 0.27897822856903076, 0.2596154808998108, -0.03082949109375477, -0.19734564423561096, 0.08161187916994095, 0.1652326136827469, -0.25427594780921936, -0.03957658261060715, 0.16913272440433502, 0.09618795663118362, -0.26736798882484436, 0.24110965430736542, -0.11368272453546524, -0.0482337661087513, -0.09726900607347488, -0.168697327375412, 0.10524926334619522, 0.02604994736611843, -0.21919044852256775, 0.27247774600982666, 0.06920065730810165, -0.04624714329838753, -0.10140963643789291, 0.20556071400642395, 0.16251373291015625, 0.2936787009239197, 0.0790480524301529, 0.17705287039279938, 0.047957900911569595, -0.01694577932357788, 0.0945463478565216, -0.20626823604106903, 0.027652079239487648, 0.16229310631752014, -0.01098658237606287, 0.053651489317417145, -0.060363106429576874, -0.04709982872009277, -0.14511620998382568, 0.020939573645591736, -0.1420815885066986, 0.31726714968681335, 0.0686100572347641, 0.12654855847358704, -0.25707313418388367, -0.1115466058254242, -0.31712302565574646, -0.027424147352576256, 0.1697007715702057, -0.0781378522515297, 0.10227404534816742, -0.2804352045059204, -0.11839261651039124, -0.2428373545408249, -0.08035849779844284, 0.02572973258793354, 0.02526654489338398, 0.05276675522327423, -0.04018382728099823, -0.009852858260273933, -0.12118474394083023, -0.04031805321574211, 0.15531474351882935, -0.03726091980934143, -0.02094809152185917, -0.15032199025154114, 0.02303459867835045, -0.032612744718790054, -0.0737115815281868, -0.09531015902757645, 0.25856420397758484, -0.22351285815238953, -0.13842065632343292, 0.09849774837493896, -0.20933233201503754, 0.1876300871372223, 0.12440721690654755, 0.08800593763589859, 0.17254048585891724, 0.040514685213565826, 0.2244264930486679, 0.0020208004862070084, 0.056841641664505005, 0.15698809921741486, 0.10258510708808899, -0.13118526339530945, -0.17819641530513763, 0.1123044490814209, 0.23757673799991608, 0.0073652444407343864, -0.04967445507645607, -0.2235468327999115, -0.08107655495405197, 0.09347359091043472, 0.23293255269527435, 0.021733591333031654, -0.19108189642429352, 0.055301353335380554, 0.2587321102619171, 0.019214382395148277, 0.23503968119621277, 0.046910688281059265, 0.24791516363620758, 0.0017791016725823283, -0.08866283297538757, -0.13970164954662323, 0.09584899246692657, -0.1850345879793167, -0.09365146607160568, 0.17543251812458038, -0.0022744254674762487, -0.013138973154127598, -0.19215728342533112, -0.0624343566596508, 0.31525248289108276, -0.03209555894136429, -0.11351238936185837, 0.016930337995290756, 0.2517351508140564, -0.09464982151985168, 0.19669663906097412, -0.21919991075992584, -0.02196720615029335, 0.5674942135810852, 0.10249368846416473, -0.22492125630378723, 0.17483964562416077, 0.23540614545345306, 0.032785285264253616, -0.06313060969114304, -0.16145896911621094, 0.27040451765060425, -0.06379127502441406, -0.29903069138526917, -0.03037538006901741, -0.08014678210020065, 0.17241261899471283, -0.04617513716220856, -0.10974778980016708, -0.17793293297290802, -0.18333248794078827, 0.11281105875968933, 0.30223384499549866, -0.14198744297027588, -0.2151598334312439, -0.17726798355579376, -0.0030041574500501156, -0.11149410158395767, 0.10201461613178253, 0.03171699121594429, 0.027691390365362167, 0.0005884258425794542, -0.19869710505008698, 0.018853679299354553, 0.08053964376449585, -0.10083160549402237, 0.200708270072937, 0.11975150555372238, -0.035482678562402725, 0.2240132838487625, -0.3762575387954712, -0.040208447724580765, 0.5952364206314087, -0.22187286615371704, -0.05342711880803108, 0.2567272484302521, 0.018210243433713913, 0.20489269495010376, 0.102447509765625, 0.001668692333623767, 0.027662139385938644, -0.4604089856147766, 0.005204842425882816, -0.007401306182146072, -0.2767764627933502, 0.04517068341374397, -0.10522424429655075, 0.09343983978033066, 0.06690829247236252, -0.1435723900794983, -0.11277971416711807, 0.19845440983772278, 0.08073122799396515, -0.06963861733675003, -0.08277904987335205, -0.12203115224838257, 0.18321342766284943, -0.019158484414219856, 0.10862588882446289, -0.14028555154800415, -0.041217826306819916, -0.17934443056583405, 0.20615728199481964, 0.10578321665525436, -0.016670389100909233, 0.09216015040874481, -0.019060561433434486, 0.03817637637257576, -0.3350127041339874, -0.08308733999729156, -0.07647140324115753, 0.017882326617836952, -0.04505673050880432, -0.05485876649618149, 0.009646574966609478, 0.011957540176808834, 0.20327720046043396, -0.15264111757278442, 0.1724967062473297, 0.0878894031047821, -0.4667493402957916, 0.40184950828552246, 0.20570425689220428, -0.3267194330692291, 0.09027872234582901, -0.050613582134246826, 0.1155892089009285, 0.05875571817159653, -0.07031894475221634, -0.3900146484375, 0.18741878867149353, 0.19912095367908478, -0.004500036593526602, 0.004787664394825697, 0.047757696360349655, -0.04805013909935951, -0.09431971609592438, 0.12412911653518677, 1.336754322052002, 0.583252489566803, 0.5213884115219116, -0.8454896807670593, -0.8621760606765747, 0.06294287741184235, 0.28299155831336975, 0.06174163147807121, 0.30673137307167053, 0.5513929128646851, -1.1280182600021362, 0.6190773248672485, 0.10695932060480118, -1.0254772901535034, -0.32791781425476074, -0.15678294003009796, -0.2760269045829773, -0.11611632257699966, 0.18514446914196014, -0.1728953868150711, 0.01124100387096405, 0.14000572264194489, -0.055481962859630585, -0.22557000815868378, -0.39528653025627136, 0.0027921986766159534, -0.16415579617023468, -0.13347122073173523, 0.035562556236982346, -0.062355395406484604, 0.22681453824043274, -0.07160532474517822, -0.3066178262233734, 0.0020707042422145605, 0.19891297817230225, -0.14822620153427124, -0.05837326496839523, -0.07291807234287262, 0.4038943350315094, 0.17664270102977753, -0.2903546988964081, 0.00471588084474206, -0.25126707553863525, 0.13978992402553558, -0.1940988153219223, -0.030409669503569603, 0.3178134858608246, 0.06077056750655174, -0.05621780455112457, 0.25249651074409485, 0.05927315354347229, -0.2205774039030075, -0.11506906896829605, -0.18919074535369873, -0.09812505543231964, 0.15106932818889618, 0.30524247884750366, 0.03985357657074928, -0.002808862365782261, 0.044505298137664795, 0.13498035073280334, -0.07679633051156998, -0.01205950416624546, 0.2905242145061493, -0.16355814039707184, 0.08532487601041794, -0.04488421976566315, 0.3312598168849945, 0.018742380663752556, -0.12210925668478012, 0.3373440206050873, 0.044889505952596664, -0.15054982900619507, -0.1569729447364807, -0.04673989862203598, -0.19700407981872559, -0.08684303611516953, 0.1718461662530899, 0.11129368096590042, -0.05768189951777458, 0.2840573191642761, -0.13122688233852386, -0.06396345794200897, 0.17466232180595398, 0.06583968549966812, 0.013393736444413662, 0.12696462869644165, -0.071556955575943, 0.4017825424671173, 0.32851454615592957, -0.020904475823044777, 0.4056316316127777, -0.28655314445495605, -0.31719425320625305, -0.19381043314933777, -0.17593760788440704, -0.2012494057416916, 0.08616665005683899, -0.005614958703517914, -0.14636178314685822, 0.056151147931814194, 0.21440714597702026, -0.01325642503798008, 0.046509016305208206, -0.04935700446367264, 0.1632569432258606, -0.12066997587680817, 0.21434634923934937, 0.12339789420366287, 0.11388520896434784, -0.28533968329429626, 0.03286578133702278, -0.1592366099357605, -0.11719536781311035, -0.07623706012964249, -0.15398935973644257, 0.1359221488237381, -0.24180467426776886, -0.0669446587562561, 0.004928754176944494, -0.3047168254852295, -0.05357056111097336, 0.2373829185962677, -0.04290162771940231, 0.3589855432510376, 0.15033695101737976, -0.04107239842414856, -0.13543440401554108, -0.23849569261074066, 0.21903063356876373, -0.2693142294883728, 0.12611761689186096, 0.292824387550354, -0.30034202337265015, -0.05847051739692688, 0.23651786148548126, -0.03782530501484871, 0.13289086520671844, 0.015298761427402496, 0.08934444934129715, -0.18512114882469177, 0.011116684414446354, 0.27369996905326843, -0.014724167063832283, -0.23684915900230408, -0.11254829168319702, -0.022124292328953743, 0.1573173701763153, 0.15614573657512665, 0.11956267803907394, -0.14325159788131714, -0.3834075629711151, 0.04796959459781647, -0.06884581595659256, -0.029915478080511093, -0.10834239423274994, 0.21565355360507965, 0.07908104360103607, -0.030896281823515892, 0.18954657018184662, -0.04760899767279625, 0.19221672415733337, 0.06965573132038116, -0.1656196117401123, -0.17416419088840485, 0.07575522363185883, -0.20717695355415344, 0.1064925491809845, -0.3467128872871399, -0.03998677060008049, 0.06645524501800537, -0.3345705270767212, 0.2940139174461365, -0.07608956843614578, 0.21958498656749725, 0.07509180903434753, -0.06910907477140427, 0.2870352268218994, -0.013021882623434067, -0.11385652422904968, -0.07711627334356308, -0.01819440722465515, 0.003129055956378579, -0.36693111062049866, 0.18265946209430695, -0.24678930640220642, -0.07032918930053711, -0.2791306972503662, -0.07984671741724014, 0.2595817446708679, 0.14951534569263458, -0.12995699048042297, -0.011360437609255314, 0.16430215537548065, -0.28301894664764404, -0.4341513216495514, 0.05663089454174042, -0.3785708546638489, 0.4505986273288727, -0.33243077993392944, -0.3064626455307007, 0.16308462619781494, 0.23276609182357788, -0.02691550925374031, 0.07011741399765015, 0.3989529609680176, -0.1761246621608734, -0.22686341404914856, -0.0511559434235096, 0.11951041966676712, 0.14347662031650543, 0.4295976161956787, -0.22385279834270477, 0.19075076282024384, -0.22406236827373505, 0.18106681108474731, 0.1411377191543579, 0.12200600653886795, -0.3242396116256714, -0.07360659539699554, -0.3266235888004303, -0.021453939378261566, 0.01852157711982727, -0.2544417977333069, -0.18386495113372803, 0.19982220232486725, 0.22727924585342407, 0.4614366590976715, -0.03250538930296898, -0.01226107869297266, -0.23878401517868042, -0.02640175260603428, 0.0463869534432888, 0.27486780285835266, 0.10960317403078079, 0.04861845448613167, -0.18380621075630188, -0.19719117879867554, -0.21117496490478516, 0.15216371417045593, 0.31405845284461975, -0.027430592104792595, 0.1855817288160324, 0.002317913342267275, -0.29917871952056885, -0.19324390590190887, 0.18011565506458282, 0.2992677688598633, -0.011410707607865334, 0.23707200586795807, -0.24316124618053436, 0.20993047952651978, 0.09895709156990051, -0.12786468863487244, 0.001141678891144693, 0.03710697218775749, -0.1749332696199417, 0.2576809227466583, -0.2555699646472931, -0.3579317629337311, -0.07469257712364197, -0.2949737012386322, 0.05035294592380524, -0.21121922135353088, -0.38162362575531006, 0.0035570114850997925, 0.0949346050620079, -0.21281975507736206, -0.05506301298737526, -0.0929545983672142, 0.1036757379770279, 0.059416912496089935, -0.19294412434101105, 0.13856549561023712, 0.1102953553199768, 0.03388459235429764, 0.014441746287047863, 0.3298930823802948, 0.10822568088769913, 0.19803261756896973, -0.22641362249851227, 0.21006843447685242, -0.04039911553263664, 0.21960414946079254, 0.040631167590618134, -0.23052643239498138, -0.008591512218117714, 0.03757853806018829, 0.0916380062699318, -0.025211624801158905, -0.10734188556671143, -0.010054834187030792, -0.18455106019973755, 0.10034466534852982, 0.4684699475765228, -0.4603979289531708, 0.004733656067401171, 0.08309166878461838, -0.010903964750468731, -0.11982652544975281, 0.04651569575071335, 0.13003350794315338, 0.040356457233428955, -0.05863617733120918, -0.10735390335321426, 0.002495264634490013, 0.010859472677111626, 0.006275988183915615, -0.07709412276744843, -0.29457393288612366, -0.27492716908454895, -0.15380118787288666, 0.1518978625535965, 0.012516439892351627, -0.13406507670879364, -0.07663750648498535, -0.28665047883987427, 0.1423870027065277, 0.24029791355133057, -0.0010890488047152758, -0.0555291548371315, 0.0587492510676384, -0.1768266260623932, -0.2731253206729889, 0.1915830671787262, -0.008794665336608887, 0.20111751556396484, 0.06395953893661499, -0.08755239099264145, -0.16165566444396973, 0.15572938323020935, -0.1498754322528839, 0.20420025289058685, -0.12922115623950958, 0.0693783387541771, 0.06499501317739487, -0.00822169054299593, -0.02217181958258152, 0.08567766100168228, 0.05182896926999092, -0.03008924052119255, -0.07196031510829926, -0.379118949174881, -0.009082963690161705, 0.12102340906858444, -0.06901165843009949, 0.009552321396768093, -0.03327660635113716, 0.1357536017894745, 0.07317807525396347, 0.036875009536743164, 0.12050867825746536, -0.09295015782117844, -0.20332098007202148, -0.14218096435070038, 0.05434435233473778, -0.04249514266848564, 0.08392222970724106, -0.008220875635743141, -0.29597052931785583, -0.011773238889873028, 0.13335365056991577, 0.16224651038646698, -0.001752086915075779, 0.04730309173464775, -0.10305462032556534, 0.06109711155295372, -0.13369257748126984, 0.07359430938959122, -0.20912984013557434, -0.4024573266506195, -0.12575754523277283, -0.1692606657743454, -0.15383724868297577, 0.2786005139350891, -0.16896970570087433, -0.10119125992059708, 0.2443193644285202, 0.09680738300085068, 0.025319816544651985, -0.15142680704593658, 0.015877120196819305, -0.11061516404151917, -0.2055942565202713, -0.110384501516819, 0.047420721501111984, 0.17968496680259705, 0.1012052670121193, 0.26357823610305786, 0.21532243490219116, -0.20487017929553986, 0.8600917458534241, 0.348636269569397, -0.2069762796163559, 0.23361994326114655, -0.024488789960741997, -0.11318201571702957, -0.2622876763343811, -0.22522959113121033, 0.10473554581403732, -0.10660751909017563, 0.038811635226011276, -0.013361826539039612, 0.20040284097194672, -0.12413907051086426, -0.2272356152534485, -0.3646605312824249, 0.2920505702495575, -0.017557796090841293, 0.06848043203353882, -0.01577109843492508, 0.1900157928466797, -0.2895059287548065, 0.03992991894483566, -0.06479652971029282, 0.39189258217811584, -0.02948782965540886, 0.07998593151569366, 0.4343993663787842, -0.29429376125335693, -0.1537192016839981, 0.02925448678433895, 0.10729646682739258, 0.05540508031845093, 0.15399476885795593, 0.21727541089057922, 0.13631707429885864, 0.0013738401466980577, 0.064741350710392, 0.07350446283817291, 0.1240488737821579, 0.15294264256954193, 0.027164921164512634, 0.12200799584388733, 0.08077134191989899, 0.2197733223438263, -0.06559661030769348, -0.06704206764698029, 1.0249865055084229, 0.5359183549880981, -0.04349809139966965, 0.18924611806869507, -0.10888193547725677, 0.011904515326023102, -0.23768721520900726, -0.0492023341357708, 0.0007754229591228068, -0.0749787911772728, 0.03980077803134918, 0.1577528864145279, 0.4598044753074646, -0.12771902978420258, 0.006606532726436853, 0.4569926857948303, 0.1815767139196396, 0.08776389807462692, 0.056947894394397736, 0.18254664540290833, 0.0028981941286474466, -0.20839695632457733, 0.022892428562045097, 0.08386053889989853, 0.4074098765850067, 0.17466884851455688, -0.05727827176451683, 0.6188937425613403, -0.5045732259750366, -0.02824890799820423, 0.13423161208629608, 0.0388721227645874, -0.07790543884038925, -0.0004126003186684102, 0.08360433578491211, -0.28562691807746887, -0.028794148936867714, -0.13960596919059753, 0.07569598406553268, 0.20308314263820648, 0.09174052625894547, 0.18972563743591309, -0.056626059114933014, 0.44898146390914917, -0.061011023819446564, 0.11950276792049408, 0.21616417169570923, 0.15877804160118103, 0.6103876233100891, 0.5053196549415588, 0.1309327632188797, 0.06500276178121567, 0.2652721703052521, 0.11766476184129715, 0.0238301083445549, -0.24874930083751678, 0.37309542298316956, 0.04621223360300064, -0.3240906894207001, -0.216282919049263, 0.27177050709724426, -0.0464593805372715, -0.19952823221683502, 0.15391112864017487, -0.15598174929618835, -0.1480550765991211, 0.03734694421291351, 0.25632429122924805, -0.03323562443256378, 0.10391198098659515, 0.11153464019298553, 0.14045636355876923, 0.202152818441391, 0.04387154057621956, -0.31384214758872986, 0.7456448078155518, -0.5293542146682739, -0.39527204632759094, -0.3194925785064697, 0.10905290395021439, -0.12368787080049515, -0.18580810725688934, 0.32000744342803955, -0.18347974121570587, 0.037826504558324814, -0.3138101398944855, 0.3729338049888611, 0.22541213035583496, 0.22398285567760468, 0.15517182648181915, -0.20861755311489105, -0.006998798344284296, -0.14596541225910187, -0.08959809690713882, 0.062453318387269974, -0.0716332271695137, 0.13985572755336761, 0.16375552117824554, -0.2947888970375061, -0.0933990553021431, 0.01182342879474163, -0.030983632430434227, -0.05408621206879616, -0.021778900176286697, 0.015292140655219555, -0.061085157096385956, -0.14710493385791779, -0.08670203387737274, 0.025844328105449677, -0.05099048838019371, -0.24605633318424225, -0.030983714386820793, 0.02406039461493492, -0.13215914368629456, -0.04660986736416817, -0.12862801551818848, -0.0694928765296936, 0.10252518206834793, 0.06211778149008751, -0.10721610486507416, 0.2531762421131134, 0.19419580698013306, -0.006424678955227137, -0.18541058897972107, 0.2738991379737854, -0.36922380328178406, -0.11594509333372116, -0.04902344197034836, 0.05282486975193024, -0.2582995295524597, -0.10102828592061996, 0.05995261296629906, -0.04925647750496864, 0.2978743016719818, -0.03960217535495758, 0.10872675478458405, 0.1359567642211914, -0.19374772906303406, -0.0667676031589508, -0.026212679222226143, 0.24711167812347412, 0.002050715731456876, 0.07340601831674576, -0.19670003652572632, -0.09062707424163818, 0.06595808267593384, -0.25206947326660156, -0.05544308200478554, -0.010823803022503853, 0.07303386926651001, 0.02511589787900448, 0.10643478482961655, -0.30218544602394104, 0.23286846280097961, 0.1748046725988388, -0.07456634193658829, -0.1291850060224533, 0.4512529671192169, 0.29504430294036865, 0.11505840718746185, -0.004519542213529348, -0.16208133101463318, -0.16210301220417023, -0.11505185812711716, 0.39710715413093567, 0.1858091950416565, 0.09240250289440155, -0.1062014028429985, -0.11228559911251068, -0.009299350902438164, 0.22554804384708405, 