{
    "in_shape": [
        null,
        null,
        1
    ],
    "layers": [
        {
            "type": "lstm",
            "activation": "",
            "shape": [
                null,
                null,
                16
            ],
            "weights": [
                [
                    [
                        -0.016563905403017998,
                        -0.24573513865470886,
                        -0.1540113240480423,
                        0.13770760595798492,
                        0.2067672163248062,
                        -0.016426483169198036,
                        -0.060465507209300995,
                        0.00777263892814517,
                        -0.1054086685180664,
                        -0.018146391957998276,
                        0.1762496680021286,
                        -0.251968115568161,
                        0.04774611070752144,
                        -0.6521590352058411,
                        0.23410719633102417,
                        -0.09696634113788605,
                        0.1377507597208023,
                        -0.17225143313407898,
                        -0.1494399458169937,
                        0.0246433038264513,
                        0.26195448637008667,
                        -0.026500949636101723,
                        -0.24995887279510498,
                        0.3509064316749573,
                        0.5012426376342773,
                        0.07213666290044785,
                        0.1529897302389145,
                        0.1989288032054901,
                        -0.06157558783888817,
                        -0.1213020384311676,
                        0.06710144877433777,
                        0.18343405425548553,
                        0.37859347462654114,
                        -0.03190901130437851,
                        0.37056198716163635,
                        3.2352969646453857,
                        -0.08332818001508713,
                        0.27236250042915344,
                        0.4227532744407654,
                        0.008744955994188786,
                        -0.0025002697948366404,
                        -0.47840553522109985,
                        0.20692363381385803,
                        -0.10710323601961136,
                        0.3457344174385071,
                        -0.2547604739665985,
                        1.0748685598373413,
                        -0.022578179836273193,
                        0.2374330461025238,
                        0.2407299280166626,
                        -0.06795849651098251,
                        -0.4113112986087799,
                        0.21593023836612701,
                        0.1316675990819931,
                        -0.12537485361099243,
                        0.05623529106378555,
                        0.066830113530159,
                        -0.07942702621221542,
                        0.2589939832687378,
                        0.0002974649833049625,
                        0.05808522552251816,
                        -0.02774043381214142,
                        0.07057581096887589,
                        0.28234076499938965
                    ]
                ],
                [
                    [
                        0.05515424907207489,
                        -0.15433727204799652,
                        0.30904677510261536,
                        0.1289215087890625,
                        0.48159652948379517,
                        0.2649773955345154,
                        0.018259240314364433,
                        0.3554712235927582,
                        -0.24704419076442719,
                        0.046530138701200485,
                        0.4059859812259674,
                        -0.47993868589401245,
                        0.11299638450145721,
                        -0.26141849160194397,
                        0.02140183001756668,
                        -0.5625054240226746,
                        0.13616107404232025,
                        0.08802538365125656,
                        -0.22787640988826752,
                        -0.10199815779924393,
                        0.24797306954860687,
                        0.5989294648170471,
                        -0.13837696611881256,
                        0.24407675862312317,
                        -0.031471557915210724,
                        -0.38726410269737244,
                        0.5945703983306885,
                        -0.5615653991699219,
                        -0.12067124247550964,
                        0.5706394910812378,
                        -0.2727603018283844,
                        0.3086997866630554,
                        0.27944350242614746,
                        0.11780284345149994,
                        -0.626742422580719,
                        -0.17312374711036682,
                        -0.3444148600101471,
                        -0.5456415414810181,
                        0.7320466041564941,
                        -0.09101107716560364,
                        0.08263030648231506,
                        -0.5730655789375305,
                        0.3805149793624878,
                        0.07727670669555664,
                        -0.05922176316380501,
                        0.27157148718833923,
                        0.19785112142562866,
                        0.2669604420661926,
                        0.3665350377559662,
                        0.26843613386154175,
                        0.2701525092124939,
                        0.035140492022037506,
                        0.32339826226234436,
                        0.5785878896713257,
                        0.17774757742881775,
                        0.02480985037982464,
                        -0.12316208332777023,
                        0.008581495843827724,
                        0.4795992970466614,
                        0.4955711364746094,
                        0.06360603123903275,
                        -0.10602246969938278,
                        0.0661354660987854,
                        -0.1030983030796051
                    ],
                    [
                        -0.1233973577618599,
                        0.07795583456754684,
                        -0.1643850952386856,
                        0.34163424372673035,
                        0.06654632836580276,
                        -0.09494876116514206,
                        0.59555584192276,
                        -0.19940856099128723,
                        -1.3169277906417847,
                        0.37683534622192383,
                        -0.12807731330394745,
                        0.047223128378391266,
                        -0.004461618606001139,
                        -1.2568920850753784,
                        0.25446292757987976,
                        -1.2973579168319702,
                        0.5429394245147705,
                        0.548747181892395,
                        0.012027060613036156,
                        -0.008837086148560047,
                        0.20910906791687012,
                        0.4986084997653961,
                        -0.007917611859738827,
                        0.7180298566818237,
                        1.0514522790908813,
                        0.07264179736375809,
                        0.33296024799346924,
                        0.26050859689712524,
                        0.04770737513899803,
                        1.2423232793807983,
                        0.06812140345573425,
                        1.3404234647750854,
                        0.09703709185123444,
                        0.280765175819397,
                        -0.14361846446990967,
                        -0.05473948270082474,
                        -0.014182446524500847,
                        -0.3293164372444153,
                        0.15687471628189087,
                        -0.00494092283770442,
                        0.08166372030973434,
                        0.014125123620033264,
                        -0.3994501829147339,
                        -0.016639918088912964,
                        0.1761406660079956,
                        -0.09974580258131027,
                        -0.12164682894945145,
                        0.0968363955616951,
                        0.4191342890262604,
                        0.7493652105331421,
                        0.10786415636539459,
                        -0.2782219350337982,
                        0.14063595235347748,
                        0.23051288723945618,
                        0.26603901386260986,
                        0.37357765436172485,
                        0.3890627324581146,
                        0.3452610671520233,
                        0.38214802742004395,
                        0.1064792275428772,
                        0.3122941553592682,
                        0.4772758483886719,
                        0.4127978980541229,
                        -0.07636230438947678
                    ],
                    [
                        -0.011146937496960163,
                        -0.10330548137426376,
                        0.028741512447595596,
                        0.23799990117549896,
                        -0.23204505443572998,
                        0.3854788839817047,
                        -0.003997372929006815,
                        -0.1159372329711914,
                        -0.4829480051994324,
                        -0.04559614881873131,
                        0.18348416686058044,
                        -0.15845730900764465,
                        -0.18921621143817902,
                        -0.5056066513061523,
                        0.17488892376422882,
                        -0.33572718501091003,
                        -0.06027337536215782,
                        0.13257554173469543,
                        -0.04808979853987694,
                        0.08102540671825409,
                        -0.3799951374530792,
                        0.11622807383537292,
                        -0.44184744358062744,
                        0.24643728137016296,
                        -0.05487542226910591,
                        0.036759164184331894,
                        0.15725673735141754,
                        0.08788319677114487,
                        -0.3271303176879883,
                        0.5697078108787537,
                        0.2665342092514038,
                        -0.12270904332399368,
                        0.49683672189712524,
                        0.058302294462919235,
                        0.4808386266231537,
                        -0.1696338653564453,
                        0.2943744361400604,
                        0.49123305082321167,
                        0.7134919166564941,
                        -0.01999301090836525,
                        0.3966510593891144,
                        -0.27257850766181946,
                        0.22676588594913483,
                        -0.653374969959259,
                        0.3078540861606598,
                        -0.036973245441913605,
                        0.11972934752702713,
                        -0.6832825541496277,
                        -0.029130352661013603,
                        0.07238522171974182,
                        0.042201798409223557,
                        0.18723942339420319,
                        -0.1800379455089569,
                        0.00950230285525322,
                        -0.14872100949287415,
                        -0.22398948669433594,
                        -0.32017913460731506,
                        0.046190012246370316,
                        0.19599996507167816,
                        0.08549156785011292,
                        -0.20874612033367157,
                        0.001447336166165769,
                        0.0779663622379303,
                        0.0937071293592453
                    ],
                    [
                        0.03135458007454872,
                        0.460653156042099,
                        -0.10894758999347687,
                        0.09273643791675568,
                        0.06568486243486404,
                        -0.20003287494182587,
                        -0.14988969266414642,
                        -0.3798668384552002,
                        0.12112624943256378,
                        -0.42163509130477905,
                        -0.07907941192388535,
                        0.20027846097946167,
                        0.2791474461555481,
                        0.26801958680152893,
                        0.28598955273628235,
                        0.13547548651695251,
                        -0.40697166323661804,
                        -0.0641661062836647,
                        0.060863446444272995,
                        -0.34581536054611206,
                        -0.07124961912631989,
                        -0.31219053268432617,
                        -0.10186119377613068,
                        -0.02420797385275364,
                        0.0864599272608757,
                        -0.010835066437721252,
                        -0.5696716904640198,
                        0.29267558455467224,
                        0.07391731441020966,
                        -0.7349294424057007,
                        0.3907776474952698,
                        -0.13751660287380219,
                        -0.7267574071884155,
                        0.23354275524616241,
                        -0.6811536550521851,
                        0.5589421391487122,
                        0.3705300986766815,
                        -0.274174302816391,
                        -0.9298264980316162,
                        -0.4004451036453247,
                        -0.3045288622379303,
                        -0.9991433024406433,
                        -0.5232679843902588,
                        -0.13318690657615662,
                        -0.3271680176258087,
                        -0.4295544922351837,
                        -0.6885417103767395,
                        0.19910795986652374,
                        -0.14902563393115997,
                        0.10772795975208282,
                        -0.10800443589687347,
                        -0.6141135096549988,
                        0.1431938260793686,
                        0.04017359018325806,
                        -0.10041143000125885,
                        0.11673122644424438,
                        -0.028402606025338173,
                        -0.6754363775253296,
                        -0.34574297070503235,
                        -0.29714536666870117,
                        0.24277274310588837,
                        -0.21536529064178467,
                        0.1863507777452469,
                        0.07699649780988693
                    ],
                    [
                        -0.12327350676059723,
                        0.10113682597875595,
                        -0.06215637922286987,
                        -0.38762158155441284,
                        0.20517879724502563,
                        0.006439215037971735,
                        -0.052104268223047256,
                        -0.07633543014526367,
                        0.12753558158874512,
                        -0.21036703884601593,
                        -0.082377128303051,
                        0.16148626804351807,
                        0.25265422463417053,
                        0.08505454659461975,
                        -0.4011895954608917,
                        -0.11475890129804611,
                        -0.11742054671049118,
                        0.35769349336624146,
                        0.07554470747709274,
                        0.026718487963080406,
                        0.2687539756298065,
                        0.0988684818148613,
                        -0.28748664259910583,
                        -0.11400441825389862,
                        0.36368754506111145,
                        -0.2717744708061218,
                        -0.2437690943479538,
                        -0.36678335070610046,
                        0.34176740050315857,
                        -0.44706058502197266,
                        -0.20026245713233948,
                        0.22738169133663177,
                        0.2435232549905777,
                        0.06878507137298584,
                        -0.6425873637199402,
                        0.1774209439754486,
                        0.010114957578480244,
                        -0.5710335969924927,
                        0.015426453202962875,
                        -0.30075693130493164,
                        0.14050446450710297,
                        0.06998460739850998,
                        -0.22093430161476135,
                        -0.600567638874054,
                        0.00498762633651495,
                        0.14128415286540985,
                        -0.3254791796207428,
                        -0.10781591385602951,
                        -0.20369264483451843,
                        -0.03276500105857849,
                        -0.11291048675775528,
                        -0.5172908902168274,
                        0.2606850564479828,
                        -0.22123892605304718,
                        0.0746137872338295,
                        0.02254827506840229,
                        0.1120467260479927,
                        -0.06934477388858795,
                        -0.2722455561161041,
                        0.09430432319641113,
                        0.1889129877090454,
                        -0.018297046422958374,
                        -0.297139972448349,
                        -0.024478578940033913
                    ],
                    [
                        0.14286713302135468,
                        -0.04956093057990074,
                        0.35372835397720337,
                        0.6638959050178528,
                        -0.5694096684455872,
                        -0.2239091694355011,
                        0.10783301293849945,
                        -0.018324241042137146,
                        0.39117205142974854,
                        0.13459396362304688,
                        -0.39016541838645935,
                        -0.47643670439720154,
                        0.1194322407245636,
                        -1.0083203315734863,
                        0.7401670217514038,
                        -0.40436655282974243,
                        0.455903559923172,
                        0.06313659250736237,
                        0.3966127932071686,
                        0.2773900330066681,
                        -0.24190884828567505,
                        -0.23001283407211304,
                        0.03412292152643204,
                        0.17853479087352753,
                        0.08444328606128693,
                        0.37279650568962097,
                        0.08873675018548965,
                        -0.3715301752090454,
                        0.017805779352784157,
                        1.3207229375839233,
                        0.30885791778564453,
                        0.8578382730484009,
                        0.3621891438961029,
                        -0.042961422353982925,
                        -0.2912198305130005,
                        -0.010785160586237907,
                        -0.6670605540275574,
                        -0.159633070230484,
                        0.46590715646743774,
                        0.38197681307792664,
                        -0.03455374762415886,
                        -0.05292036011815071,
                        0.38266247510910034,
                        -0.8198755979537964,
                        0.1391378790140152,
                        -0.0762530118227005,
                        -0.19578363001346588,
                        0.2381567507982254,
                        -0.24002330005168915,
                        -0.006422772537916899,
                        0.2266629934310913,
                        0.652620792388916,
                        -0.37615257501602173,
                        -0.005546728614717722,
                        0.5467007160186768,
                        -0.07895684987306595,
                        0.2726544439792633,
                        0.28926825523376465,
                        0.2737872004508972,
                        0.3574325740337372,
                        0.24227523803710938,
                        0.36072152853012085,
                        0.6137896180152893,
                        0.6478409171104431
                    ],
                    [
                        0.08853314816951752,
                        -0.723251223564148,
                        0.1895790845155716,
                        0.37282881140708923,
                        -0.28804299235343933,
                        0.22332239151000977,
                        -0.08088399469852448,
                        0.46252644062042236,
                        0.5770140886306763,
                        0.2336486130952835,
                        0.2483050525188446,
                        -0.12563002109527588,
                        0.020592257380485535,
                        -0.03676604479551315,
                        -0.04276581108570099,
                        0.18125520646572113,
                        -0.08929137140512466,
                        -0.513968288898468,
                        0.08365333080291748,
                        -0.0855942815542221,
                        -0.0071643334813416,
                        -0.7545813322067261,
                        0.19446690380573273,
                        -0.21798089146614075,
                        -0.3429596722126007,
                        -0.44124677777290344,
                        0.11621036380529404,
                        0.30454424023628235,
                        -0.38776519894599915,
                        -0.1296882927417755,
                        0.06883390992879868,
                        -0.09202168881893158,
                        0.08557669818401337,
                        0.15100519359111786,
                        -0.24950818717479706,
                        -0.046399641782045364,
                        -0.49690380692481995,
                        -0.6152933239936829,
                        1.098023533821106,
                        0.22805766761302948,
                        -0.5963261723518372,
                        -0.10623613744974136,
                        0.2882886826992035,
                        0.27896633744239807,
                        0.1448799967765808,
                        0.10351329296827316,
                        0.034812647849321365,
                        0.011742829345166683,
                        0.015342474915087223,
                        0.021898679435253143,
                        0.20598378777503967,
                        -0.2638452351093292,
                        -0.038463059812784195,
                        1.221767544746399,
                        -0.23987770080566406,
                        -0.36624419689178467,
                        -0.19295229017734528,
                        0.38751086592674255,
                        0.25902417302131653,
                        0.1638914793729782,
                        -0.07453730702400208,
                        -0.10728088021278381,
                        -0.15796813368797302,
                        -0.0016657912638038397
                    ],
                    [
                        0.3236475884914398,
                        -0.14729316532611847,
                        -0.04830373823642731,
                        0.39654695987701416,
                        0.1993325650691986,
                        0.5784127116203308,
                        -0.043340835720300674,
                        -0.04496905580163002,
                        0.07832441478967667,
                        0.06877798587083817,
                        0.5357744693756104,
                        -0.4486854672431946,
                        0.18719394505023956,
                        0.061407748609781265,
                        0.13300713896751404,
                        0.25746995210647583,
                        -0.03605590760707855,
                        -0.5216144919395447,
                        -0.5762789845466614,
                        0.09592104703187943,
                        -0.18840919435024261,
                        0.05134201422333717,
                        0.211374893784523,
                        -0.07391489297151566,
                        -0.31838473677635193,
                        -0.0769605040550232,
                        0.5060294270515442,
                        0.14018651843070984,
                        0.18286021053791046,
                        -0.4728197157382965,
                        0.09738454222679138,
                        -0.17235834896564484,
                        0.0859953761100769,
                        -0.3135232627391815,
                        0.1607707440853119,
                        0.245760977268219,
                        0.036901310086250305,
                        -0.19509682059288025,
                        0.6077333092689514,
                        0.1689431369304657,
                        0.3910910487174988,
                        0.1087944433093071,
                        0.06501579284667969,
                        -0.0033304754178971052,
                        0.20024901628494263,
                        0.4840840995311737,
                        -0.45554837584495544,
                        -0.4378907084465027,
                        0.2733563482761383,
                        0.0820637047290802,
                        -0.0037538553588092327,
                        0.07214471697807312,
                        0.010697613470256329,
                        0.3348071873188019,
                        -0.05689764395356178,
                        -0.09146156162023544,
                        0.138865664601326,
                        -0.026088275015354156,
                        0.46557366847991943,
                        0.24893975257873535,
                        0.07389917969703674,
                        -0.09640055149793625,
                        0.025532662868499756,
                        -0.22733846306800842
                    ],
                    [
                        -0.17114335298538208,
                        -0.24297386407852173,
                        0.3147393465042114,
                        0.09445735067129135,
                        -0.1010122001171112,
                        -0.025772519409656525,
                        -0.028060631826519966,
                        -0.10452007502317429,
                        0.006732568144798279,
                        -0.12970219552516937,
                        0.4807037115097046,
                        -0.04573238268494606,
                        -0.166648730635643,
                        0.09904075413942337,
                        0.11449681967496872,
                        0.32805827260017395,
                        -0.34603896737098694,
                        -0.23361867666244507,
                        0.40865930914878845,
                        0.19470982253551483,
                        -0.23852206766605377,
                        0.1699870228767395,
                        0.019457263872027397,
                        0.0828656554222107,
                        -0.3853274881839752,
                        -0.12182009965181351,
                        0.29304465651512146,
                        0.2319846898317337,
                        -0.13773491978645325,
                        -0.2216513752937317,
                        0.19170144200325012,
                        -0.08214204758405685,
                        0.41775834560394287,
                        -0.041720177978277206,
                        -0.0357864648103714,
                        -0.03196856752038002,
                        -0.22146688401699066,
                        0.05805377662181854,
                        0.367779940366745,
                        -0.27891942858695984,
                        0.3204129934310913,
                        0.11614120006561279,
                        0.4577484428882599,
                        -0.23635528981685638,
                        0.1895267367362976,
                        0.03882835432887077,
                        -0.16331753134727478,
                        0.409078985452652,
                        0.021427389234304428,
                        0.10094297677278519,
                        0.14270025491714478,
                        -0.6981673836708069,
                        -0.22728663682937622,
                        0.19181743264198303,
                        0.24557161331176758,
                        -0.10119394212961197,
                        -0.1917032152414322,
                        -0.20072059333324432,
                        0.07610210031270981,
                        0.21526029706001282,
                        -0.054096855223178864,
                        -0.06693974137306213,
                        0.07429500669240952,
                        -0.13657128810882568
                    ],
                    [
                        -0.09168054163455963,
                        -0.06288310140371323,
                        -0.1727217435836792,
                        0.22554530203342438,
                        0.07876671105623245,
                        -0.1938575804233551,
                        0.0943535566329956,
                        -0.032706424593925476,
                        -0.2770621180534363,
                        0.012687885202467442,
                        -0.3063669502735138,
                        0.10067399591207504,
                        -0.298659086227417,
                        -0.3504355251789093,
                        0.1812257617712021,
                        0.1373169720172882,
                        0.1005173847079277,
                        0.19667266309261322,
                        0.07517188042402267,
                        0.23454083502292633,
                        0.15684546530246735,
                        0.24221520125865936,
                        0.18192127346992493,
                        0.38635289669036865,
                        -0.02704787254333496,
                        -0.0017151390202343464,
                        -0.3443102240562439,
                        0.42554977536201477,
                        -0.4805513024330139,
                        0.0948951467871666,
                        0.3118334412574768,
                        0.3610072135925293,
                        0.41193798184394836,
                        0.2938998341560364,
                        0.3570863604545593,
                        -0.7593750953674316,
                        0.2644568383693695,
                        0.4066818356513977,
                        0.12306813150644302,
                        0.05451064556837082,
                        -0.18770846724510193,
                        0.04802173748612404,
                        -0.04516240209341049,
                        -0.013867808505892754,
                        -0.0865180641412735,
                        0.13166868686676025,
                        1.4948339462280273,
                        -0.42322030663490295,
                        0.10634640604257584,
                        0.3604227900505066,
                        -0.15874461829662323,
                        -0.9416933655738831,
                        0.08048398792743683,
                        -0.15021204948425293,
                        0.4067946970462799,
                        -0.009202095679938793,
                        0.07066300511360168,
                        0.17290812730789185,
                        0.23940658569335938,
                        -0.23479069769382477,
                        -0.13446415960788727,
                        -0.022199401631951332,
                        0.27117595076560974,
                        -0.37156030535697937
                    ],
                    [
                        0.33394336700439453,
                        -0.026758143678307533,
                        0.19946801662445068,
                        -0.5443917512893677,
                        0.11163268238306046,
                        0.22206871211528778,
                        -0.5449404716491699,
                        0.054611362516880035,
                        0.9957367181777954,
                        -0.5368657112121582,
                        0.047909945249557495,
                        0.004208731930702925,
                        0.11527644097805023,
                        1.6318708658218384,
                        -0.34315523505210876,
                        0.9351488351821899,
                        -0.29617995023727417,
                        -0.4123077392578125,
                        -0.0772063359618187,
                        -0.2615911364555359,
                        -0.021196046844124794,
                        -0.16077734529972076,
                        0.045544736087322235,
                        -0.3440244793891907,
                        -0.7356715202331543,
                        -0.1455446481704712,
                        -0.6411030292510986,
                        -0.4426718056201935,
                        0.09987067431211472,
                        -1.2762913703918457,
                        -0.21349406242370605,
                        -1.225244164466858,
                        0.32351216673851013,
                        -0.34562981128692627,
                        -0.12659721076488495,
                        0.023855164647102356,
                        0.20535673201084137,
                        -0.15339507162570953,
                        0.008540663868188858,
                        -0.03415151312947273,
                        0.04865996912121773,
                        -0.07351471483707428,
                        0.1105072945356369,
                        -0.5043073296546936,
                        0.1585235893726349,
                        0.06128575652837753,
                        0.19063495099544525,
                        0.15012340247631073,
                        -0.1045074388384819,
                        -0.5443266034126282,
                        -0.030193712562322617,
                        -0.4208642840385437,
                        0.02176595665514469,
                        -0.08701914548873901,
                        -0.1853564977645874,
                        -0.07445310801267624,
                        -0.3119106590747833,
                        -0.5183649659156799,
                        -0.5454851984977722,
                        -0.17537415027618408,
                        -0.10037381201982498,
                        -0.399114727973938,
                        -0.4115481376647949,
                        -0.05490266531705856
                    ],
                    [
                        0.3179406523704529,
                        -0.2654081881046295,
                        0.7869826555252075,
                        0.04838234931230545,
                        0.26076599955558777,
                        -0.39990511536598206,
                        0.08079400658607483,
                        0.10266046226024628,
                        -0.007105664350092411,
                        0.2408747524023056,
                        0.03139982372522354,
                        0.2458418309688568,
                        0.23999783396720886,
                        -0.2238452136516571,
                        0.1555735021829605,
                        -0.5695884823799133,
                        0.0700114518404007,
                        -0.15341967344284058,
                        0.4494561553001404,
                        -0.2043696641921997,
                        0.7468098998069763,
                        -0.09428565204143524,
                        0.40783968567848206,
                        0.1314002424478531,
                        0.2254410982131958,
                        -0.20865829288959503,
                        0.09045203775167465,
                        0.4659808576107025,
                        -0.07020126283168793,
                        0.6348729729652405,
                        -0.051699548959732056,
                        0.8912308812141418,
                        -0.13685595989227295,
                        0.30047711730003357,
                        0.3870605528354645,
                        -0.04376038908958435,
                        0.7426173686981201,
                        0.12206455320119858,
                        -0.03420093283057213,
                        -0.33486300706863403,
                        -0.3804967701435089,
                        -0.14598913490772247,
                        -0.05968698114156723,
                        0.4470110833644867,
                        -0.19013892114162445,
                        -0.031619779765605927,
                        -0.005957049783319235,
                        -0.38128021359443665,
                        -0.12746895849704742,
                        0.016505805775523186,
                        0.35093796253204346,
                        0.833861231803894,
                        0.47787487506866455,
                        0.6095139384269714,
                        0.25930750370025635,
                        -0.3120267987251282,
                        0.02042231895029545,
                        0.1871914267539978,
                        0.12264681607484818,
                        0.022181110456585884,
                        0.18222443759441376,
                        0.32096201181411743,
                        0.39142823219299316,
                        0.24168923497200012
                    ],
                    [
                        -0.43732836842536926,
                        -0.2427690476179123,
                        -0.21992801129817963,
                        0.05692190304398537,
                        -0.18129390478134155,
                        0.18242983520030975,
                        0.23114071786403656,
                        -0.019796675071120262,
                        -0.3643358647823334,
                        0.20056624710559845,
                        0.05969677492976189,
                        -0.44082725048065186,
                        -0.21732260286808014,
                        0.11817579716444016,
                        -0.13533368706703186,
                        0.17353308200836182,
                        0.40170976519584656,
                        0.21339815855026245,
                        -0.25725510716438293,
                        -0.023123348131775856,
                        0.14630097150802612,
                        0.21454203128814697,
                        0.4116332232952118,
                        -0.005119249224662781,
                        -0.13680456578731537,
                        0.028622237965464592,
                        0.34490129351615906,
                        -0.3782567083835602,
                        0.11208028346300125,
                        0.5558269023895264,
                        0.5317347049713135,
                        -0.10014785081148148,
                        -0.45794975757598877,
                        -0.1358329951763153,
                        -0.8402876853942871,
                        0.2789422273635864,
                        -0.29624730348587036,
                        -0.8745582103729248,
                        0.3440873324871063,
                        -0.8363404273986816,
                        0.15428467094898224,
                        -0.0709305927157402,
                        0.21730971336364746,
                        0.5695475339889526,
                        -0.13111093640327454,
                        0.30054742097854614,
                        -0.4188334047794342,
                        -0.2981314957141876,
                        -0.08527146279811859,
                        -0.13064804673194885,
                        -0.10125048458576202,
                        -0.5379301309585571,
                        -0.6956833600997925,
                        -0.3075675666332245,
                        0.21696271002292633,
                        0.08437204360961914,
                        -0.05969226732850075,
                        0.4203950762748718,
                        0.23980802297592163,
                        -0.0015322257531806827,
                        -0.1476045548915863,
                        0.2697228789329529,
                        -0.014321436174213886,
                        -0.031111910939216614
                    ],
                    [
                        -0.03238803148269653,
                        0.06378049403429031,
                        0.10297763347625732,
                        -0.25411176681518555,
                        -0.27953237295150757,
                        -0.2397659569978714,
                        0.18671129643917084,
                        -0.3463880717754364,
                        0.20822535455226898,
                        0.21956291794776917,
                        0.38315001130104065,
                        0.352065771818161,
                        0.37317609786987305,
                        0.07006998360157013,
                        -0.00655018538236618,
                        0.15993338823318481,
                        0.018854498863220215,
                        0.03847373649477959,
                        0.27792856097221375,
                        -0.41117554903030396,
                        -0.2403949499130249,
                        0.2815568447113037,
                        0.12656018137931824,
                        -0.21318453550338745,
                        0.1927555799484253,
                        -0.05599944666028023,
                        0.6642401814460754,
                        -0.014210786670446396,
                        0.6265016198158264,
                        -0.03200332820415497,
                        -0.03781244531273842,
                        0.2987499535083771,
                        0.4399198889732361,
                        -0.3814919888973236,
                        -0.15299054980278015,
                        1.6115554571151733,
                        0.14090675115585327,
                        0.1735866665840149,
                        -0.7808460593223572,
                        0.23034138977527618,
                        -0.1491515189409256,
                        -1.2431169748306274,
                        -0.12960299849510193,
                        -0.7023782730102539,
                        0.3968449532985687,
                        0.17307662963867188,
                        1.172342300415039,
                        0.19672149419784546,
                        0.01555036660283804,
                        -0.13296882808208466,
                        0.1656227856874466,
                        0.7700477838516235,
                        -0.2802771031856537,
                        0.051028791815042496,
                        -0.09294471889734268,
                        0.08895076811313629,
                        0.14984989166259766,
                        0.15608006715774536,
                        -0.0999821275472641,
                        0.3885902762413025,
                        0.3136153519153595,
                        0.6118403077125549,
                        0.10572125762701035,
                        0.19285793602466583
                    ],
                    [
                        -0.1284370720386505,
                        -0.43606671690940857,
                        -0.19113901257514954,
                        -0.17504771053791046,
                        -0.10798917710781097,
                        0.09119662642478943,
                        0.07604982703924179,
                        -0.05275684595108032,
                        0.06651464849710464,
                        0.08114935457706451,
                        -0.1446041315793991,
                        -0.49070054292678833,
                        0.024128278717398643,
                        0.2670164406299591,
                        -0.12629322707653046,
                        0.6878472566604614,
                        0.28192415833473206,
                        0.2059371918439865,
                        0.011004935018718243,
                        -0.04519350454211235,
                        0.10941479355096817,
                        0.31570470333099365,
                        -0.19428086280822754,
                        -0.11466069519519806,
                        0.21249157190322876,
                        -0.020909104496240616,
                        -0.017379162833094597,
                        -0.3486441969871521,
                        -0.3514096736907959,
                        -0.2833572328090668,
                        0.12084368616342545,
                        0.16667793691158295,
                        0.07399845123291016,
                        0.017488129436969757,
                        0.14054971933364868,
                        -0.08265132457017899,
                        0.802240252494812,
                        -0.4493851065635681,
                        1.1842777729034424,
                        0.5297890305519104,
                        0.03744788467884064,
                        -0.8968994617462158,
                        0.44700464606285095,
                        -0.4950522780418396,
                        0.9648025035858154,
                        0.17506255209445953,
                        -0.13760371506214142,
                        -0.0017142468132078648,
                        0.15925629436969757,
                        0.49386149644851685,
                        0.03533445671200752,
                        -0.43565791845321655,
                        -0.22455143928527832,
                        -0.09536346048116684,
                        0.01047633495181799,
                        0.12402993440628052,
                        0.004476735834032297,
                        0.35157477855682373,
                        0.4485059380531311,
                        0.061328038573265076,
                        -0.28291353583335876,
                        -0.451067179441452,
                        0.002852687379345298,
                        -0.07986272126436234
                    ],
                    [
                        0.09418060630559921,
                        -0.48449042439460754,
                        0.03345586359500885,
                        -0.025188317522406578,
                        0.1280163675546646,
                        0.3836728632450104,
                        -0.07377312332391739,
                        -0.08370733261108398,
                        0.12839171290397644,
                        0.0434151217341423,
                        -0.6602175235748291,
                        -0.41948309540748596,
                        -0.3372787535190582,
                        -0.2579273283481598,
                        0.053546078503131866,
                        -0.04685113579034805,
                        0.08522728085517883,
                        -0.5253137946128845,
                        0.25223439931869507,
                        -0.000512978236656636,
                        0.1962147057056427,
                        0.34819865226745605,
                        0.09917785972356796,
                        -0.020652109757065773,
                        0.06796487420797348,
                        0.04587424546480179,
                        -0.3793540894985199,
                        0.28054744005203247,
                        -0.20847338438034058,
                        0.3053719401359558,
                        0.036560945212841034,
                        0.2747513949871063,
                        -0.0830153152346611,
                        -0.4266592264175415,
                        -0.07210730761289597,
                        -0.18783338367938995,
                        0.15750932693481445,
                        -0.05182432010769844,
                        0.4624456763267517,
                        -0.20340760052204132,
                        -0.3281441330909729,
                        0.14616252481937408,
                        -0.7009243965148926,
                        0.29966914653778076,
                        -0.2518383264541626,
                        -0.05299927666783333,
                        0.0368536002933979,
                        0.05194254219532013,
                        -0.06136937066912651,
                        0.13243168592453003,
                        0.04135700687766075,
                        0.2373335361480713,
                        0.3420078158378601,
                        0.025739695876836777,
                        0.27547186613082886,
                        -0.11779022961854935,
                        0.01314972247928381,
                        0.022493258118629456,
                        0.15711314976215363,
                        0.4454149007797241,
                        -0.06337125599384308,
                        -0.05649339407682419,
                        0.020401068031787872,
                        -0.02001912146806717
                    ]
                ],
                [
                    -0.152693510055542,
                    -0.22965674102306366,
                    -0.2816341519355774,
                    1.0690252780914307,
                    -0.1493242383003235,
                    0.29320114850997925,
                    0.8678421974182129,
                    -0.6785107851028442,
                    -2.538938283920288,
                    0.6270637512207031,
                    -0.46593722701072693,
                    0.08615395426750183,
                    -0.006623290479183197,
                    -1.8067626953125,
                    0.53449547290802,
                    -2.9552741050720215,
                    0.9074510335922241,
                    0.8909294605255127,
                    0.3339080810546875,
                    0.04745158180594444,
                    0.24403686821460724,
                    0.7978677749633789,
                    -0.17914536595344543,
                    1.3496718406677246,
                    2.7993783950805664,
                    -0.12471738457679749,
                    0.7728466987609863,
                    0.7884661555290222,
                    0.26523706316947937,
                    2.6666207313537598,
                    0.38633349537849426,
                    3.3748936653137207,
                    -0.19824448227882385,
                    0.47350096702575684,
                    0.011121377348899841,
                    -0.6912569999694824,
                    -0.007793608121573925,
                    0.38812345266342163,
                    -0.1515350341796875,
                    -0.2274692952632904,
                    0.2125612497329712,
                    0.6446772813796997,
                    -0.4200805425643921,
                    0.4191927909851074,
                    -0.2126050591468811,
                    0.3110981583595276,
                    -0.4289278984069824,
                    0.03980310261249542,
                    0.784093976020813,
                    1.1215794086456299,
                    0.46193069219589233,
                    0.27636316418647766,
                    0.04340587183833122,
                    0.6564584970474243,
                    0.18233920633792877,
                    0.6333653926849365,
                    0.3755369782447815,
                    0.4569036066532135,
                    1.1640965938568115,
                    0.0229046531021595,
                    0.8108741044998169,
                    0.8476790189743042,
                    0.9572535753250122,
                    0.4038410484790802
                ]
            ]
        },
        {
            "type": "dense",
            "activation": "",
            "shape": [
                null,
                null,
                1
            ],
            "weights": [
                [
                    [
                        0.18690426647663116
                    ],
                    [
                        0.16816839575767517
                    ],
                    [
                        -0.27096986770629883
                    ],
                    [
                        0.039685312658548355
                    ],
                    [
                        -0.4286196529865265
                    ],
                    [
                        -0.02351732738316059
                    ],
                    [
                        -0.026380544528365135
                    ],
                    [
                        -0.20538952946662903
                    ],
                    [
                        0.4832492470741272
                    ],
                    [
                        0.034237153828144073
                    ],
                    [
                        -0.07025575637817383
                    ],
                    [
                        -0.10014056414365768
                    ],
                    [
                        -0.14414779841899872
                    ],
                    [
                        -0.11482201516628265
                    ],
                    [
                        0.13062436878681183
                    ],
                    [
                        -0.19380570948123932
                    ]
                ],
                [
                    -0.10345246642827988
                ]
            ]
        }
    ],
    "input_batch": [
        0.25311803817749023,
        0.24042391777038574,
        0.2265399694442749,
        0.21238088607788086,
        0.19745969772338867,
        0.18220210075378418,
        0.16621267795562744,
        0.15049779415130615,
        0.13414180278778076,
        0.11815226078033447,
        0.10216259956359863,
        0.08617305755615234,
        0.0701833963394165,
        0.054560065269470215,
        0.03884470462799072,
        0.023954153060913086,
        0.008666038513183594,
        -0.006224989891052246,
        -0.020749926567077637,
        -0.035732388496398926,
        -0.04989147186279297,
        -0.0647820234298706,
        -0.07930755615234375,
        -0.09419798851013184,
        -0.10957813262939453,
        -0.12483441829681396,
        -0.14045870304107666,
        -0.1564476490020752,
        -0.17317020893096924,
        -0.18989193439483643,
        -0.20661377906799316,
        -0.224068284034729,
        -0.24161386489868164,
        -0.2594345808029175,
        -0.27725493907928467,
        -0.2947092056274414,
        -0.31216371059417725,
        -0.32998406887054443,
        -0.3470722436904907,
        -0.36379408836364746,
        -0.38051629066467285,
        -0.3965057134628296,
        -0.41176295280456543,
        -0.4263796806335449,
        -0.4409041404724121,
        -0.4539647102355957,
        -0.46632301807403564,
        -0.4776437282562256,
        -0.4881410598754883,
        -0.4976614713668823,
        -0.5059614181518555,
        -0.5136508941650391,
        -0.5209441184997559,
        -0.5267109870910645,
        -0.5325701236724854,
        -0.5372998714447021,
        -0.5416021347045898,
        -0.5459966659545898,
        -0.5500242710113525,
        -0.5540215969085693,
        -0.5580499172210693,
        -0.5619857311248779,
        -0.566380500793457,
        -0.5711096525192261,
        -0.5762364864349365,
        -0.5816373825073242,
        -0.587099552154541,
        -0.5933244228363037,
        -0.599457859992981,
        -0.6060184240341187,
        -0.61297607421875,
        -0.6194751262664795,
        -0.6264024972915649,
        -0.632993221282959,
        -0.6394624710083008,
        -0.645321249961853,
        -0.6511800289154053,
        -0.6558182239532471,
        -0.6605784893035889,
        -0.6638741493225098,
        -0.6668033599853516,
        -0.668634295463562,
        -0.6693668365478516,
        -0.6697324514389038,
        -0.6690008640289307,
        -0.667169451713562,
        -0.6649725437164307,
        -0.6616771221160889,
        -0.6580150127410889,
        -0.6536519527435303,
        -0.6493488550186157,
        -0.6442230939865112,
        -0.6390959024429321,
        -0.6336345672607422,
        -0.6278663873672485,
        -0.6223746538162231,
        -0.6169121265411377,
        -0.61151123046875,
        -0.6060183048248291,
        -0.6009228229522705,
        -0.5955212116241455,
        -0.5903955698013306,
        -0.5852987766265869,
        -0.5798068046569824,
        -0.5751376152038574,
        -0.5700114965438843,
        -0.564549446105957,
        -0.5590565204620361,
        -0.5536556243896484,
        -0.5478272438049316,
        -0.541968584060669,
        -0.5354690551757812,
        -0.5285420417785645,
        -0.5215847492218018,
        -0.5140173435211182,
        -0.5055952072143555,
        -0.4969290494918823,
        -0.4874086380004883,
        -0.4776437282562256,
        -0.4670553207397461,
        -0.45579564571380615,
        -0.44419968128204346,
        -0.4317808151245117,
        -0.4197882413864136,
        -0.4067281484603882,
        -0.39357638359069824,
        -0.38088250160217285,
        -0.36742520332336426,
        -0.35427403450012207,
        -0.3412131071090698,
        -0.3285195827484131,
        -0.3161609172821045,
        -0.3037416934967041,
        -0.2921459674835205,
        -0.2807948589324951,
        -0.2695653438568115,
        -0.2590681314468384,
        -0.24881577491760254,
        -0.2386842966079712,
        -0.2291949987411499,
        -0.21976542472839355,
        -0.21100807189941406,
        -0.20194506645202637,
        -0.19318759441375732,
        -0.18412470817565918,
        -0.17536687850952148,
        -0.166670560836792,
        -0.1575462818145752,
        -0.14848387241363525,
        -0.13899338245391846,
        -0.12956476211547852,
        -0.12007451057434082,
        -0.11064600944519043,
        -0.10115528106689453,
        -0.09212362766265869,
        -0.08296871185302734,
        -0.0743030309677124,
        -0.06551468372344971,
        -0.05712318420410156,
        -0.04952502250671387,
        -0.04186594486236572,
        -0.03500008583068848,
        -0.028042912483215332,
        -0.021482110023498535,
        -0.01571512222290039,
        -0.009856104850769043,
        -0.004394173622131348,
        0.00027489662170410156,
        0.005400657653808594,
        0.009765148162841797,
        0.014158248901367188,
        0.01855301856994629,
        0.022122979164123535,
        0.026120305061340332,
        0.029782414436340332,
        0.03344368934631348,
        0.036739468574523926,
        0.039943575859069824,
        0.04320847988128662,
        0.04650437831878662,
        0.049799442291259766,
        0.052729249000549316,
        0.05593299865722656,
        0.05922865867614746,
        0.06286013126373291,
        0.06615543365478516,
        0.0694509744644165,
        0.07311296463012695,
        0.0763167142868042,
        0.07958197593688965,
        0.082877516746521,
        0.08580648899078369,
        0.08873677253723145,
        0.09093284606933594,
        0.09313070774078369,
        0.09447288513183594,
        0.09557151794433594,
        0.09593772888183594,
        0.09630393981933594,
        0.09593749046325684,
        0.09483933448791504,
        0.09374046325683594,
        0.09203183650970459,
        0.09020102024078369,
        0.08836996555328369,
        0.0858069658279419,
        0.08397579193115234,
        0.0814131498336792,
        0.079215407371521,
        0.07738518714904785,
        0.0752180814743042,
        0.07384514808654785,
        0.07238054275512695,
        0.07054948806762695,
        0.0694512128829956,
        0.0687185525894165,
        0.06762027740478516,
        0.06688761711120605,
        0.06578969955444336,
        0.06542277336120605,
        0.06469106674194336,
        0.06432449817657471,
        0.06359231472015381,
        0.06286001205444336,
        0.06212747097015381,
        0.06139528751373291,
        0.06066262722015381,
        0.06029701232910156,
        0.05922818183898926,
        0.058496832847595215,
        0.05776381492614746,
        0.05703151226043701,
        0.055933475494384766,
        0.05492568016052246,
        0.05382800102233887,
        0.052729010581970215,
        0.051264405250549316,
        0.04979968070983887,
        0.04833495616912842,
        0.04723644256591797,
        0.04577195644378662,
        0.04467308521270752,
        0.04357504844665527,
        0.04284203052520752,
        0.042140960693359375,
        0.04214024543762207,
        0.042140841484069824,
        0.04250657558441162,
        0.04320859909057617,
        0.04394114017486572,
        0.04540514945983887,
        0.04650461673736572,
        0.047968506813049316,
        0.04979991912841797,
        0.051264286041259766,
        0.053095221519470215,
        0.054559946060180664,
        0.05593311786651611,
        0.05703163146972656,
        0.05849647521972656,
        0.05922842025756836,
        0.06029689311981201,
        0.06102883815765381,
        0.06176161766052246,
        0.06249356269836426,
        0.06322634220123291,
        0.06395816802978516,
        0.06432485580444336,
        0.06505680084228516,
        0.06542325019836426,
        0.06578922271728516,
        0.06615555286407471,
        0.06615567207336426,
        0.06615543365478516,
        0.06578946113586426,
        0.06469082832336426,
        0.06359219551086426,
        0.06212770938873291,
        0.06029653549194336,
        0.05849647521972656,
        0.05593311786651611,
        0.053095102310180664,
        0.05016613006591797,
        0.047235965728759766,
        0.043941497802734375,
        0.04067540168762207,
        0.03710603713989258,
        0.03380990028381348,
        0.03051459789276123,
        0.02721869945526123,
        0.024320483207702637,
        0.021390318870544434,
        0.01855313777923584,
        0.015623211860656738,
        0.012694120407104492,
        0.010130763053894043,
        0.007232189178466797,
        0.004668235778808594,
        0.0013737678527832031,
        -0.0014652013778686523,
        -0.004027605056762695,
        -0.006957530975341797,
        -0.009856224060058594,
        -0.012419342994689941,
        -0.01498270034790039,
        -0.01717960834503174,
        -0.01891922950744629,
        -0.020749688148498535,
        -0.022214531898498535,
        -0.023679375648498535,
        -0.024411559104919434,
        -0.025144100189208984,
        -0.025510191917419434,
        -0.025845646858215332,
        -0.026212096214294434,
        -0.026211857795715332,
        -0.026578307151794434,
        -0.026578187942504883,
        -0.026578187942504883,
        -0.026578187942504883,
        -0.026211857795715332,
        -0.025846004486083984,
        -0.02514362335205078,
        -0.02441227436065674,
        -0.02331233024597168,
        -0.02221512794494629,
        -0.020383119583129883,
        -0.018278837203979492,
        -0.016080737113952637,
        -0.013152122497558594,
        -0.009856104850769043,
        -0.0062247514724731445,
        -0.0025637149810791016,
        0.0017398595809936523,
        0.006499290466308594,
        0.010863423347473145,
        0.015257000923156738,
        0.01992619037628174,
        0.024319887161254883,
        0.028317689895629883,
        0.03234529495239258,
        0.03600716590881348,
        0.039577364921569824,
        0.04250681400299072,
        0.04540538787841797,
        0.04833531379699707,
        0.050531625747680664,
        0.05309557914733887,
        0.05492603778839111,
        0.05703163146972656,
        0.05956435203552246,
        0.06139516830444336,
        0.06395828723907471,
        0.06615579128265381,
        0.06871843338012695,
        0.0712820291519165,
        0.0742114782333374,
        0.07701826095581055,
        0.0803147554397583,
        0.08397555351257324,
        0.0876380205154419,
        0.09166538715362549,
        0.09557163715362549,
        0.09959924221038818,
        0.10362744331359863,
        0.10728907585144043,
        0.11092019081115723,
        0.11449062824249268,
        0.11741983890533447,
        0.12034928798675537,
        0.12291264533996582,
        0.12474322319030762,
        0.12694060802459717,
        0.12800836563110352,
        0.12947320938110352,
        0.13020539283752441,
        0.13084638118743896,
        0.13157856464385986,
        0.13194477558135986,
        0.13267731666564941,
        0.13340938091278076,
        0.1345081329345703,
        0.13560640811920166,
        0.13743746280670166,
        0.13926827907562256,
        0.14183151721954346,
        0.1443948745727539,
        0.1476595401763916,
        0.1512303352355957,
        0.1552574634552002,
        0.15965235233306885,
        0.16401541233062744,
        0.16905033588409424,
        0.1741771697998047,
        0.17963886260986328,
        0.18513154983520508,
        0.19053292274475098,
        0.19599461555480957,
        0.20185375213623047,
        0.20688855648040771,
        0.21238088607788086,
        0.21747732162475586,
        0.22260332107543945,
        0.22727203369140625,
        0.2323683500289917,
        0.2371281385421753,
        0.2418888807296753,
        0.24652671813964844,
        0.25128698348999023,
        0.25568151473999023,
        0.26044130325317383,
        0.26471376419067383,
        0.269473671913147,
        0.27386772632598877,
        0.2786283493041992,
        0.28289997577667236,
        0.28729450702667236,
        0.2916882038116455,
        0.29608237743377686,
        0.3007209300994873,
        0.30511438846588135,
        0.30987548828125,
        0.3146042823791504,
        0.31927382946014404,
        0.3240334987640381,
        0.329160213470459,
        0.33462250232696533,
        0.3396568298339844,
        0.3455163240432739,
        0.35061168670654297,
        0.35637927055358887,
        0.36187148094177246,
        0.36733412742614746,
        0.3724602460861206,
        0.3778613805770874,
        0.38295745849609375,
        0.38771748542785645,
        0.39201998710632324,
        0.39604830741882324,
        0.39934349060058594,
        0.40224266052246094,
        0.40443944931030273,
        0.4062703847885132,
        0.4073687791824341,
        0.40810155868530273,
        0.40846729278564453,
        0.4084674119949341,
        0.40810132026672363,
        0.40736889839172363,
        0.4066365957260132,
        0.40590429306030273,
        0.40517187118530273,
        0.40480566024780273,
        0.40443968772888184,
        0.40443944931030273,
        0.4048057794570923,
        0.40553784370422363,
        0.40627074241638184,
        0.407368540763855,
        0.40920019149780273,
        0.4105726480484009,
        0.41240406036376953,
        0.41423463821411133,
        0.41606569290161133,
        0.4174996614456177,
        0.4193307161331177,
        0.420795202255249,
        0.4218939542770386,
        0.4222599267959595,
        0.4222601652145386,
        0.422260046005249,
        0.4215273857116699,
        0.4207956790924072,
        0.4193301200866699,
        0.417500376701355,
        0.415698766708374,
        0.4131366014480591,
        0.41057252883911133,
        0.40773558616638184,
        0.40517139434814453,
        0.40224289894104004,
        0.3996790647506714,
        0.3967806100845337,
        0.39458298683166504,
        0.39238667488098145,
        0.3902806043624878,
        0.388816237449646,
        0.38735151290893555,
        0.38588619232177734,
        0.38442254066467285,
        0.383689284324646,
        0.38259148597717285,
        0.38152289390563965,
        0.38042473793029785,
        0.37932586669921875,
        0.37786173820495605,
        0.3760303258895874,
        0.37383341789245605,
        0.3713620901107788,
        0.3684319257736206,
        0.36443543434143066,
        0.36004066467285156,
        0.35491442680358887,
        0.34914731979370117,
        0.3429524898529053,
        0.3359956741333008,
        0.328427791595459,
        0.32000601291656494,
        0.3109734058380127,
        0.30145299434661865,
        0.2916884422302246,
        0.28143537044525146,
        0.2705724239349365,
        0.25970888137817383,
        0.24835801124572754,
        0.2371281385421753,
        0.22507548332214355,
        0.2138148546218872,
        0.20185399055480957,
        0.19016635417938232,
        0.17854046821594238,
        0.16731131076812744,
        0.15525782108306885,
        0.14366233348846436,
        0.13231134414672852,
        0.12071514129638672,
        0.10912013053894043,
        0.09776842594146729,
        0.08580684661865234,
        0.0734790563583374,
        0.06139492988586426,
        0.04833519458770752,
        0.035274505615234375,
        0.021024703979492188,
        0.0068656206130981445,
        -0.008422017097473145,
        -0.024045467376708984,
        -0.040767550468444824,
        -0.05785536766052246,
        -0.07604217529296875,
        -0.09419834613800049,
        -0.11311733722686768,
        -0.13203644752502441,
        -0.15095531940460205,
        -0.1702404022216797,
        -0.18952584266662598,
        -0.2084444761276245,
        -0.226997971534729,
        -0.24481773376464844,
        -0.26227259635925293,
        -0.27908575534820557,
        -0.2947092056274414,
        -0.30996692180633545,
        -0.323758602142334,
        -0.33718597888946533,
        -0.34923839569091797,
        -0.3608649969100952,
        -0.37145304679870605,
        -0.38124871253967285,
        -0.39073824882507324,
        -0.39943528175354004,
        -0.4074605703353882,
        -0.4150583744049072,
        -0.422717809677124,
        -0.4295835494995117,
        -0.43651020526885986,
        -0.4438340663909912,
        -0.4510350227355957,
        -0.45835888385772705,
        -0.4655904769897461,
        -0.4732499122619629,
        -0.48093950748443604,
        -0.48923933506011963,
        -0.4976615905761719,
        -0.5059614181518555,
        -0.5151157379150391,
        -0.5237820148468018,
        -0.5329360961914062,
        -0.541968584060669,
        -0.5507566928863525,
        -0.5597889423370361,
        -0.5685774087905884,
        -0.5766022205352783,
        -0.5845669507980347,
        -0.5918598175048828,
        -0.5987253189086914,
        -0.6049203872680664,
        -0.6107785701751709,
        -0.6150813102722168,
        -0.6191093921661377,
        -0.6220079660415649,
        -0.6242051124572754,
        -0.6253038644790649,
        -0.6260359287261963,
        -0.6256699562072754,
        -0.6249374151229858,
        -0.6234729290008545,
        -0.6216418743133545,
        -0.6194756031036377,
        -0.6169120073318481,
        -0.6147150993347168,
        -0.61224365234375,
        -0.60968017578125,
        -0.6078494787216187,
        -0.6060184240341187,
        -0.6041877269744873,
        -0.6031193733215332,
        -0.6016552448272705,
        -0.6009221076965332,
        -0.5998246669769287,
        -0.5987250804901123,
        -0.5979933738708496,
        -0.5968945026397705,
        -0.5955216884613037,
        -0.5933244228363037,
        -0.5911273956298828,
        -0.5885639190673828,
        -0.5852993726730347,
        -0.5809049606323242,
        -0.5762364864349365,
        -0.5711097717285156,
        -0.5649155378341675,
        -0.5584156513214111,
        -0.5514895915985107,
        -0.5437988042831421,
        -0.5358357429504395,
        -0.5274430513381958,
        -0.5184118747711182,
        -0.5092566013336182,
        -0.4998586177825928,
        -0.4899718761444092,
        -0.4802067279815674,
        -0.4699547290802002,
        -0.4601893424987793,
        -0.4496009349822998,
        -0.4394400119781494,
        -0.4288506507873535,
        -0.41832399368286133,
        -0.4081927537918091,
        -0.3979703187942505,
        -0.38744330406188965,
        -0.37685394287109375,
        -0.36669349670410156,
        -0.3564702272415161,
        -0.3467065095901489,
        -0.336819052696228,
        -0.3270549774169922,
        -0.31716787815093994,
        -0.3074033260345459,
        -0.29760825634002686,
        -0.28738558292388916,
        -0.2779877185821533,
        -0.2677340507507324,
        -0.25797009468078613,
        -0.24735069274902344,
        -0.2372199296951294,
        -0.2269977331161499,
        -0.2164698839187622,
        -0.20588159561157227,
        -0.19538438320159912,
        -0.18449091911315918,
        -0.17390215396881104,
        -0.1633749008178711,
        -0.1535184383392334,
        -0.14375412464141846,
        -0.13386690616607666,
        -0.12483537197113037,
        -0.11604630947113037,
        -0.10774707794189453,
        -0.10005712509155273,
        -0.09212327003479004,
        -0.084800124168396,
        -0.0778423547744751,
        -0.0713735818862915,
        -0.06478226184844971,
        -0.05895423889160156,
        -0.052820682525634766,
        -0.04732787609100342,
        -0.041499972343444824,
        -0.036098361015319824,
        -0.030606389045715332,
        -0.025143742561340332,
        -0.020017623901367188,
        -0.01461648941040039,
        -0.009489893913269043,
        -0.0043942928314208984,
        0.0006411075592041016,
        0.005766868591308594,
        0.010863542556762695,
        0.01598942279815674,
        0.021024584770202637,
        0.025754213333129883,
        0.03088068962097168,
        0.03600716590881348,
        0.04067587852478027,
        0.04540562629699707,
        0.05016589164733887,
        0.054559946060180664,
        0.05849647521972656,
        0.06249356269836426,
        0.06615579128265381,
        0.0690847635269165,
        0.07164812088012695,
        0.0742114782333374,
        0.07558441162109375,
        0.0770186185836792,
        0.07775115966796875,
        0.07811689376831055,
        0.0781174898147583,
        0.07775068283081055,
        0.0770188570022583,
        0.0763167142868042,
        0.0752183198928833,
        0.07448601722717285,
        0.07347893714904785,
        0.0723804235458374,
        0.07164812088012695,
        0.07091593742370605,
        0.0701831579208374,
        0.06981730461120605,
        0.06945109367370605,
        0.0694509744644165,
        0.06908512115478516,
        0.0690847635269165,
        0.0687185525894165,
        0.06835281848907471,
        0.0679861307144165,
        0.06725418567657471,
        0.06652176380157471,
        0.06578898429870605,
        0.06469130516052246,
        0.0635918378829956,
        0.06212794780731201,
        0.06066274642944336,
        0.05922853946685791,
        0.05776417255401611,
        0.05629920959472656,
        0.055292487144470215,
        0.053827762603759766,
        0.05236256122589111,
        0.05089855194091797,
        0.049433350563049316,
        0.04796898365020752,
        0.04650425910949707,
        0.04503905773162842,
        0.04357504844665527,
        0.04177415370941162,
        0.040309786796569824,
        0.038478970527648926,
        0.037105441093444824,
        0.03527498245239258,
        0.03380990028381348,
        0.03271174430847168,
        0.03161299228668213,
        0.03051447868347168,
        0.02978229522705078,
        0.02978193759918213,
        0.029782414436340332,
        0.02978193759918213,
        0.03051459789276123,
        0.03124701976776123,
        0.03234529495239258,
        0.03307771682739258,
        0.03454244136810303,
        0.03564095497131348,
        0.037105679512023926,
        0.038112759590148926,
        0.03921103477478027,
        0.04067575931549072,
        0.041408538818359375,
        0.04250621795654297,
        0.043575167655944824,
        0.04430675506591797,
        0.04540574550628662,
        0.04613804817199707,
        0.04687023162841797,
        0.04760277271270752,
        0.048334717750549316,
        0.04943394660949707,
        0.050165414810180664,
        0.05089879035949707,
        0.05163013935089111,
        0.05199694633483887,
        0.052362799644470215,
        0.052362918853759766,
        0.052362918853759766,
        0.051996827125549316,
        0.051264286041259766,
        0.05016589164733887,
        0.04870116710662842,
        0.04760277271270752,
        0.04540538787841797,
        0.042842745780944824,
        0.04067552089691162,
        0.03774678707122803,
        0.034908294677734375,
        0.03197944164276123,
        0.02868354320526123,
        0.026120543479919434,
        0.023221611976623535,
        0.019925832748413086,
        0.01708829402923584,
        0.01415860652923584,
        0.011595487594604492,
        0.009032487869262695,
        0.006133079528808594,
        0.003204345703125,
        0.0006403923034667969,
        -0.0018305778503417969,
        -0.004394173622131348,
        -0.006957292556762695,
        -0.009856224060058594,
        -0.012785553932189941,
        -0.01534879207611084,
        -0.018278121948242188,
        -0.021116256713867188,
        -0.024045348167419434,
        -0.027310490608215332,
        -0.03060603141784668,
        -0.03390169143676758,
        -0.037197232246398926,
        -0.04003500938415527,
        -0.04330015182495117,
        -0.04622936248779297,
        -0.04879295825958252,
        -0.050989508628845215,
        -0.053186893463134766,
        -0.055017709732055664,
        -0.05602455139160156,
        -0.056757211685180664,
        -0.05675673484802246,
        -0.05639088153839111,
        -0.055750131607055664,
        -0.05428516864776611,
        -0.05282092094421387,
        -0.050623297691345215,
        -0.04842674732208252,
        -0.04586315155029297,
        -0.042934298515319824,
        -0.04003477096557617,
        -0.03683114051818848,
        -0.03390145301818848,
        -0.03133869171142578,
        -0.02877509593963623,
        -0.025845885276794434,
        -0.023312926292419434,
        -0.021116137504577637,
        -0.018644094467163086,
        -0.01681387424468994,
        -0.014616131782531738,
        -0.012419700622558594,
        -0.010588407516479492,
        -0.008422136306762695,
        -0.005858659744262695,
        -0.0036619901657104492,
        -0.0007319450378417969,
        0.002105116844177246,
        0.0054013729095458984,
        0.008665800094604492,
        0.012694239616394043,
        0.01672184467315674,
        0.020658493041992188,
        0.025418400764465332,
        0.030148744583129883,
        0.034542083740234375,
        0.03957772254943848,
        0.04394066333770752,
        0.04870128631591797,
        0.053095102310180664,
        0.057398080825805664,
        0.06176114082336426,
        0.06578946113586426,
        0.06945109367370605,
        0.07311272621154785,
        0.07631707191467285,
        0.07921552658081055,
        0.08214521408081055,
        0.08470821380615234,
        0.08690547943115234,
        0.08910238742828369,
        0.09129929542541504,
        0.09340512752532959,
        0.09483897686004639,
        0.09667015075683594,
        0.09850072860717773,
        0.09996557235717773,
        0.10179662704467773,
        0.10326099395751953,
        0.10545837879180908,
        0.10728895664215088,
        0.10911989212036133,
        0.11128652095794678,
        0.11375832557678223,
        0.11632108688354492,
        0.11925113201141357,
        0.12254595756530762,
        0.12620830535888672,
        0.12983918190002441,
        0.1337757110595703,
        0.13816988468170166,
        0.14256370067596436,
        0.1472935676574707,
        0.1526947021484375,
        0.1574549674987793,
        0.1632833480834961,
        0.1683180332183838,
        0.17381072044372559,
        0.17927289009094238,
        0.18476533889770508,
        0.18980073928833008,
        0.19492650032043457,
        0.20002293586730957,
        0.20505738258361816,
        0.2098180055618286,
        0.21418142318725586,
        0.2189415693283081,
        0.22333621978759766,
        0.2272716760635376,
        0.23163628578186035,
        0.23566317558288574,
        0.24005818367004395,
        0.244360089302063,
        0.24909043312072754,
        0.25384998321533203,
        0.2589770555496216,
        0.2639811038970947,
        0.269473671913147,
        0.27533280849456787,
        0.2814352512359619,
        0.28729450702667236,
        0.2942514419555664,
        0.30108678340911865,
        0.3080441951751709,
        0.3153371810913086,
        0.3222029209136963,
        0.3298923969268799,
        0.33709418773651123,
        0.3444172143936157,
        0.35134434700012207,
        0.3578439950942993,
        0.36443448066711426,
        0.37099623680114746,
        0.37676239013671875,
        0.3818897008895874,
        0.38698506355285645,
        0.3912876844406128,
        0.3956819772720337,
        0.39934349060058594,
        0.40260887145996094,
        0.4055379629135132,
        0.4077349901199341,
        0.41020703315734863,
        0.4120372533798218,
        0.4142352342605591,
        0.4160652160644531,
        0.41786623001098633,
        0.4196966886520386,
        0.421527624130249,
        0.4240908622741699,
        0.4259219169616699,
        0.42811858654022217,
        0.4309570789337158,
        0.4334888458251953,
        0.43605291843414307,
        0.4389817714691162,
        0.44191157817840576,
        0.444474458694458,
        0.44694626331329346,
        0.4495093822479248,
        0.45204246044158936,
        0.4538729190826416,
        0.4557039737701416,
        0.4571688175201416,
        0.45826685428619385,
        0.45936620235443115,
        0.4593653678894043,
        0.4597320556640625,
        0.45973169803619385,
        0.45899951457977295,
        0.4582672119140625,
        0.45716869831085205,
        0.4557039737701416,
        0.4542393684387207,
        0.45240819454193115,
        0.45057761669158936,
        0.4487771987915039,
        0.4469461441040039,
        0.44484102725982666,
        0.443009614944458,
        0.4411792755126953,
        0.43934786319732666,
        0.43788373470306396,
        0.4367847442626953,
        0.4356865882873535,
        0.4353203773498535,
        0.43458759784698486,
        0.4342219829559326,
        0.4342215061187744,
        0.43422186374664307,
        0.43458783626556396,
        0.43458783626556396,
        0.4345879554748535,
        0.4342215061187744,
        0.43385565280914307,
        0.43315374851226807,
        0.4316890239715576,
        0.42985808849334717,
        0.4273865222930908,
        0.4240908622741699,
        0.420428991317749,
        0.41606593132019043,
        0.4109386205673218,
        0.40517234802246094,
        0.39934325218200684,
        0.39238643646240234,
        0.3851543664932251,
        0.37749528884887695,
        0.36916446685791016,
        0.36113977432250977,
        0.3528085947036743,
        0.3444175720214844,
        0.33599555492401123,
        0.32769525051116943,
        0.31927382946014404,
        0.3113393783569336,
        0.3029179573059082,
        0.2953498363494873,
        0.2872943878173828,
        0.27936065196990967,
        0.2713043689727783,
        0.26327943801879883,
        0.2549489736557007,
        0.2461909055709839,
        0.23749494552612305,
        0.2283703088760376,
        0.2185758352279663,
        0.2079869508743286,
        0.19745957851409912,
        0.18586385250091553,
        0.1734447479248047,
        0.1603841781616211,
        0.14692747592926025,
        0.13231110572814941,
        0.11705362796783447,
        0.10106408596038818,
        0.08470845222473145,
        0.0672537088394165,
        0.04943406581878662,
        0.031246542930603027,
        0.012328028678894043,
        -0.0069571733474731445,
        -0.026578545570373535,
        -0.04622912406921387,
        -0.06624722480773926,
        -0.08589828014373779,
        -0.10518348217010498,
        -0.12410283088684082,
        -0.14228904247283936,
        -0.16011011600494385,
        -0.17683124542236328,
        -0.19318795204162598,
        -0.2084442377090454,
        -0.2230616807937622,
        -0.2364872694015503,
        -0.249181866645813,
        -0.26080751419067383,
        -0.2721285820007324,
        -0.282991886138916,
        -0.2932443618774414,
        -0.30337584018707275,
        -0.31326186656951904,
        -0.3230268955230713,
        -0.3328828811645508,
        -0.3434104919433594,
        -0.3539077043533325,
        -0.36489248275756836,
        -0.37612223625183105,
        -0.38780903816223145,
        -0.39977097511291504,
        -0.41176319122314453,
        -0.4245483875274658,
        -0.4372427463531494,
        -0.4499671459197998,
        -0.4623868465423584,
        -0.4747142791748047,
        -0.48704254627227783,
        -0.49875974655151367,
        -0.5099895000457764,
        -0.5213100910186768,
        -0.5314714908599854,
        -0.541236162185669,
        -0.5503904819488525,
        -0.5590567588806152,
        -0.5667462348937988,
        -0.5740392208099365,
        -0.5805391073226929,
        -0.5863974094390869,
        -0.591494083404541,
        -0.5961617231369019,
        -0.6001906394958496,
        -0.6038212776184082,
        -0.6067510843276978,
        -0.60968017578125,
        -0.6122434139251709,
        -0.6144406795501709,
        -0.6165459156036377,
        -0.6183770895004272,
        -0.6202075481414795,
        -0.6223745346069336,
        -0.6242048740386963,
        -0.6256699562072754,
        -0.6278668642044067,
        -0.6296977996826172,
        -0.6311626434326172,
        -0.6332677602767944,
        -0.6347328424453735,
        -0.6365635395050049,
        -0.6376316547393799,
        -0.6387299299240112,
        -0.6394624710083008,
        -0.6398284435272217,
        -0.6398286819458008,
        -0.6394624710083008,
        -0.6383640766143799,
        -0.6369295120239258,
        -0.6347328424453735,
        -0.6322609186172485,
        -0.6289656162261963,
        -0.6253035068511963,
        -0.6212760210037231,
        -0.6165456771850586,
        -0.6115115880966187,
        -0.60601806640625,
        -0.6001906394958496,
        -0.5944228172302246,
        -0.5878318548202515,
        -0.5812714099884033,
        -0.5744051933288574,
        -0.5674787759780884,
        -0.5605213642120361,
        -0.5529232025146484,
        -0.5456303358078003,
        -0.537665843963623,
        -0.5296406745910645,
        -0.5215847492218018,
        -0.5132851600646973,
        -0.5048627853393555,
        -0.4961968660354614,
        -0.4874083995819092,
        -0.47874248027801514,
        -0.46958792209625244,
        -0.4609220027923584,
        -0.4514012336730957,
        -0.4423692226409912,
        -0.4328789710998535,
        -0.423084020614624,
        -0.41359376907348633,
        -0.40379881858825684,
        -0.3935762643814087,
        -0.3834151029586792,
        -0.37282633781433105,
        -0.36232972145080566,
        -0.35143542289733887,
        -0.3404812812805176,
        -0.329617977142334,
        -0.3179001808166504,
        -0.307037353515625,
        -0.29580748081207275,
        -0.284456729888916,
        -0.2735929489135742,
        -0.26263880729675293,
        -0.2517448663711548,
        -0.2416137456893921,
        -0.2313615083694458,
        -0.22196245193481445,
        -0.21247267723083496,
        -0.20340991020202637,
        -0.19501805305480957,
        -0.18696272373199463,
        -0.17899811267852783,
        -0.1717052459716797,
        -0.164473295211792,
        -0.1571803092956543,
        -0.15022289752960205,
        -0.143021821975708,
        -0.1356978416442871,
        -0.12883245944976807,
        -0.12153935432434082,
        -0.11421585083007812,
        -0.10664820671081543,
        -0.09932506084442139,
        -0.09175693988800049,
        -0.084067702293396,
        -0.07604193687438965,
        -0.0688103437423706,
        -0.06075441837310791,
        -0.053552985191345215,
        -0.04622948169708252,
        -0.039302706718444824,
        -0.03243684768676758,
        -0.025510311126708984,
        -0.018918991088867188,
        -0.01315164566040039,
        -0.006957530975341797,
        -0.0014643669128417969,
        0.003936052322387695,
        0.009032607078552246,
        0.013792157173156738,
        0.01855313777923584,
        0.022488832473754883,
        0.026486873626708984,
        0.03014826774597168,
        0.03344404697418213,
        0.036373138427734375,
        0.039211392402648926,
        0.04140782356262207,
        0.04394125938415527,
        0.04577147960662842,
        0.04760301113128662,
        0.049067020416259766,
        0.05053246021270752,
        0.051630377769470215,
        0.052729249000549316,
        0.053827524185180664,
        0.054926276206970215,
        0.05593299865722656,
        0.05666553974151611,
        0.05776393413543701,
        0.05849635601043701,
        0.05922877788543701,
        0.05993044376373291,
        0.06066286563873291,
        0.06139528751373291,
        0.06212735176086426,
        0.06212782859802246,
        0.06249356269836426,
        0.06286013126373291,
        0.06285965442657471,
        0.06249403953552246,
        0.06212735176086426,
        0.06176149845123291,
        0.06139516830444336,
        0.06066286563873291,
        0.05993044376373291,
        0.05886268615722656,
        0.05776405334472656,
        0.05703151226043701,
        0.055658698081970215,
        0.05455958843231201,
        0.05346179008483887,
        0.052362680435180664,
        0.05089831352233887,
        0.04943358898162842,
        0.04833483695983887,
        0.04687058925628662,
        0.04577159881591797,
        0.04394114017486572,
        0.04284226894378662,
        0.04140818119049072,
        0.03994345664978027,
        0.038478851318359375,
        0.037746429443359375,
        0.03637337684631348,
        0.035274624824523926,
        0.03417611122131348,
        0.03344416618347168,
        0.03307759761810303,
        0.03271162509918213,
        0.03234553337097168,
        0.03234517574310303,
        0.03271174430847168,
        0.03344404697418213,
        0.03380990028381348,
        0.03490889072418213,
        0.036007046699523926,
        0.037746429443359375,
        0.039211153984069824,
        0.04104208946228027,
        0.04284238815307617,
        0.04503953456878662,
        0.04723632335662842,
        0.04943370819091797,
        0.051630496978759766,
        0.053827524185180664,
        0.055933475494384766,
        0.05776369571685791,
        0.05956470966339111,
        0.06139492988586426,
        0.06285989284515381,
        0.06395840644836426,
        0.06505715847015381,
        0.0661550760269165,
        0.06652224063873291,
        0.0672534704208374,
        0.06762051582336426,
        0.0676201581954956,
        0.0676199197769165,
        0.06762039661407471,
        0.06725382804870605,
        0.06725418567657471,
        0.06688797473907471,
        0.06652140617370605,
        0.06652188301086426,
        0.0661553144454956,
        0.06578946113586426,
        0.06578934192657471,
        0.06542313098907471,
        0.06505680084228516,
        0.06432485580444336,
        0.06359195709228516,
        0.06286013126373291,
        0.06176137924194336,
        0.06029641628265381,
        0.058496832847595215,
        0.05629873275756836,
        0.05419433116912842,
        0.051630258560180664,
        0.04870152473449707,
        0.04577147960662842,
        0.042140960693359375,
        0.03847849369049072,
        0.03490889072418213,
        0.03124678134918213,
        0.027218937873840332,
        0.023221611976623535,
        0.019193649291992188,
        0.01562345027923584,
        0.011961698532104492,
        0.008330464363098145,
        0.005034923553466797,
        0.0021054744720458984,
        -0.0003662109375,
        -0.0029294490814208984,
        -0.005126476287841797,
        -0.007323503494262695,
        -0.009123682975769043,
        -0.010588765144348145,
        -0.01168680191040039,
        -0.012785792350769043,
        -0.01351773738861084,
        -0.014250397682189941,
        -0.01461648941040039,
        -0.01498270034790039,
        -0.014982342720031738,
        -0.014982819557189941,
        -0.014616250991821289,
        -0.014616608619689941,
        -0.014250397682189941,
        -0.01388394832611084,
        -0.01351785659790039,
        -0.013152003288269043,
        -0.01241922378540039,
        -0.011687159538269043,
        -0.010954856872558594,
        -0.009855985641479492,
        -0.008757948875427246,
        -0.0076895952224731445,
        -0.0065909624099731445,
        -0.0051267147064208984,
        -0.003661513328552246,
        -0.0018311738967895508,
        3.5762786865234375e-07,
        0.0017391443252563477,
        0.0039365291595458984,
        0.006499648094177246,
        0.009032130241394043,
        0.011961936950683594,
        0.014890789985656738,
        0.01782083511352539,
        0.021024107933044434,
        0.024686574935913086,
        0.02831721305847168,
        0.03197932243347168,
        0.03564095497131348,
        0.03957712650299072,
        0.043575167655944824,
        0.047235846519470215,
        0.05089879035949707,
        0.05455946922302246,
        0.05813038349151611,
        0.06139504909515381,
        0.06432473659515381,
        0.0672539472579956,
        0.0698171854019165,
        0.07238054275512695,
        0.0744858980178833,
        0.07631683349609375,
        0.07775115966796875,
        0.078849196434021,
        0.0803147554397583,
        0.08104634284973145,
        0.081778883934021,
        0.08251142501831055,
        0.08324337005615234,
        0.0839763879776001,
        0.08470797538757324,
        0.08580708503723145,
        0.08690524101257324,
        0.08800387382507324,
        0.08983492851257324,
        0.09166550636291504,
        0.09340500831604004,
        0.09557163715362549,
        0.09850060939788818,
        0.10106420516967773,
        0.10435962677001953,
        0.10765528678894043,
        0.11092031002044678,
        0.11449062824249268,
        0.11851823329925537,
        0.12218046188354492,
        0.12584161758422852,
        0.12910735607147217,
        0.1323106288909912,
        0.13597309589385986,
        0.1389017105102539,
        0.14183199405670166,
        0.14472997188568115,
        0.14766013622283936,
        0.1501312255859375,
        0.1526947021484375,
        0.1552581787109375,
        0.1581869125366211,
        0.1603846549987793,
        0.1632828712463379,
        0.1662130355834961,
        0.1690502166748047,
        0.1723461151123047,
        0.17600774765014648,
        0.17963898181915283,
        0.18403303623199463,
        0.18833589553833008,
        0.19309556484222412,
        0.19855844974517822,
        0.2040501832962036,
        0.20945203304290771,
        0.21564579010009766,
        0.2218714952468872,
        0.22837042808532715,
        0.23493146896362305,
        0.2415224313735962,
        0.2483576536178589,
        0.2549489736557007,
        0.2614485025405884,
        0.2683751583099365,
        0.2746005058288574,
        0.2807028293609619,
        0.2869284152984619,
        0.2927865982055664,
        0.2985239028930664,
        0.3040158748626709,
        0.30877685546875,
        0.3139026165008545,
        0.3185415267944336,
        0.3229348659515381,
        0.32732951641082764,
        0.3313570022583008,
        0.33526337146759033,
        0.3389248847961426,
        0.3429524898529053,
        0.3466148376464844,
        0.35024523735046387,
        0.35381650924682617,
        0.357477068901062,
        0.36114001274108887,
        0.36516690254211426,
        0.36916494369506836,
        0.3731011152267456,
        0.37712883949279785,
        0.3815234899520874,
        0.38588643074035645,
        0.3902808427810669,
        0.39458346366882324,
        0.39897727966308594,
        0.4029749631881714,
        0.4070028066635132,
        0.41057288646698,
        0.41423487663269043,
        0.4174996614456177,
        0.4200631380081177,
        0.422260046005249,
        0.42409074306488037,
        0.4255557060241699,
        0.42665398120880127,
        0.4273865222930908,
        0.4273867607116699,
        0.4273862838745117,
        0.42738664150238037,
        0.4270203113555908,
        0.42628777027130127,
        0.4259219169616699,
        0.42518937587738037,
        0.4251894950866699,
        0.4244568347930908,
        0.424457311630249,
        0.42482292652130127,
        0.425189733505249,
        0.42555534839630127,
        0.4262881278991699,
        0.42738640308380127,
        0.4287595748901367,
        0.42985808849334717,
        0.4313228130340576,
        0.4327874183654785,
        0.43458807468414307,
        0.4360523223876953,
        0.43751752376556396,
        0.4389817714691162,
        0.44044697284698486,
        0.4411787986755371,
        0.4419114589691162,
        0.4426438808441162,
        0.44264352321624756,
        0.4422776699066162,
        0.4415452480316162,
        0.4404466152191162,
        0.43898212909698486,
        0.4367849826812744,
        0.4342215061187744,
        0.4309570789337158,
        0.4273862838745117,
        0.4233585596084595,
        0.4185985326766968,
        0.4135018587112427,
        0.40846800804138184,
        0.4029742479324341,
        0.39751338958740234,
        0.39165329933166504,
        0.38625335693359375,
        0.3807905912399292,
        0.37603068351745605,
        0.3709956407546997,
        0.36660146713256836,
        0.3622380495071411,
        0.3582099676132202,
        0.35454845428466797,
        0.3506118059158325,
        0.3466145992279053,
        0.3429526090621948,
        0.33855879306793213,
        0.3342561721801758,
        0.32916009426116943,
        0.32366788387298584,
        0.3170762062072754,
        0.31024134159088135,
        0.30218541622161865,
        0.2935192584991455,
        0.2836325168609619,
        0.27276933193206787,
        0.2610822916030884,
        0.2479914426803589,
        0.23419928550720215,
        0.21967387199401855,
        0.20441699028015137,
        0.18833577632904053,
